3
784
30
30
30
30
10
0.116852
-0.409252
-0.0372192
0.228122
0.154103
0.485826
0.45484
0.261837
0.279093
0.195508
-0.119023
0.42113
0.180555
0.161153
0.0731643
-0.00695849
-0.179679
0.069493
0.252944
0.0864186
0.268526
0.215605
0.388137
0.141968
0.257265
0.074887
-0.142987
0.365079
0.44355
0.0671436
-0.0
-0.0
0.0
0.0
0.0
-0.0
-0.0
0.0
-0.0
-0.0
0.0
-0.0
-0.0
-0.0
0.0
0.0
0.0
-0.0
0.0
-0.0
-0.0
-0.0
0.0
-0.0
0.0
-0.0
-0.0
0.0
0.0
0.0
-0.0
-0.0
0.0
-0.0
-0.0
0.0
-0.0
-0.0
0.0
-0.0
0.0
0.0
-0.0
-0.0
0.0
0.0
0.0
0.0
-0.0
0.0
-0.0
-0.0
0.0
0.0
0.0
-0.0
-0.0
0.0
-0.0
0.0
0.0
0.0
0.0
-0.0
0.0
0.0
-0.0
-0.0
0.0
0.0
0.0
-0.0
-0.0
-0.0
-0.0
0.0
-0.0
0.0
-0.0
0.0
-0.0
-0.0
-0.0
0.0
-0.0
0.0
-0.0
-0.0
0.0
-0.0
0.0
-0.0
0.0
-0.0
-0.0
0.0
-0.0
-0.0
0.0
-0.0
-0.0
0.0
0.0
0.0
-0.0
0.0
-0.0
-0.0
-0.0
-0.0
0.0
0.0
0.0
-0.0
0.0
-0.0
-0.0
-0.0
0.0
0.0
-0.0
-0.0
-0.0
-0.0
0.0
0.0
0.0
-0.0
-0.0
0.0
0.0
-0.0
0.0
-0.0
0.0
0.0
-0.0
-0.0
0.0
0.0
-0.0
-0.0
0.0
0.0
-0.0
-0.0
0.0
-0.0
-0.0
-0.0
0.0
-0.0
0.0
0.0
-0.0
-0.0
0.0
-0.0
0.0
0.0
-0.0
-0.0
-0.0
-0.0
0.0
0.0
0.0
0.0
0.0
-0.0
0.0
0.0
-0.0
-0.0
0.0
0.0
-0.0
-0.0
0.0
-0.0
0.0
-0.0
0.0
-0.0
0.0
0.0
0.0
-0.0
-0.0
0.0
-0.0
-0.0
0.0
-0.0
-0.0
-0.0
-0.0
-0.0
0.0
0.0
0.0
0.0
-0.0
-0.0
-0.0
0.0
-0.0
0.0
0.0
0.0
-0.0
0.0
0.0
0.0
0.0
0.0
0.0
-0.0
-0.0
-0.0
-0.0
0.0
-0.0
-0.0
0.0
-0.0
-0.0
0.0
-0.0
-0.0
-0.0
-0.0
-0.0
-0.0
0.0
-0.0
0.0
-0.0
-0.0
-0.0
-0.0
-0.0
-0.0
0.0
0.0
0.0
-0.0
0.0
-0.0
0.0
-0.0
0.0
0.0
0.0
0.0
0.0
-0.0
0.0
0.0
0.0
0.0
-0.0
-0.0
0.0
0.0
-0.0
-0.0
-0.0
0.0
-0.0
0.0
0.0
0.0
-0.0
-0.0
0.0
0.0
-0.0
0.0
0.0
0.0
-0.0
0.0
0.0
0.0
0.0
-0.0
0.0
0.0
0.0
-0.0
0.0
0.0
0.0
0.0
0.0
-0.0
0.0
-0.0
0.0
0.0
0.0
0.0
-0.0
-0.0
-0.0
-0.0
-0.0
0.0
-0.0
-0.0
-0.0
0.0
0.0
-0.0
-0.0
0.0
0.0
-0.0
-0.0
-0.0
0.0
0.0
-0.0
-0.0
0.0
-0.0
0.0
-0.0
0.0
0.0
-0.0
-0.0
0.0
-0.0
0.0
-0.0
-0.0
0.0
0.0
0.0
0.0
-0.0
-0.0
0.0
-0.0
0.0
0.0
-0.0
-0.0
0.0
0.0
0.0
-0.0
-0.0
-0.0
0.0
-0.0
-0.0
-0.0
0.0
0.0
-0.0
-0.0
-0.0
-0.0
0.0
0.0
0.0
0.0
-0.0
0.0
0.0
0.0
0.0
-0.0
-0.0
-0.0
0.0
-0.0
-0.0
-0.0
0.0
-0.0
0.0
0.0
-0.0
-0.0
-0.0
-0.0
-0.0
0.0
-0.0
0.0
0.0
0.0
0.0
-0.0
-0.0
0.0
-0.0
-0.0
-0.0
-0.0
0.0
-0.0
0.0
-0.0
0.0
0.0
-0.0
0.0
-0.0
-0.0
-0.0
0.0
0.0
-0.0
-0.0
-0.0
-0.0
0.0
-0.0
0.0
-0.0
-0.0
-0.0
0.0
-0.0
-0.0
-0.0
0.0
0.0
0.0
0.0
0.0
0.0
0.0
-0.0
-0.0
0.0
-0.0
0.0
-0.0
-0.0
-0.0
-0.0
0.0
0.0
-0.0
-0.0
0.0
-0.0
0.0
0.0
-0.0
0.0
-0.0
0.0
-0.0
0.0
0.0
0.0
0.0
0.0
0.0
0.0
-0.0
0.0
-0.0
-0.0
0.0
-0.0
-0.0
-0.0
-0.0
0.0
0.0
-0.0
0.0
-0.0
-0.0
0.0
0.0
-0.0
0.0
-0.0
-0.0
0.0
-0.0
-0.0
0.0
-0.0
0.0
-0.0
0.0
-0.0
-0.0
-0.0
-0.0
0.0
-0.0
0.0
0.0
-0.0
-0.0
-0.0
0.0
-0.0
-0.0
-0.0
-0.0
-0.0
0.0
0.0
-0.0
0.0
-0.0
-0.0
-0.0
0.0
0.0
0.0
0.0
-0.0
0.0
-0.0
0.0
0.0
0.0
0.0
0.0
0.0
-0.0
-0.0
-0.0
0.0
0.0
0.0
-0.0
-0.0
0.0
-0.0
-0.0
-0.0
-0.0
0.0
0.0
0.0
-0.0
0.0
0.0
0.0
0.0
-0.0
0.0
0.0
0.0
0.0
0.0
-0.0
-0.0
-0.0
0.0
-0.0
0.0
-0.0
0.0
-0.0
-0.0
-0.0
-0.0
0.0
0.0
-0.0
0.0
-0.0
-0.0
-0.0
0.0
-0.0
0.0
-0.0
0.0
0.0
0.0
-0.0
0.0
0.0
0.0
-0.0
-0.0
-0.0
-0.0
0.0
0.0
0.0
-0.0
0.0
-0.0
-0.0
-0.0
0.0
0.0
-0.0
0.0
-0.0
-0.0
-0.0
-0.0
-0.0
-0.0
-0.0
0.0
-0.0
0.0
-0.0
0.0
0.0
0.0
0.0
-0.0
-0.0
0.0
0.0
-0.0
-0.0
-0.0
0.0
0.0
0.0
-0.0
-0.0
0.0
0.0
0.0
0.0
-0.0
0.0
-0.0
0.0
0.0
0.0
-0.0
0.0
-0.0
0.0
0.0
-0.0
-0.0
-0.0
0.0
0.0
0.0
0.0
-0.0
-0.0
0.0
-0.0
0.0
0.0
0.0
-0.0
0.0
0.0
0.0
0.0
-0.0
-0.0
0.0
0.0
0.0
-0.0
0.0
0.0
-0.0
0.0
0.0
0.0
-0.0
-0.0
0.0
0.0
0.0
-0.0
0.0
0.0
-0.0
-0.0
0.0
-0.0
0.0
0.0
-0.0
-0.0
0.0
-0.0
-0.0
0.0
-0.0
0.0
-0.0
-0.0
0.0
-0.0
-0.0
0.0
-0.0
0.0
-0.0
-0.0
0.0
0.0
-0.0
0.0
0.0
-0.0
-0.0
0.0
-0.0
-0.0
-0.0
-0.0
-0.0
-0.0
-0.0
0.0
0.0
0.0
0.0
0.0
0.0
-0.0
0.0
-0.0
0.0
-0.0
-0.0
0.0
-0.0
-0.0
0.0
-0.0
-0.0
-0.0
0.0
0.0
0.0
0.0
-0.0
-0.0
0.0
0.0
0.0
-0.0
0.0
0.0
-0.0
-0.0
0.0
0.0
0.0
0.0
0.0
0.0
0.0
0.0
0.0
0.0
0.0
0.0
-0.0
-0.0
0.0
0.0
0.0
-0.0
0.0
-0.0
0.0
0.0
0.0
0.0
-0.0
-0.0
-0.0
-0.0
0.0
-0.0
0.0
-0.0
-0.0
0.0
-0.0
-0.0
-0.0
-0.0
-0.0
-0.0
0.0
-0.0
0.0
0.0
-0.0
0.0
-0.0
0.0
-0.0
0.0
0.0
0.0
-0.0
-0.0
-0.0
0.0
-0.0
0.0
0.0
0.0
0.0
0.0
0.0
-0.0
-0.0
0.0
0.0
-0.0
-0.0
0.0
-0.0
-0.0
0.0
-0.0
0.0
0.0
-0.0
0.0
-0.0
0.0
-0.0
0.0
0.0
-0.0
-0.0
0.0
-0.0
-0.0
-0.0
0.0
-0.0
0.0
-0.0
0.0
-0.0
-0.0
0.0
0.0
0.0
-0.0
-0.0
-0.0
0.0
-0.0
0.0
-0.0
-0.0
0.0
-0.0
-0.0
-0.0
0.0
0.0
-0.0
0.0
-0.0
-0.0
0.0
0.0
-0.0
0.0
-0.0
-0.0
0.0
0.0
-0.0
-0.0
0.0
0.0
-0.0
-0.0
0.0
-0.0
0.0
-0.0
0.0
-0.0
0.0
0.0
-0.0
0.0
-0.0
-0.0
-0.0
-0.0
-0.0
-0.0
0.0
0.0
0.0
-0.0
-0.0
0.0
0.0
0.0
-0.0
0.0
0.0
0.0
0.0
-0.0
0.0
0.0
-0.0
0.0
-0.0
0.0
0.0
0.0
0.0
-0.0
-0.0
-0.0
0.0
0.0
0.0
-0.0
-0.0
0.0
0.0
-0.0
-0.0
0.0
0.0
0.0
0.0
-0.0
0.0
0.0
-0.0
0.0
-0.0
0.0
-0.0
-0.0
0.0
-0.0
0.0
-0.0
-0.0
0.0
0.0
-0.0
-0.0
0.0
-0.0
-0.0
0.0
0.0
-0.0
-0.0
-0.0
0.0
0.0
-0.0
0.0
-0.0
0.0
0.0
0.0
0.0
0.0
-0.0
0.0
0.0
0.0
-0.0
0.0
-0.0
-0.0
-0.0
-0.0
-0.0
-0.0
0.0
0.0
-0.0
-0.0
-0.0
0.0
-0.0
0.0
0.0
-0.0
0.0
0.0
-0.0
-0.0
-0.0
-0.0
0.0
-0.0
0.0
-0.0
0.0
0.0
-0.0
0.0
0.0
0.0
0.0
0.0
0.0
0.0
-0.0
-0.0
-0.0
0.0
-0.0
-0.0
0.0
0.0
-0.0
0.0
0.0
-0.0
-0.0
0.0
0.0
-0.0
-0.0
0.0
-0.0
-0.0
-0.0
-0.0
-0.0
0.0
-0.0
-0.0
-0.0
-0.0
-0.0
0.0
0.0
-0.0
-0.0
0.0
0.0
-0.0
-0.0
-0.0
0.0
-0.0
-0.0
0.0
0.0
-0.0
0.0
-0.0
0.0
-0.0
-0.0
0.0
0.0
-0.0
-0.0
0.0
-0.0
-0.0
0.0
0.0
-0.0
-0.0
-0.0
0.0
-0.0
0.0
0.0
-0.0
-0.0
-0.0
0.0
-0.0
0.0
0.0
0.0
-0.0
0.0
0.0
0.0
-0.0
-0.0
-0.0
0.0
-0.0
0.0
-0.0
-0.0
-0.0
0.0
-0.0
-0.0
-0.0
0.0
0.0
-0.0
-0.0
0.0
-0.0
-0.0
0.0
0.0
-0.0
-0.0
-0.0
-0.0
-0.0
0.0
-0.0
-0.0
-0.0
0.0
0.0
0.0
-0.0
0.0
0.0
-0.0
-0.0
0.0
-0.0
-0.0
0.0
-0.0
0.0
-0.0
0.0
0.0
-0.0
0.0
-0.0
0.0
0.0
0.0
0.0
-0.0
-0.0
-0.0
-0.0
0.0
-0.0
0.0
-0.0
0.0
-0.0
0.0
-0.0
-0.0
-0.0
0.0
-0.0
0.0
-0.0
-0.0
0.0
-0.0
0.0
-0.0
-0.0
-0.0
-0.0
0.0
0.0
-0.0
0.0
0.0
-0.0
-0.0
0.0
0.0
-0.0306326
-0.0
-0.0
0.0
0.0
-0.0
0.0
-0.0
0.0
0.0
-0.0
-0.0
0.0
0.0
0.0
-0.0
0.0
-0.0
-0.038209
-0.0
-0.0
0.0
-0.0
0.0
0.0
-0.0
0.0
0.0
-0.0
0.0
-0.0455356
-0.0
-0.0
0.0
-0.0
-0.0
0.0
-0.0
0.0
0.0
0.0
0.0
-0.0
0.0
-0.0
-0.0
-0.0
-0.0
-0.0
-0.0
0.0
0.0
-0.0
-0.0
0.0
-0.0
-0.0
0.0
-0.0
-0.0
-0.0
-0.0
-0.0
0.0
-0.0
0.0
-0.0
-0.0
0.0
0.0
0.0
0.0
0.0
-0.0
-0.0
-0.0
-0.0
0.0
-0.0
-0.0
-0.0
-0.0
-0.0
0.0
0.0
-0.0
-0.0
0.0
0.0
-0.0
-0.0
-0.0
-0.0
0.0
-0.0
0.0
-0.0
-0.0
0.0
0.0
-0.0
0.0
0.0
-0.0
-0.0
-0.0
-0.0
0.0
-0.0
-0.0
0.0
-0.0
-0.0
0.0
-0.0
0.0
-0.0
0.0
-0.0
-0.0
-0.0
-0.0
-0.0
-0.0
-0.0
0.0
-0.0
-0.0
0.0
0.0
-0.0
0.0
-0.0
0.0
-0.0
-0.0
-0.0
-0.0
-0.0
-0.0
0.0
-0.0
0.0
-0.0
0.0
0.0
0.0
-0.0
-0.0
0.0
-0.0
-0.0
-0.0
-0.0
0.0
-0.0
0.0
-0.0
-0.0
-0.0
-0.0
-0.0
-0.0
-0.0
-0.0
-0.0
-0.0
0.0
0.0
-0.0
0.0
-0.0
0.0
0.0
0.0
-0.0
0.0
-0.0
-0.0
-0.0
-0.0
0.0
0.0
0.0
0.0
0.0
0.0
-0.0
-0.0
0.0
0.0
0.0
0.0
0.0
0.0
-0.0
-0.0
-0.0
-0.0
-0.0
-0.0
-0.0
-0.0
0.0
0.0
0.0
-0.0
-0.0
0.0
0.0
-0.0
-0.0
0.0
0.0
0.0
0.0
0.0
-0.0
0.0
0.0
-0.0
-0.0
0.0
0.0
0.0
-0.0
0.0
-0.0
-0.0
-0.0
0.0
-0.0
-0.0
0.0
-0.0
0.0
-0.0
-0.0
-0.0
0.0
-0.0
-0.0
0.0
0.0
-0.0
0.0
0.0
0.0
-0.0
0.0
-0.0
-0.0
0.0
-0.0
-0.0
-0.0
-0.0
0.0
-0.0
-0.0
0.0
-0.0
-0.0
0.0
0.0
-0.0
-0.0
-0.0
0.0
0.0
-0.0
0.0
-0.0
0.0
0.0
0.0
-0.0
-0.0
0.0
0.0
-0.0
-0.0
0.0
-0.0
0.0
-0.0
0.0
0.0
-0.0
-0.0
-0.0
0.0
-0.0
0.0
-0.0
0.0
0.0
-0.0
0.0
-0.0
-0.0
-0.0
0.0
0.0
0.0
0.0
0.0
-0.0
-0.0
0.0
0.0
-0.0
0.0
0.0
-0.0
-0.0
0.0
-0.0
-0.0
0.0
-0.0
0.0
0.0
-0.0
-0.0
0.0
-0.0
-0.0
-0.0
-0.0
0.0
0.0
-0.0
-0.0
0.0
0.0
-0.0
0.0
0.0
0.0
-0.0
-0.0
0.0
0.0
0.0
-0.0
-0.0
-0.0
-0.0
0.0
0.0
-0.0
0.0
-0.0
-0.0
0.0
-0.0
0.0
-0.0
0.0
0.0
-0.0
-0.0
-0.0
-0.0
-0.0
0.0
0.0
0.0
-0.0
-0.0
-0.0
0.0
-0.0
0.0
0.0
-0.0
0.0
-0.0
0.0
0.0
0.0
-0.0
-0.0
-0.0
0.0
0.0
0.0
0.0
-0.0
0.0
0.0
0.0
-0.0
0.0
-0.0
0.0
-0.0
-0.0
-0.0
-0.0
0.0
0.0
0.0
0.0
-0.0
-0.0
0.0
0.0
0.0
-0.0
0.0
0.0
0.0
-0.0
-0.0
-0.0
0.0
0.0
-0.0
-0.0
0.0
0.0
0.0
0.0
0.0
-0.0
0.0
-0.0
-0.0
0.0
0.0
0.0
-0.0
0.0
0.0
-0.0
-0.0
0.0
0.0
-0.0
-0.0
-0.0
-0.0
-0.0
0.0
0.0
0.0
0.0
0.0
0.0
0.0
-0.0
0.0
0.0
-0.0
-0.0
-0.0
-0.0
0.0
-0.0
0.0
-0.0
-0.0
-0.0
-0.0
-0.0
-0.0
-0.0
0.0
0.0
-0.0
-0.0
-0.0
0.0
0.0
0.0
0.0
0.0
0.0
-0.0
-0.0
0.0
-0.0
-0.0
0.0
0.0
-0.0
-0.0
0.0
-0.0
-0.0
0.0
-0.0
-0.0
-0.0
-0.0
-0.0
-0.0
-0.0
-0.0
0.0
0.0
-0.0
0.0
-0.0
0.0
0.0
-0.0
0.0
0.0
0.0
0.0
0.0
0.0
-0.0
-0.0
0.0
0.0
0.0
-0.0
0.0
0.0
0.0
0.0
0.0
0.0
-0.0
-0.0
-0.0
0.0
-0.0
-0.0
-0.0
-0.0
0.0
-0.0
0.0
-0.0
0.0
-0.0
0.0
-0.0
-0.0
-0.0
-0.0
-0.0
0.0
0.0
-0.0
0.0
-0.0
-0.0
0.0
-0.0
0.0
0.0
0.0
0.0
0.0
0.0
0.0
0.0
0.0
-0.0
-0.0
0.0
0.0
0.0
0.0
0.0
-0.0
-0.0
0.0
-0.0
0.0
0.0
0.0
0.0
-0.0
-0.0
-0.0
-0.0
-0.0
-0.0
0.0
-0.0
-0.0
0.0
-0.0
-0.0
0.0
-0.0
-0.0
-0.0
0.0
0.0
0.0
0.0
-0.0
-0.0
0.0
-0.0
-0.0
0.0
-0.0
-0.0
0.0
-0.0
-0.0
-0.0
-0.0
-0.0
-0.0
0.0
0.0
-0.0
0.0
0.0
0.0
0.0
0.0
0.0
0.0
-0.0
0.0
-0.0
-0.0
-0.0
-0.0
0.0
0.0
-0.0
-0.0
-0.0
0.0
0.0
0.0
0.0
-0.0
0.0
-0.0
0.0
0.0
0.0
-0.0
-0.0
0.0
-0.0
0.0
0.0
0.0
0.0
-0.0
-0.0
-0.0
0.0
-0.0
-0.0
-0.0
0.0
0.0
-0.0
0.0
-0.0
0.0
0.0
0.0
0.0
0.0
0.0
0.0
-0.0
-0.0
-0.0
0.0
0.0
-0.0
-0.0
-0.0
-0.0
0.0
-0.0
0.0
0.0
-0.0
-0.0
-0.0
-0.0
-0.0
-0.0
0.0
0.0
-0.0
-0.0
0.0
-0.0
-0.0
-0.0
0.0
-0.0
-0.0
0.0
-0.0
0.0
-0.0
0.0
-0.0
-0.0
-0.0
-0.0
0.0
-0.0
0.0
0.0
-0.0
-0.0
-0.0
0.0
0.0
-0.0
-0.0
-0.0
0.0
0.0
0.0
0.0
-0.0
-0.0
0.0
-0.0
-0.0
-0.0
0.0
0.0
-0.0
0.0
0.0
-0.0
-0.0
0.0
-0.0
-0.0
0.0
0.0
-0.0
0.0
-0.0
0.0
0.0
-0.0
0.0
-0.0
0.0
-0.0
-0.0
-0.0
-0.0
-0.0
0.0
0.0
0.0
-0.0
-0.0
0.0
-0.0
-0.0
-0.0
-0.0
-0.0
-0.0
-0.0
-0.0
0.0
0.0416329
-0.0
-0.0
-0.0
0.0
-0.0
-0.0
-0.0
-0.0
0.0
0.0
0.0
-0.0
-0.0
-0.0
0.0
-0.0
-0.0
-0.0
-0.0
0.0366459
-0.0452406
-0.0
-0.0
-0.0626595
-0.0
-0.0
-0.0
-0.0
0.0
0.0618224
-0.0
-0.0
-0.0
-0.0
-0.0
-0.0428197
-0.0
-0.0466902
0.0438965
-0.0
-0.0
-0.0
-0.0557002
-0.0
0.0371207
-0.0
0.0
0.0
-0.0
0.0503042
-0.0457116
-0.0
-0.0
-0.0642179
-0.0
0.0
-0.0
-0.0
0.0
0.0615328
0.0
-0.0
-0.0
-0.0
-0.0
-0.0561255
-0.0
-0.031655
0.0625454
-0.0
-0.0
0.0
-0.0505119
-0.0
0.0451897
-0.0
-0.0
0.0
-0.0
0.0533407
-0.0337255
-0.0
-0.0
-0.0915418
-0.0
-0.0
-0.0
-0.0
0.0391687
0.077734
-0.0
-0.0
-0.0
-0.0
-0.0
-0.0769532
-0.0
-0.0322052
0.0685357
-0.0
0.0
-0.0
-0.0585897
-0.0
0.0585962
-0.0301592
-0.0
-0.0
-0.03638
0.0765443
-0.0311876
-0.0428336
-0.0
-0.0827528
-0.0
-0.0
-0.0
-0.0533448
0.0406336
0.0610774
-0.0
-0.0
-0.0
-0.0
-0.0
-0.0704055
0.0
-0.0
0.0793579
-0.0
0.0
-0.0
-0.0586783
-0.0
0.0735752
-0.0341578
0.0
-0.0
-0.0343805
0.0770985
-0.0444304
-0.0422158
-0.0
-0.0468741
-0.0
0.0
-0.0328396
-0.0500741
0.0497846
0.0703558
0.0
-0.0
-0.0
-0.0331305
0.0
-0.0543965
-0.0
-0.0
0.0749191
-0.0
0.0
-0.0
-0.0434376
-0.0345717
0.0779615
-0.0569495
0.0
-0.0
-0.0
0.0785641
-0.0341946
-0.0663112
-0.0356664
-0.0413118
-0.0348163
0.0
-0.0631014
-0.0387935
0.0490167
0.0618314
0.0
-0.0
-0.0410299
-0.0340704
0.0386386
-0.0366897
-0.0
-0.0
0.07725
-0.0
0.0
0.0
-0.0403215
-0.0337387
0.0639734
-0.0418212
0.0
-0.0
-0.0
0.072188
-0.0
-0.0482007
-0.0
-0.0385266
-0.0329668
0.0
-0.0599976
-0.0362736
0.0494258
0.0622403
0.0
-0.0
-0.0310587
-0.0
0.0
-0.04477
-0.0
-0.0
0.0812088
-0.0
0.0
0.0
-0.0387986
-0.0349627
0.0699207
-0.0
0.0
-0.0
-0.0
0.0556727
-0.0
-0.0536759
-0.0
-0.0
-0.0362105
-0.0
-0.0
-0.0
0.0352413
0.0499833
0.0
-0.0
-0.0452377
-0.0
0.0
-0.0
-0.0
-0.0
0.0670814
-0.0
-0.0
-0.0
-0.0
-0.0322391
0.0691133
-0.0
-0.0
-0.0
-0.0
0.0561975
-0.0
-0.0398615
0.0
-0.0
-0.037845
-0.0
-0.0301971
-0.0
0.0372936
0.0344116
-0.0
-0.0300373
-0.040392
-0.0
-0.0
-0.0
-0.0
-0.0
0.0538297
-0.0
-0.0
-0.0
-0.0
-0.0
0.0382024
-0.046348
-0.0
-0.0
-0.0
0.0528666
-0.0
-0.0347278
-0.0
-0.0
-0.0
-0.0
-0.0414308
-0.0362006
0.0566107
0.0311645
-0.0
-0.0
-0.0318579
-0.0
-0.0
-0.0
-0.0
-0.0
0.0
-0.0
0.0
-0.0
-0.0
-0.0
0.0326995
-0.0333178
-0.0
0.0
-0.0
0.0318498
-0.0
-0.0
0.0
0.0
-0.0
0.0
-0.0320353
-0.0
0.0354313
0.0351973
-0.0
-0.0
-0.0
0.0
-0.0
0.0
-0.0
-0.0
0.0317982
0.0
-0.0
-0.0
-0.0
-0.0
0.0327769
-0.0
-0.0
0.0
-0.0
0.0
-0.0
-0.0
0.0
0.0
-0.0
-0.0
-0.0
-0.0
0.0
0.0
-0.0
-0.0
0.0
0.0
-0.0
0.0
-0.0
-0.0
0.0
-0.0
-0.0
-0.0
-0.0
-0.0
0.0
-0.0
-0.0
0.0
-0.0
0.0
-0.0
-0.0
0.0
-0.0
0.0
0.0
-0.0
-0.0
0.0
0.0
0.0
0.0
-0.0
0.0
-0.0
-0.0
0.0
-0.0
0.0
-0.0
-0.0
-0.0
-0.0
0.0
0.0
-0.0
0.0
0.0
0.0
0.0
0.0
0.0
-0.0
0.0
-0.0
0.0
-0.0
-0.0
0.0
0.0
-0.0
-0.0
-0.0
-0.0
-0.0
-0.0
-0.0
-0.0
0.0
0.0
-0.0
0.0
-0.0
-0.0
0.0
0.0
0.0
0.0
0.0
-0.0
-0.0
-0.0
-0.0
0.0
0.0
-0.0
0.0
0.0
0.0
-0.0
0.0
0.0
0.0
0.0
0.0
-0.0
-0.0
-0.0
0.0
0.0
-0.0
-0.0
0.0
-0.0
0.0
0.0
-0.0
-0.0
0.0
-0.0
-0.0
-0.0
-0.0
0.0
-0.0
0.0
-0.0
0.0
-0.0
-0.0
-0.0
0.0
0.0
-0.0
0.0
-0.0
-0.0
-0.0
-0.0
-0.0
0.0
-0.0
-0.0
0.0
0.0
-0.0
0.0
0.0
-0.0
-0.0
-0.0
-0.0
0.0
0.0
-0.0
-0.0
-0.0
0.0
-0.0
-0.0
0.0
0.0
-0.0
0.0
0.0
-0.0
0.0
0.0
0.0
-0.0
0.0
-0.0
-0.0
-0.0
-0.0
-0.0
-0.0
-0.0
0.0
0.0
0.0
0.0
-0.0
0.0
-0.0
-0.0
0.0
0.0
-0.0
0.0
-0.0
0.0
-0.0
0.0
0.0
-0.0
0.0
0.0
-0.0
0.0
0.0
-0.0
-0.0
-0.0
0.0
-0.0
0.0
-0.0
-0.0
0.0
0.0
-0.0
-0.0
0.0
0.0
0.0
0.0
0.0
0.0
-0.0
-0.0
-0.0
-0.0
-0.0
-0.0
0.0
-0.0
-0.0
0.0
-0.0
0.0
0.0
0.0
-0.0
0.0
-0.0
0.0
0.0
0.0
0.0
-0.0
0.0
-0.0
0.0
0.0
0.0
-0.0
0.0
-0.0
0.0
0.0
0.0
-0.0
-0.0
0.0
0.0
0.0
-0.0
0.0
-0.0
-0.0
-0.0
-0.0
0.0
-0.0
0.0
0.0
-0.0
-0.0
-0.0
0.0
0.0
-0.0
0.0
-0.0
-0.0
-0.0
0.0
0.0
0.0
0.0
0.0
-0.0
0.0
0.0
-0.0
-0.0
0.0
-0.0
0.0
0.0
-0.0
0.0
0.0
-0.0
0.0
-0.0
0.0
0.0
0.0
-0.0
-0.0
-0.0
-0.0
-0.0
-0.0
-0.0
0.0
-0.0
-0.0
-0.0
0.0
-0.0
-0.0
0.0
0.0
0.0
0.0
0.0
0.0
0.0
-0.0
-0.0
0.0
-0.0
0.0
0.0
-0.0
0.0
0.0
0.0
-0.0
-0.0
0.0
-0.0
-0.0
-0.0
-0.0
0.0
0.0
0.0
0.0
-0.0
-0.0
0.0
-0.0
-0.0
-0.0
0.0
-0.0
0.0
-0.0
-0.0
0.0
0.0
-0.0
-0.0
-0.0
-0.0
0.0
0.0
-0.0
-0.0
0.0
-0.0
0.0
-0.0
-0.0
0.0
0.0
-0.0
0.0
-0.0
0.0
-0.0
-0.0
-0.0
0.0
0.0
0.0
-0.0
0.0
-0.0
-0.0
0.0
-0.0
0.0
0.0
0.0
0.0
-0.0
-0.0
0.0
-0.0
-0.0
0.0
-0.0
-0.0
0.0
0.0
0.0
0.0
-0.0
-0.0
0.0
-0.0
-0.0
-0.0
0.0
-0.0
0.0
0.0
-0.0
0.0
0.0
-0.0
-0.0
-0.0
0.0
0.0
-0.0
-0.0
0.0
-0.042517
-0.0324776
0.0
0.0
-0.0
0.0
0.0
-0.0
0.0
-0.0
-0.0
0.0
-0.0420797
-0.0
-0.0
0.0
-0.0
-0.0
-0.0
-0.0
0.0
0.0
0.0
0.0
-0.0
0.0
0.0351051
-0.0
-0.0
0.0
-0.0563808
-0.0321548
0.0
0.0
-0.0
0.0
0.0
-0.0
0.0
-0.0
-0.0
0.0
-0.0617643
-0.0
-0.0
0.0
-0.0
-0.0
0.0
-0.0635962
0.0
0.0
0.0
-0.0
-0.0
0.0
0.0583809
-0.0
-0.0
-0.0
-0.0704732
-0.0480099
0.0
0.0
-0.0
0.0
0.0394055
-0.0
0.0
-0.040341
-0.0
0.0377744
-0.0483447
-0.0
-0.0
0.0382295
-0.0
-0.0
0.0
-0.0661551
-0.0
0.0561386
0.0
0.0
-0.0
0.0
0.0815631
-0.0725596
-0.0
0.0
-0.0974569
-0.0696439
0.0434035
0.0
-0.0
0.0377166
0.0341429
-0.0
0.0
-0.055039
-0.0
0.0561772
-0.0757117
-0.0
-0.0603775
0.0
-0.0
-0.0
0.0395185
-0.0726074
-0.0
0.0650745
0.0
0.0
-0.0
0.0
0.0575991
-0.0786587
-0.0
0.0471556
-0.0920691
-0.0685534
0.0733323
0.031286
-0.0
0.0298752
0.0340604
0.0
0.0
-0.0652245
-0.0
0.0596344
-0.0801801
-0.0
-0.050931
0.0
-0.0
-0.03118
0.0536984
-0.0989192
-0.0
0.0784677
0.0299642
0.0
0.0
-0.0537526
0.0
-0.0840691
0.0
0.0670661
-0.123566
-0.0518743
0.0898501
0.0475526
0.0
0.0
-0.0
0.0
0.0
-0.0460452
-0.0
0.0515314
-0.119681
-0.0
-0.0649708
-0.0
-0.0
-0.0
0.0451397
-0.114306
-0.0
0.0674496
0.0
0.0371648
0.0
-0.0732036
0.039509
-0.113367
-0.0
0.0446575
-0.165181
-0.0548537
0.0767912
0.0352946
0.0
0.0
-0.0
0.0
0.0
-0.0374475
-0.0299872
0.0483609
-0.137285
-0.0
-0.0904319
-0.0
-0.0
-0.0
0.0
-0.134351
-0.0
0.0890972
0.0
0.0
-0.0
-0.100593
0.0827985
-0.121583
-0.038483
0.0
-0.13819
-0.0672849
0.0738281
0.0
-0.0404374
0.0298917
0.0
0.0
-0.0
-0.0649987
-0.0
0.0586518
-0.120446
-0.0
-0.0671026
-0.0
-0.0
-0.0388377
0.0401324
-0.104593
-0.0
0.106196
0.0
0.0
-0.0
-0.0737639
0.0821372
-0.111511
-0.0682503
0.0
-0.130006
-0.0835546
0.0927684
0.0
-0.0876508
0.0299701
0.0
0.0531717
-0.0
-0.0897816
-0.0
0.0890994
-0.116634
-0.0
-0.0732542
0.0
-0.0444454
-0.0
0.0377786
-0.114604
-0.0599667
0.103378
0.0
-0.0
-0.0510487
-0.0363733
0.0698473
-0.0836847
-0.0722538
-0.0
-0.0811573
-0.0603741
0.0576781
-0.0
-0.0914736
0.0298669
0.0298942
0.0
-0.0
-0.0935463
-0.0
0.0774945
-0.0713757
-0.0
-0.0857299
0.0
-0.0
-0.0
0.0
-0.0802651
-0.0848586
0.055647
0.0
-0.0397811
-0.0567066
0.0
0.0612423
-0.0442317
-0.0619333
0.0
-0.0352432
-0.083089
0.0
-0.0
-0.0596354
0.0
0.0
-0.0
-0.044479
-0.0972449
-0.0
0.0461259
-0.0375401
-0.0
-0.0780935
0.0
-0.0
-0.0399296
0.0
-0.0357612
-0.05458
0.0299152
-0.0758307
-0.0582874
-0.0474346
-0.0716633
0.0863233
-0.0460907
-0.0607955
0.0
-0.0
-0.0859989
-0.0559792
-0.0401925
-0.0917006
0.0
0.0
-0.0
-0.0534467
-0.0954681
0.0
-0.0
-0.0299914
-0.0
-0.0833416
0.0
-0.0368264
-0.0632347
-0.0
-0.0
-0.0475954
0.0334251
-0.0980644
-0.0504079
-0.0555965
-0.080966
0.0928086
-0.0372755
-0.0769066
-0.0
-0.0
-0.0560167
-0.0712735
-0.0500098
-0.0894932
0.0
0.0299205
-0.040372
-0.0725513
-0.0766046
-0.0
-0.034546
-0.0
0.0
-0.0672852
0.0388262
-0.0
-0.0409342
-0.0
-0.0
-0.0455334
0.054034
-0.09662
-0.0
-0.0
-0.0961449
0.0810692
-0.0333815
-0.0460744
-0.0
-0.0
-0.0
-0.0556273
-0.0692258
-0.0706474
0.0298413
0.0473758
-0.0560954
-0.0484202
-0.0339657
-0.0
-0.0500684
-0.0
-0.0
-0.0503507
0.0460418
-0.0
-0.0365684
-0.0
-0.0
-0.0457916
0.0448939
-0.081442
-0.0
-0.0
-0.070203
0.0742283
-0.0358439
-0.0501827
-0.0
-0.0
-0.0322117
-0.0488932
-0.0619567
-0.0564896
0.0299644
0.0415511
-0.0466984
-0.0354756
-0.0506527
-0.0
-0.0557578
-0.0
-0.0
-0.0329439
0.0492799
-0.0
-0.0
-0.0
0.0
-0.0419899
0.0681385
-0.0638576
0.0
-0.0
-0.056406
0.0524588
-0.0
-0.053266
-0.0
0.0
-0.0
-0.0
-0.0669152
-0.0403851
0.0
0.0
-0.0
-0.043079
-0.0
-0.0
-0.060984
0.0
0.0
-0.0
0.0
-0.0
-0.0
-0.0329984
0.0
-0.0421824
0.0348155
-0.0473615
-0.0
0.0
-0.0402627
0.0407105
0.0
-0.0438571
-0.0
0.0
-0.0
-0.0
-0.0474153
-0.0
0.0
-0.0
-0.0
-0.0
-0.0
-0.0
-0.0411247
0.0
-0.0
-0.0
0.0
-0.0
-0.0
-0.0
-0.0
-0.0
0.0
-0.0
0.0
-0.0
-0.0
0.0
-0.0
-0.0
-0.0
0.0
-0.0
-0.0
-0.0
-0.0
0.0
-0.0
-0.0
-0.0
-0.0
-0.0
-0.0
0.0
0.0
-0.0
0.0
-0.0
0.0
-0.0
0.0
-0.0
0.0
-0.0
-0.0
-0.0
0.0
0.0
-0.0
0.0
-0.0
0.0
-0.0
0.0
-0.0
0.0
-0.0
0.0
-0.0
-0.0
-0.0
-0.0
-0.0
0.0
-0.0
0.0
-0.0
-0.0
0.0
0.0
-0.0
-0.0
0.0
-0.0
-0.0
0.0
-0.0
-0.0
-0.0
0.0
-0.0
0.0
-0.0
-0.0
-0.0
-0.0
0.0
0.0
0.0
0.0
0.0
-0.0
-0.0
-0.0
0.0
0.0
0.0
0.0
0.0
0.0
0.0
-0.0
-0.0
-0.0
0.0
-0.0
0.0
0.0
-0.0
0.0
-0.0
0.0
-0.0
-0.0
0.0
0.0
-0.0
-0.0
0.0
-0.0
0.0
0.0
-0.0
0.0
0.0
-0.0
0.0
-0.0
0.0
-0.0
0.0
0.0
0.0
0.0
-0.0
-0.0
-0.0
-0.0
-0.0
-0.0
0.0
0.0
-0.0
-0.0
-0.0
-0.0
0.0
-0.0
0.0
0.0
0.0
0.0
0.0
0.0
-0.0
-0.0
0.0
0.0
0.0
0.0
-0.0
0.0
0.0
-0.0
0.0
-0.0
-0.0
-0.0
-0.0
-0.0
0.0
-0.0
-0.0
-0.0
-0.0
0.0
0.0
-0.0
-0.0
-0.0
-0.0
0.0
-0.0
0.0
-0.0
0.0
-0.0
-0.0
-0.0
0.0
0.0
0.0
0.0
-0.0
0.0
0.0
-0.0
-0.0
-0.0
0.0
-0.0
0.0
-0.0
0.0
0.0
0.0
-0.0
-0.0
0.0
-0.0
-0.0
0.0
0.0
-0.0
-0.0
0.0
-0.0
0.0
0.0
-0.0
0.0
-0.0
0.0
0.0
-0.0
-0.0
-0.0
0.0
0.0
-0.0
0.0
-0.0
0.0
-0.0
-0.0
0.0
-0.0
-0.0
0.0
0.0
0.0
-0.0
-0.0
0.0
-0.0
-0.0
0.0
0.0
0.0
0.0
-0.0
-0.0
-0.0
-0.0
0.0
0.0
-0.0
0.0
-0.0
0.0
0.0
-0.0
0.0
0.0
-0.0
0.0
0.0
0.0
0.0
0.0
-0.0
0.0
0.0
-0.0
0.0
0.0
0.0
-0.0
0.0
-0.0
0.0
0.0
0.0
-0.0
0.0
0.0
-0.0
0.0
-0.0
-0.0
0.0
0.0
-0.0
0.0
0.0
-0.0
0.0
0.0
0.0
0.0
-0.0
-0.0
0.0
-0.0
0.0
-0.0
0.0
-0.0
-0.0
-0.0
-0.0
0.0
0.0
0.0
0.0
0.0
0.0
0.0
0.0
-0.0
0.0
0.0
-0.0
0.0
0.0
0.0
0.0
0.0
0.0
0.0496946
-0.0
0.0
0.0
0.0
-0.0
0.0
0.0
0.0
-0.0
0.0
0.0
0.0
0.0
0.0
0.0484705
0.0
0.0
0.0
0.0
0.0
0.0533684
-0.0458334
-0.0
0.0
0.0
0.0
0.0
0.0
0.0
0.0450161
-0.0
0.0
0.0
-0.0482913
-0.0
-0.0
-0.0
-0.0
-0.0
0.0
-0.0409408
0.0
0.030482
0.0
0.0655907
0.0
0.0
0.0
-0.0374675
0.0
0.0660535
-0.0591064
-0.0559629
0.0545638
0.0458989
0.0
-0.0
0.0
0.0
0.0296333
-0.0461606
0.0
0.0691986
-0.0638774
-0.0
-0.0
0.0
-0.0
-0.0
0.0388895
-0.0591745
0.0
0.0429417
0.0666429
0.076311
-0.0
0.0434877
0.0422866
-0.0614514
0.0
0.0535619
-0.0566888
-0.0830282
0.10527
0.0648514
0.0
-0.0
0.0
-0.0
0.0299311
-0.0710183
-0.0
0.0985135
-0.0549177
-0.0
-0.0415026
0.0
-0.0
-0.0606196
0.0747729
-0.0776844
0.0
0.0449297
0.104639
0.0850232
0.0
0.0707003
0.0415827
-0.0926576
0.0
0.0716085
-0.0915246
-0.0765233
0.12744
0.0852919
0.0373876
-0.0
0.0514582
0.0
0.0
-0.0832727
0.0
0.147244
-0.0790245
-0.037819
-0.0366623
0.0
-0.0
-0.0373746
0.088268
-0.074126
0.0435018
0.0299386
0.109474
0.0680365
0.0
0.0299871
-0.0
-0.0872905
0.042037
0.0971772
-0.0852236
-0.0500197
0.120059
0.124974
0.099948
-0.0567624
0.0
-0.0
0.0298677
-0.0475054
0.0379305
0.117396
-0.082843
-0.0505508
-0.0621873
0.0
0.0
-0.0
0.0765526
-0.0742546
0.0609637
-0.0
0.0755452
0.0964906
0.0583355
0.0349109
-0.0379719
-0.0523147
0.0
0.046302
-0.129769
-0.0
0.122151
0.064877
0.10281
-0.0386115
0.0314505
0.0
0.0428472
-0.0
0.0
0.0846587
-0.114493
-0.056974
-0.07345
0.0
-0.0420831
0.0
0.0298166
-0.0880806
0.0
0.0
0.06474
0.103438
0.0932355
0.0297896
-0.0365132
-0.0434812
-0.0
0.0498742
-0.142399
0.0
0.131565
0.0388556
0.122919
0.0
0.0
0.077316
0.0297945
0.0
0.0
0.0552232
-0.121469
-0.0562098
-0.0483693
0.0
-0.0607129
0.042216
0.0297742
-0.101698
0.0
0.0
0.0
0.121805
0.0766928
0.0298898
-0.0471279
-0.0570749
-0.0433038
0.0297495
-0.167901
0.0
0.123953
0.0
0.0312595
0.0
0.0
0.0494685
0.0299456
-0.0506115
0.0
0.0299827
-0.158758
-0.0837387
-0.0719453
0.0
-0.0679941
0.0
0.0298364
-0.134366
-0.0
0.0
0.0445363
0.0777726
0.0588206
0.0
-0.0913578
-0.0597042
0.0
0.0
-0.16492
0.0
0.0877795
0.0408436
0.0
0.0
-0.0747642
0.0
0.0
0.0
0.0633574
0.0295768
-0.124776
-0.077981
-0.0612446
-0.0535379
-0.0673288
0.0
0.0298041
-0.138709
0.0
-0.0652481
0.0344016
0.0412853
0.0
0.0
-0.0
-0.0347496
0.0
0.0
-0.064436
0.0
0.0
0.034211
0.0
-0.0
0.0
-0.0
-0.0
0.0
0.0454787
0.0
-0.0514263
-0.0538557
-0.0683957
0.0
-0.0
0.0
0.0298982
-0.0805472
0.0
-0.0
0.0
0.0
0.0
0.0
0.0298472
0.0
0.0
0.0299063
-0.043519
0.0
-0.0
0.040482
-0.0
-0.0
0.0
0.0
-0.0
-0.0
0.0627748
0.0297661
-0.0333701
-0.0565118
-0.0653438
-0.0
-0.0499416
0.0
0.0298768
-0.0558516
0.0
0.0
0.0
0.0
0.029983
-0.0757396
0.0
0.0
0.0
0.0519708
-0.0
0.0
-0.0497424
0.0594051
0.0
-0.0
0.0
0.0521224
-0.0506549
-0.0
0.0929861
0.038878
-0.0
-0.0341863
-0.0
-0.0
0.0
0.0
0.0298727
-0.0
0.0
0.0
0.0
0.0
0.0298088
-0.0470873
0.0298989
0.0399012
-0.034712
0.0357158
0.0
-0.0
-0.0454223
0.0
0.0
0.0
0.0
0.043437
-0.0
-0.0362884
0.0554041
-0.0
0.0
-0.0
0.0299656
-0.0
-0.0
0.0
0.0
0.0
0.0
0.0401042
0.0
0.0
0.0
-0.0
0.0468567
0.0346939
-0.0753803
0.0
0.0
0.0
-0.0445157
-0.0506659
0.0
0.0
0.0
0.0
-0.0
-0.0567942
0.0
-0.0
0.0
-0.0
0.0610192
0.0
-0.0332301
0.0415597
-0.0
0.0
-0.0531532
0.0676408
-0.0375994
-0.0458698
-0.0
-0.0486633
0.0413101
0.0299459
-0.0899232
0.0
0.0515214
-0.0483109
-0.0728109
-0.050952
-0.0470685
-0.0
0.0
-0.0507536
-0.0405283
-0.0468558
-0.0
-0.0665962
0.0353454
-0.0
0.0795145
-0.0
-0.0
0.0682997
-0.0568464
0.0
0.0
0.0704812
-0.0663127
-0.0580242
-0.0
-0.0777949
0.0462178
0.029896
-0.0729618
-0.0351556
0.0382148
0.0
-0.072169
-0.0422592
-0.0718814
-0.0
-0.088373
-0.0686372
-0.0727576
-0.0374622
-0.0
-0.0753295
0.0
-0.0
0.035469
-0.0448035
-0.0
0.0
-0.0535089
0.0
0.0
0.0515189
-0.0828675
-0.0663338
-0.0
-0.0894016
0.0
0.0396283
-0.0725201
-0.0396969
0.0
-0.0
-0.0711165
-0.03601
-0.0634914
-0.0
-0.0858612
-0.052846
-0.0814093
-0.0404968
0.0
-0.0725572
0.0
0.0
0.0
-0.0371959
-0.0
-0.0
-0.0496004
0.0
-0.0
0.0
-0.0488513
-0.0
-0.0
-0.0632252
-0.0
0.0
-0.0
-0.0
0.0
-0.0
-0.043423
0.0
-0.0393822
-0.0
-0.0558971
-0.0
-0.0746964
-0.0395946
0.0
-0.0
0.0
-0.0
-0.0
-0.0
-0.0
-0.0
-0.0
0.0
0.0
-0.0
-0.0
0.0
-0.0
-0.0
-0.0
-0.0
0.0
0.0
0.0
0.0
-0.0
0.0
-0.0
-0.0
-0.0
-0.0
-0.0
-0.0
0.0
-0.0
-0.0
-0.0
-0.0
-0.0
0.0
-0.0
-0.0
-0.0
0.0
-0.0
-0.0
-0.0
0.0
0.0
-0.0
-0.0
0.0
-0.0
0.0
0.0
-0.0
0.0
0.0
-0.0
-0.0
0.0
0.0
-0.0
0.0
-0.0
-0.0
0.0
-0.0
0.0
-0.0
0.0
0.0
0.0
0.0
-0.0
0.0
-0.0
0.0
-0.0
0.0
-0.0
-0.0
-0.0
-0.0
-0.0
-0.0
-0.0
0.0
0.0
0.0
-0.0
0.0
-0.0
0.0
0.0
0.0
0.0
-0.0
-0.0
0.0
-0.0
-0.0
-0.0
-0.0
0.0
-0.0
0.0
0.0
0.0
-0.0
-0.0
0.0
-0.0
0.0
0.0
0.0
-0.0
-0.0
0.0
0.0
-0.0
0.0
-0.0
-0.0
0.0
0.0
-0.0
0.0
0.0
0.0
0.0
0.0
0.0
-0.0
-0.0
0.0
0.0
0.0
-0.0
-0.0
0.0
0.0
-0.0
-0.0
0.0
0.0
0.0
0.0
-0.0
0.0
-0.0
-0.0
0.0
-0.0
0.0
-0.0
0.0
-0.0
-0.0
0.0
-0.0
-0.0
0.0
0.0
0.0
-0.0
-0.0
-0.0
0.0
0.0
0.0
-0.0
0.0
-0.0
0.0
0.0
-0.0
-0.0
0.0
0.0
-0.0
-0.0
-0.0
0.0
0.0
-0.0
0.0
0.0
-0.0
-0.0
-0.0
0.0
-0.0
0.0
-0.0
-0.0
0.0
-0.0
0.0
-0.0
0.0
0.0
0.0
0.0
0.0
0.0
0.0
-0.0
-0.0
-0.0
0.0
0.0
0.0
0.0
0.0
-0.0
-0.0
0.0
-0.0
0.0
-0.0
-0.0
-0.0
0.0
-0.0
0.0
0.0
0.0
0.0
-0.0
0.0
0.0
0.0
-0.0
-0.0
0.0
0.0
-0.0
-0.0
-0.0
0.0
0.0
-0.0
0.0
0.0
0.0
-0.0
0.0
-0.0
-0.0
0.0
0.0
-0.0
0.0
-0.0
-0.0
0.0476787
0.0
-0.0
-0.0
0.0
0.0
0.0469157
0.0
-0.0
0.046026
0.0
-0.0
-0.0
-0.0368788
0.0500997
0.0
-0.0
0.0
0.0485053
-0.0
-0.0
0.0324295
-0.0360513
-0.0
-0.0
0.0
0.0
0.0
-0.0
0.0
0.0659524
0.0
0.0
0.0
0.0
0.0
0.0756612
0.0
-0.0459229
0.0460471
0.0409763
-0.0
0.0
0.0
0.0810889
0.0
-0.0
0.0299947
0.0299383
0.0
0.0
0.0
0.0
0.0
-0.0
0.0
0.0
0.0
0.0
0.0
0.0691069
0.0
0.0
0.0
-0.0
0.0
0.0549646
-0.0391446
-0.063004
0.0676175
0.0616449
0.0
0.0
0.0
0.0617795
0.0491314
-0.0640004
0.0
0.0523258
0.0
-0.0
-0.0
0.0
0.0
-0.0532371
0.0455798
0.0
0.0299491
0.0320906
0.0630613
0.0634158
0.0
0.0
0.0441632
-0.0
0.0
0.0543624
0.0
-0.0870074
0.0840143
0.0906015
0.0341769
0.0
0.0299226
0.0
0.0
-0.103704
0.0
0.0590575
-0.0299496
-0.0
-0.0
0.0494781
0.0
-0.107234
0.0406629
-0.0298419
0.0301535
0.0607526
0.0932945
0.0695591
-0.0
0.0
0.04857
-0.0418104
-0.0
0.039529
0.0
-0.121055
0.0905021
0.0888349
0.0
0.0
0.0298534
-0.0
-0.0
-0.115955
-0.0
0.0638366
-0.0299979
-0.0417484
-0.0
0.0299071
0.0
-0.14436
0.0386003
0.0
0.0345474
0.0498336
0.106893
0.0462611
0.0
0.0686687
0.0
-0.0649133
0.0355011
0.0298844
-0.0
-0.113201
0.0798356
0.109206
0.0
-0.0
0.0532529
-0.0
-0.0
-0.0882994
-0.0
0.0649242
-0.0524476
-0.0669652
-0.0
0.0
0.0
-0.094782
0.0298678
-0.0
0.0617361
0.0
0.120208
0.0521967
0.0600594
0.075779
-0.0879192
-0.049285
0.0540318
0.0474148
-0.0299973
-0.0623963
0.0662882
0.0989254
0.056802
-0.0365576
0.0
-0.0
-0.0908871
-0.0662302
0.0
0.0389536
-0.051118
-0.0662365
-0.0775396
-0.0
-0.0
-0.0
0.0298205
-0.029934
0.0417812
-0.0876652
0.10642
0.0569764
0.0782748
0.067616
-0.054988
0.0
0.0
0.0
-0.0449573
-0.0626394
0.0743353
0.0
0.0744065
-0.0323842
0.0298238
-0.0
0.0
-0.0582797
-0.0
0.0298484
-0.0550961
-0.125288
-0.107478
0.0
-0.0640861
0.0
0.0299148
-0.0297011
0.0
-0.0541271
0.0907484
0.0791239
0.102277
0.0594569
-0.084763
-0.0497855
0.0297679
0.0
-0.0633821
-0.0
0.0793059
0.0
0.0932561
-0.02981
0.0
0.0489457
0.0298914
-0.0
-0.0295707
-0.0
-0.0519759
-0.153143
-0.110389
-0.0
-0.0
0.0
0.0
-0.0297724
0.0298441
-0.0861869
0.0296425
0.079442
0.0656028
0.0366079
-0.100876
-0.0457401
-0.0
-0.0686165
-0.0299895
0.029865
0.0843326
-0.0594763
0.10251
0.0
0.0
0.0
0.0294947
0.0299409
-0.0
-0.0
-0.0635931
-0.21411
-0.0962568
0.0
-0.0569954
0.0
0.0
-0.0297645
-0.0
-0.0510824
0.0439638
0.0774633
-0.0
0.0610125
-0.0782066
-0.0400227
0.0
0.0
-0.0298168
0.0
0.106538
-0.0
0.131745
-0.0
0.0
0.0498258
0.0296952
0.0298889
-0.0
0.0298127
-0.0330055
-0.260779
0.0
0.0
-0.0612754
0.0
0.0297142
-0.0298694
-0.0
-0.0
0.0668679
0.0762326
-0.0488558
0.0
-0.0
-0.0699783
0.0
0.0
-0.0674071
0.0357673
0.0467522
0.0
0.149462
0.0
0.0
-0.0
0.0444318
0.0760777
0.0752804
0.0296626
-0.0628255
-0.227158
0.0
-0.0
0.0
0.0
0.0297211
-0.0448636
0.0
-0.0
0.051355
0.0746047
-0.0489069
-0.0
-0.0
-0.0758275
0.0
0.0
-0.0581354
0.0766576
0.0329474
0.0
0.124793
0.0
0.0304964
-0.0773701
0.0
0.0931185
0.0743764
0.0
-0.0352379
-0.167383
0.0
0.0
0.0
-0.0609861
0.0
-0.0353506
0.0
-0.0
0.0395785
0.0
0.0
-0.0
0.0298138
-0.0687708
0.0
0.0
-0.0
0.0535952
-0.0
0.04385
0.0836499
0.0656536
0.0
-0.0
0.0
0.0558336
0.0
-0.0
-0.0299749
-0.143528
0.0
0.0
-0.043364
-0.0466799
0.0
0.0
0.0
0.038938
0.0
0.0653488
0.0
0.0
0.0
0.0
0.0
0.0
-0.0
0.0
0.0
0.0
0.0599812
0.0741845
0.0
0.0
0.0
0.0
0.0
-0.0
-0.0
-0.0933056
0.0
0.0
0.0
-0.0
0.0
-0.0321117
0.0
0.0319763
-0.0
0.0
0.0
0.0
-0.0
0.0299566
0.0
0.0
-0.0
-0.0
0.0
0.0
0.0
0.0
0.0
0.0
0.0
-0.0
0.0
0.0
-0.0
-0.0545539
0.0629398
0.0
0.0
0.0461827
0.0
0.0
0.0
0.0535314
0.0
0.0
-0.0477829
0.033469
0.0
0.0633846
0.0
-0.0521385
0.0
-0.0
-0.0539953
0.0
-0.0
-0.0396394
-0.0591111
-0.0554276
0.0
-0.0
-0.0
0.0
0.0
-0.0503423
0.0796773
-0.0441197
-0.0528671
0.0934481
-0.0
0.0
0.0
0.0
-0.0391652
-0.0394009
-0.052859
-0.0339567
0.0
0.0645123
-0.0
-0.0511549
0.0462878
0.0
-0.0841032
0.0
-0.0597648
-0.030283
-0.107588
-0.114733
-0.0336824
0.0
0.0456395
-0.0297043
0.0
-0.0392911
0.112674
-0.0801106
-0.0624948
0.0677975
-0.0552151
0.0
0.0
0.0
-0.0739941
-0.0736061
-0.0459151
-0.0925063
0.0359124
0.0509096
-0.0
-0.0375936
0.0399792
-0.0479358
-0.0718573
0.0
-0.0806246
-0.0298567
-0.0966783
-0.103499
-0.0578556
-0.0420947
0.0559118
-0.0587234
0.0434383
-0.0
0.0848507
-0.0676725
-0.0539723
-0.0
-0.0760593
0.0492101
0.0524574
0.0
-0.0491529
-0.0
0.0
-0.0767086
0.0
0.0
-0.0
-0.0
0.0394305
-0.0403427
-0.0413536
0.0386842
-0.0535638
-0.0669091
-0.0750385
-0.0490203
-0.0434345
-0.0469278
0.0686163
-0.0
0.0319415
-0.0
0.0
-0.0732559
-0.0
-0.0321245
-0.0550826
0.0
0.0423976
-0.0
-0.0
-0.0
0.0
-0.0320406
-0.0339504
-0.0
0.0
0.0
0.0
-0.0
-0.0
0.0365206
-0.0
-0.0
-0.0380452
-0.0
-0.0
-0.0
0.0410824
-0.0
0.0
-0.0
-0.0
-0.0
0.0
-0.0
-0.0
0.0
0.0
-0.0
-0.0
0.0
0.0
0.0
-0.0
0.0
0.0
0.0
0.0
0.0
-0.0
0.0
0.0
-0.0
0.0
0.0
-0.0
-0.0
0.0
0.0
-0.0
-0.0
-0.0
-0.0
0.0
-0.0
0.0
-0.0
0.0
-0.0
-0.0
-0.0
0.0
-0.0
-0.0
-0.0
0.0
-0.0
0.0
-0.0
-0.0
-0.0
0.0
-0.0
0.0
-0.0
-0.0
-0.0
-0.0
-0.0
0.0
0.0
-0.0
0.0
-0.0
0.0
0.0
-0.0
0.0
0.0
0.0
-0.0
0.0
-0.0
0.0
0.0
0.0
-0.0
-0.0
-0.0
-0.0
-0.0
-0.0
-0.0
0.0
-0.0
-0.0
0.0
0.0
0.0
0.0
-0.0
0.0
-0.0
-0.0
-0.0
0.0
-0.0
-0.0
-0.0
-0.0
-0.0
-0.0
-0.0
-0.0
0.0
0.0
0.0
0.0
0.0
-0.0
0.0
-0.0
-0.0
0.0
-0.0
0.0
0.0
0.0
0.0
0.0
0.0
0.0
-0.0
0.0
0.0
0.0
-0.0
0.0
0.0
0.0
0.0
-0.0
0.0
-0.0
0.0
0.0
-0.0
-0.0
0.0
0.0
-0.0
-0.0
-0.0
0.0
0.0
-0.0
0.0
-0.0
0.0
0.0
-0.0
-0.0
-0.0
0.0
0.0
0.0
0.0
-0.0
0.0
0.0
0.0
0.0
-0.0
-0.0
-0.0
0.0
0.0
0.0
0.0
0.0
0.0
0.0
-0.0
-0.0
0.0
0.0
0.0
0.0
0.0
0.0
0.0
-0.0
0.0
0.0
-0.0
0.0
0.0
0.0
-0.0
0.0
0.0430687
0.0
0.0
0.0
0.0
0.0
0.0457944
0.0
0.0
0.050854
0.0
0.0
-0.0
-0.0
0.0543282
0.0
-0.0
0.0
0.0644252
0.0
-0.0
0.0
-0.0
0.0
-0.0
0.037515
-0.0
0.0
0.0
0.0
0.046742
0.0
-0.0
-0.0
-0.0
0.0
0.0577378
0.0
-0.0
0.0561722
0.0523176
0.0
-0.0
-0.0505436
0.0680842
0.0
-0.0
0.0
0.075126
0.0
-0.0
0.0
-0.0398805
0.0355592
-0.0
0.0730242
0.0
0.0317304
0.0
0.0499481
0.061165
0.0
-0.0
0.0
0.0
0.0
0.0697596
0.0
-0.0412834
0.0436095
0.0704657
0.0
-0.0
-0.0411202
0.080232
0.0
-0.0611428
0.0299397
0.0525284
0.0
-0.0
0.0
0.0
0.0508554
-0.0531836
0.0502721
0.0
0.0469898
0.0
0.0523944
0.0336137
0.0
-0.0
0.0373472
0.0
0.0
0.0297922
-0.0455484
-0.0993561
0.0
0.0526714
0.0
0.0
0.0
0.0
0.0
-0.116621
0.0296146
0.0326047
0.0
0.0
-0.0
0.0
0.0
-0.0818321
0.029874
0.0
0.0352657
0.0
0.0853037
0.0393751
0.0
-0.0466689
0.0
0.0
-0.0418077
0.0750281
0.0
-0.0834523
0.0557097
0.0552875
0.0
0.0
-0.0512989
0.0551094
-0.0
-0.147038
0.0299077
0.0481633
0.0
0.0
-0.0
0.0
0.121529
-0.132514
0.0365291
0.0
0.0559378
0.0
0.0566262
0.0
0.0
-0.0
0.0
0.0
-0.0
0.0685158
0.039854
-0.108228
0.0
0.0
0.0
0.0
-0.084375
0.0
-0.0
-0.156306
0.0
0.0376846
0.0
0.0
-0.0298927
-0.0663248
0.144735
-0.165044
0.0742668
0.0
0.0682193
0.0
0.064001
0.0
0.0
0.0
-0.0730978
-0.0546825
0.0
0.0298699
-0.0
-0.0869667
0.0378097
0.0
-0.0
0.0
-0.0498902
0.0
0.0
-0.0968605
0.0
0.0822725
-0.04185
0.0
-0.0299711
-0.0589535
0.108517
-0.117539
0.0429381
-0.0
0.0603709
-0.0861769
0.0700417
0.0
0.0737436
0.0
-0.0650503
-0.0349281
0.0297594
0.0
0.0
-0.0758333
0.0337421
0.0463044
-0.0
0.0
-0.0809015
0.064306
-0.0663256
-0.0978906
-0.0
0.0575525
0.0
0.0
-0.0709321
-0.0541635
0.0612231
-0.0
0.0
-0.0
0.0
-0.129386
0.0571057
0.0418562
0.0
-0.0
-0.0819502
-0.0
0.0296219
0.0
0.0
-0.0
0.0741972
0.0382664
-0.0
-0.0392346
-0.0595168
0.0897759
0.0
-0.0
-0.0
0.103529
0.0
0.0
-0.102819
-0.0650692
0.0528381
-0.0299416
0.0
0.0
-0.0
-0.128323
0.117645
0.0
0.0892839
0.0
-0.117217
-0.029797
0.0298775
-0.0
0.0
0.0
0.10365
0.0650474
-0.0
-0.0695387
-0.0295011
0.0859938
0.0
0.0
0.0
0.0666442
-0.0297025
0.0352509
-0.122209
-0.0497537
0.0
-0.0543518
0.0
-0.0298569
0.0
-0.156662
0.142837
0.0
0.129578
0.0
-0.17599
-0.0
0.0294829
0.0
0.0
-0.0
0.0889737
0.0297798
0.101066
-0.0708949
-0.0
0.0
-0.0
0.0
0.0
0.0
0.0
0.0598906
-0.143155
-0.0
0.0
-0.0299602
0.0
0.0
0.0482113
-0.161498
0.0699773
0.0536501
0.072996
-0.0315826
-0.143734
-0.0298325
0.0
0.0298053
-0.0298168
-0.0
0.0607257
-0.0
0.0834865
-0.0947684
0.0
-0.0
0.0
0.0
-0.02951
0.0
-0.0311972
0.050785
-0.154845
0.0299818
0.0
-0.0948
0.0405914
-0.0296914
0.0
-0.0508257
0.0
0.0
0.0804544
-0.0
-0.178907
0.0
0.0
0.0
-0.0297932
-0.0
-0.0
-0.0
0.0789536
-0.120058
-0.0295497
-0.0
0.0
-0.0
-0.0
0.0
-0.0
0.0620315
-0.131369
-0.0
0.0
-0.0569094
0.0295779
-0.0
0.0
-0.108263
0.0615711
0.0
0.0753216
-0.0
-0.11421
0.0
0.0
0.0
-0.0
0.0298613
-0.0
0.0299727
0.0808185
-0.0562183
-0.0
-0.0610156
-0.0
0.0370138
-0.0
-0.0530045
0.0422426
0.0945454
-0.0
-0.0297587
0.0
-0.0857023
0.0
0.0
0.0630843
-0.0471256
0.0863618
0.0
0.0680301
0.0
-0.133615
0.0
0.029657
0.0
-0.0
0.0607724
0.0
0.0349334
0.0
-0.0677925
-0.0405374
-0.0
-0.0
0.0384592
-0.0
-0.0
-0.0
0.0
-0.0297406
-0.0299417
-0.0297195
-0.0622647
0.0
-0.0
0.0632736
-0.083521
0.0
0.0
-0.0
-0.0
-0.081857
-0.0456029
0.0
-0.114526
0.0
0.0298813
-0.0
0.0
-0.0
-0.0
-0.0962317
-0.0896565
0.0
0.0
0.0
-0.0
-0.0732683
-0.0297
-0.0
-0.0620692
-0.0433201
-0.0490201
-0.0590002
-0.0297866
0.0
-0.060746
0.0
0.0522722
-0.0
0.0
-0.113512
-0.0367156
0.0
-0.0837849
-0.0
0.0
0.0
0.0480981
-0.0
-0.0298451
-0.10614
-0.0
0.0
-0.0
0.0
0.0
-0.0579581
-0.033157
0.0
-0.0971938
0.0
0.0
0.0
-0.0
0.0854783
-0.0684361
0.0585968
0.0
-0.0805067
-0.0
-0.0480286
0.0
0.0687539
-0.0865927
0.0
0.0514259
0.0
0.0804371
0.0
-0.0298537
-0.0968006
-0.0803668
0.0
0.047203
0.0
0.0
-0.0
-0.0299009
0.0686867
-0.0876538
0.0
0.0459042
-0.0
0.0
0.104017
-0.0
0.0
-0.0364944
-0.109096
-0.046913
0.0349454
0.0
0.0460645
-0.0857247
0.0
0.0
-0.0765209
0.0619097
-0.0
-0.0
-0.120846
-0.136703
-0.029819
0.0
0.0562161
-0.0298192
-0.0
-0.0740497
0.143132
-0.101961
-0.067321
0.0
-0.0299084
0.0
0.0581047
0.0
-0.0669524
-0.0361787
-0.0763564
-0.131566
0.0
0.0
0.0355775
-0.0347295
0.0408481
-0.0672486
-0.0994252
0.0470932
-0.109446
-0.0458152
-0.125106
-0.124401
-0.0497374
-0.0479113
0.0765988
-0.0713172
0.0
-0.0625276
0.128241
-0.12793
-0.059577
-0.0395608
-0.0745074
0.0
0.0838834
0.0
-0.065519
0.0
-0.0391029
-0.107203
-0.033019
-0.0
0.0
0.0
0.0
-0.0639917
-0.0589716
0.091082
-0.100565
-0.103028
-0.0728825
-0.0487361
-0.0435398
-0.072964
0.140355
-0.0635654
0.0
-0.0417591
-0.0
-0.0792915
-0.0412999
-0.0522793
-0.0376618
-0.0
0.0921502
-0.0406788
-0.0
0.0
0.0
-0.0322501
-0.0
-0.0
0.0583431
0.0
-0.0
-0.0455051
-0.0
0.0652086
-0.0408069
-0.0705122
-0.0437767
-0.0
0.0
-0.0401313
0.0914508
-0.0
-0.0
-0.0
-0.0367804
-0.0454454
-0.0
-0.0
-0.0
-0.0
0.0576453
-0.0308138
0.0
0.0
0.0
-0.0
-0.0
-0.0
0.0319016
0.0
0.0
-0.0
-0.0
0.0
-0.0
-0.0
-0.0
-0.0
-0.0
-0.0
0.0
0.0
0.0
-0.0
-0.0
-0.0
-0.0
0.0
0.0
0.0
0.0
-0.0
0.0
-0.0
-0.0
0.0
-0.0
0.0
-0.0
-0.0
-0.0
-0.0
0.0
0.0
-0.0
-0.0
0.0
0.0
-0.0
0.0
0.0
0.0
-0.0
0.0
-0.0
-0.0
-0.0
0.0
0.0
-0.0
-0.0
0.0
0.0
-0.0
-0.0
-0.0
0.0
-0.0
-0.0
0.0
0.0
-0.0
-0.0
-0.0
0.0
0.0
0.0
0.0
-0.0
0.0
-0.0
-0.0
0.0
0.0
0.0
-0.0
0.0
-0.0
-0.0
0.0
0.0
-0.0
-0.0
0.0
-0.0
0.0
-0.0
0.0
0.0
0.0
0.0
0.0
0.0
-0.0
-0.0
-0.0
0.0
-0.0
-0.0
0.0
0.0
0.0
0.0
-0.0
-0.0
0.0
-0.0
-0.0
-0.0
-0.0
0.0
-0.0
0.0
-0.0
0.0
0.0
0.0
-0.0
-0.0
0.0
-0.0
0.0
0.0
-0.0
0.0
-0.0
-0.0
0.0
0.0
-0.0
-0.0
-0.0
0.0
0.0
-0.0
0.0
0.0
-0.0
0.0
0.0
0.0
-0.0
-0.0
0.0
0.0
-0.0
-0.0
0.0
0.0
0.0
0.0
0.0
0.0
0.0
0.0
-0.0
-0.0
0.0
0.0
0.0
0.0
0.0
0.0
0.0
-0.0
-0.0
0.0453563
-0.0
0.0
0.0
-0.0
-0.0
0.0
0.0502904
-0.0
-0.0
-0.0
0.0
-0.0
0.0415795
0.0
0.0
0.0633134
0.0
0.0
-0.0
-0.0
0.0578495
0.0361027
-0.0
0.0
0.0844066
0.0
-0.0
-0.0
-0.0
0.0661057
-0.0
0.0828713
0.0
0.0
-0.0
0.0
0.0448268
-0.0
-0.0
-0.0
0.0
-0.0
0.0531584
0.0
0.0
0.0588523
0.0435464
0.0391551
-0.0
-0.0621361
0.0651454
0.0
-0.0
0.029953
0.0878593
0.0
0.0
0.0
-0.051861
0.0797181
-0.0
0.0923282
0.0
0.0
0.0
0.0473359
0.0355422
-0.0453855
-0.0601468
-0.0
0.0
-0.0
0.0306588
0.0
0.0
0.0
0.0525713
0.0772038
-0.0
-0.0497953
0.0564293
0.0
-0.0420676
0.0
0.0343984
0.0
0.0
0.0
-0.0580146
0.113809
-0.0573236
0.0540863
0.0
0.0372922
0.0
0.0368589
-0.0
-0.0451498
-0.0445435
0.0
0.0
-0.0473631
0.0
0.0
0.0
0.0
0.0
0.0561363
0.0
0.0
0.0
0.0
-0.062301
-0.0
0.0297905
0.0
0.0
-0.0
-0.0
0.100333
-0.0902732
0.0312272
0.0
0.0
-0.0
0.0382323
-0.0
0.0
-0.0691852
0.0
0.0
-0.0692169
0.0
0.0
0.0405013
-0.0
-0.0
0.0
0.0
0.0
0.0
-0.0
-0.0327351
0.0
0.0
0.0
0.0301481
-0.0376042
-0.0
0.154155
-0.138178
0.0408161
0.0
0.0522478
-0.0
0.0
-0.0
-0.0
-0.0
-0.0569882
0.0
-0.0676104
0.0
0.0424277
0.0452104
0.0
-0.0
0.0930694
0.0
-0.053723
0.0
0.0
0.0
0.0
0.0539578
0.0
0.0590594
-0.0320717
-0.092474
0.129654
-0.155863
0.0463024
0.0
0.0550637
-0.0601758
0.0
-0.0469187
0.0
0.0
-0.063859
0.0
-0.0732304
0.0
0.0
0.0298176
0.0
0.0
0.0982734
0.0
-0.0
-0.0
0.0
0.0
0.0
0.0738851
0.0
0.0393368
-0.0299835
-0.0623745
0.0936391
-0.0943506
0.0
0.0
0.0
-0.0952195
0.0488718
-0.054195
-0.0
0.0
-0.0597733
-0.0670086
0.0295751
0.0
0.0
0.0328533
-0.0
0.06015
0.0944246
0.0
-0.0304466
-0.0
-0.029512
-0.0
0.0
0.065609
-0.0293867
0.0630914
-0.0297455
-0.0344568
0.0500658
-0.0
0.0
-0.0
0.084313
-0.117257
0.0
-0.0293752
0.0926452
-0.0
-0.110177
0.0
0.0
0.0
0.0
0.060746
0.0303162
0.0436934
0.0
-0.0298696
-0.0670742
0.0
-0.02983
0.0
-0.0
0.0863432
0.0
0.13143
-0.0966394
-0.103161
0.0
-0.0299199
0.0583831
0.0
0.0712234
-0.156886
0.120053
0.0
0.131381
0.0651801
-0.0792392
0.0
0.0
0.0
0.0
0.0
0.0550417
0.0934325
0.0
-0.0
-0.042795
0.0
0.0
-0.0327919
0.0
0.130471
0.0
0.116613
-0.0690987
-0.0322558
-0.0298124
-0.0298652
0.127645
0.0
0.0821834
-0.119643
0.165761
0.0394716
0.194831
0.0
-0.0937817
-0.0
-0.0
0.0
0.0
-0.0603131
0.0296081
0.0910924
0.0
-0.0295114
0.0
0.0
-0.0
-0.0546714
0.0377055
0.0296698
0.0
0.16994
-0.0967907
-0.0
-0.0952418
-0.0352774
0.0
0.0
0.0817905
-0.0910802
0.129336
0.0598419
0.16053
-0.0
-0.149568
-0.0297649
-0.0
-0.0756649
0.0
-0.0413105
0.0
0.0
0.0
-0.102597
-0.0340153
-0.0295546
-0.0
-0.0298397
0.0
0.0
0.0
0.18603
-0.179652
0.0
-0.0969519
-0.142109
0.0
0.0
0.0
-0.0512546
0.0555109
0.0
0.155001
-0.0
-0.159402
0.0664011
0.0
-0.104149
0.0
-0.0
-0.0298255
0.0299828
0.0483755
-0.0815503
-0.0454431
-0.0296157
-0.0297687
0.0
0.0
0.0
0.0
0.196414
-0.111109
-0.0
-0.0
-0.117076
0.0
0.0
0.0450145
-0.0634285
0.0630688
0.0
0.0798076
-0.0
-0.0726044
0.0921278
0.0293736
0.0
0.0392178
0.0298366
0.0
0.0323159
0.0369394
-0.0299072
-0.0838556
0.0
-0.0
0.0
0.0299472
0.0
0.0
0.173162
-0.0
-0.0720709
0.0
-0.0368751
0.0
0.0315999
0.0540227
-0.0296849
0.06242
0.0
0.0306361
-0.0
-0.111594
0.0
0.0
0.0
0.0
0.0883659
0.0
0.0852227
0.0613313
-0.0296361
-0.0795668
-0.0
0.0
0.0739888
0.0672307
0.0
0.0
0.0848122
-0.0308111
-0.077151
0.0
-0.0458388
0.0
0.0
0.0943606
-0.0943565
0.0798116
0.0
-0.0
0.0
-0.0726319
0.0
0.0
0.0
-0.0
0.0527238
0.0
0.0427528
0.0794863
0.0
-0.127346
-0.0
0.0
0.0525502
0.0
0.0
-0.0
0.0566853
0.0
-0.104913
0.0
0.0
0.0
0.0
0.08704
-0.111103
0.0
0.0823356
0.0
0.0
-0.100973
0.0
0.0
0.0
0.0573326
0.0
0.0
0.0
0.0427995
-0.0353346
-0.11374
-0.0
0.0
-0.0
0.0
0.0
-0.0
0.076385
-0.0
-0.106584
0.0297876
0.0
-0.0523917
0.0773079
0.0724827
-0.0990357
0.0
0.0
-0.0510354
0.0
-0.0578999
-0.0
0.0
-0.0581852
0.0
0.0
-0.0483483
0.0673683
0.0
-0.0311858
-0.109198
-0.0826775
0.0
0.0
0.0
0.0
0.0
0.0
0.0
-0.105671
0.0298402
-0.0
0.0
0.0
0.0488183
-0.0806796
0.0
0.0
-0.108451
0.0
0.0
-0.0
0.0
-0.0449351
0.0
0.0556594
-0.0590358
0.0668645
-0.0
-0.0
-0.0969076
-0.145613
0.0
0.0
0.0
0.0
0.0
-0.045891
0.116431
-0.0986482
0.0
-0.0413328
0.0
0.0
0.0550197
0.0
-0.0461918
0.0
-0.109491
-0.159103
0.0
0.0
0.0
-0.0
0.0
-0.0652197
-0.14086
0.0576643
-0.124619
-0.0298501
-0.113736
-0.14934
-0.0530312
-0.0728957
0.0852716
-0.134512
0.0
-0.0914901
0.085105
-0.126148
-0.0607377
-0.0924957
-0.0811766
0.0
0.0852746
0.0
-0.0661206
0.0
-0.0430019
-0.155895
-0.0299891
-0.0581891
0.0
0.0
0.0
-0.111129
-0.0967212
0.107322
-0.138689
-0.0887321
-0.0714863
-0.0761728
-0.0698717
-0.101554
0.150195
-0.113147
-0.0329685
-0.0693096
-0.0512918
-0.0721945
-0.0530543
-0.0991432
-0.0485338
0.0
0.106348
-0.0364433
-0.0
0.0
-0.0
-0.0537692
-0.0415716
-0.0508507
0.0757741
0.0395286
0.0
-0.0726323
-0.0
0.101275
-0.0547495
-0.0883371
-0.0356729
-0.0
-0.0
-0.0663802
0.141099
-0.0
-0.0
-0.0351212
-0.0786401
-0.0387336
-0.0
-0.0
-0.0
0.0
0.0894699
-0.0505692
-0.0
0.0
-0.0
0.0
-0.0
-0.0
0.0
0.0
-0.0
-0.0
-0.0
0.0
-0.0
-0.0
-0.0
0.0
-0.0
-0.0
0.0
-0.0
-0.0
-0.0
-0.0
-0.0
-0.0
-0.0
0.0
-0.0
0.0351067
0.0
-0.0
0.0
0.0
0.0
0.0
-0.0
-0.0
0.0
0.0
-0.0
0.0
0.0
-0.0
-0.0
-0.0
-0.0
-0.0
0.0
0.0
0.0
0.0
0.0
-0.0
0.0
-0.0
0.0
-0.0
0.0
0.0
-0.0
-0.0
-0.0
-0.0
-0.0
-0.0
-0.0
0.0
0.0
-0.0
-0.0
-0.0
-0.0
0.0
-0.0
0.0
0.0
0.0
0.0
-0.0
-0.0
0.0
-0.0
-0.0
-0.0
0.0
0.0
0.0
0.0
0.0
-0.0
-0.0
-0.0
-0.0
0.0
-0.0
-0.0
0.0
0.0
0.0
0.0
-0.0
0.0
-0.0
0.0
0.0
0.0
-0.0
0.0
-0.0
-0.0
0.0
0.0
0.0
-0.0
0.0
0.0
0.0
0.0
0.0
-0.0
0.0
-0.0
0.0
0.0
-0.0
0.0
0.0
0.0
0.0
0.0
0.0
0.0
0.0
0.0
-0.0
-0.0
0.0
0.0
0.0
-0.0
0.0
0.0
0.0
0.0
0.0
-0.0
-0.0
0.0
0.0
0.0
-0.0
0.0
0.0
-0.0
-0.0
0.0
0.0
0.0383686
0.0
0.0647822
0.0
0.0
0.0
-0.0
-0.0
0.0
0.0
0.0335151
0.0
0.0361285
0.0
0.0
-0.0
-0.0
0.0512262
-0.0
0.0363879
0.0
0.0
0.0
-0.0
0.0781348
-0.0
-0.0
-0.0
0.0
-0.0
0.0723942
0.0313375
0.065578
0.0664252
0.0
0.0411364
-0.0308666
-0.0
0.0814615
0.0584472
-0.0
0.0
0.115206
0.0
0.0
0.0
-0.040694
0.0889902
-0.0
0.104688
0.0
0.0
-0.0
-0.0
0.0548087
-0.0
-0.037776
-0.0426433
0.0
-0.0
0.037813
0.0299966
0.0603821
0.0470448
-0.0
0.0536467
-0.0
-0.0
0.0573911
0.0464028
0.0
0.0
0.0680111
0.0314059
0.0
0.0
-0.0643135
0.114554
-0.0
0.0841937
0.0
0.0
0.0
-0.0377479
0.0546498
-0.0409608
-0.0471064
-0.0575896
-0.0
-0.0578003
0.0
0.0
0.0683378
0.0
-0.0
0.0760335
0.0
-0.0
0.0
0.0592539
0.0
0.0
0.0299577
0.0
0.0
0.0
-0.072799
0.118637
-0.0336313
0.0781259
0.0
0.0
-0.05705
-0.0647289
-0.0
-0.0386579
-0.0
-0.037749
0.0
-0.0988707
0.0
0.0
0.0868186
-0.0
-0.0604201
0.0829134
0.0
-0.0391429
-0.0
0.0702601
0.0
-0.0
0.0468409
0.0
0.0
-0.0
-0.0584827
0.1179
-0.0678067
0.110688
-0.0
-0.0
-0.052502
-0.0601627
-0.0532233
-0.0306376
-0.0560535
-0.0741917
0.0
-0.107065
0.0
0.0
0.0974858
-0.0
-0.0298809
0.0847682
-0.0476354
-0.0408285
-0.0527625
0.0297099
0.0570311
0.0
0.0342271
0.0
0.0521477
-0.0
-0.0580224
0.109407
-0.095894
0.0985294
0.0
0.0
-0.0525127
-0.0767728
-0.0300915
-0.0477944
-0.0
-0.0416319
0.0297211
-0.145109
0.0
0.0466925
0.0912584
-0.0
-0.0
0.0726781
-0.0
-0.0422284
-0.066383
0.0
0.0632494
0.0580247
0.044534
0.0298525
0.0
-0.0
-0.0952051
0.055743
-0.112321
0.129305
0.0
0.0
-0.0493877
-0.0635596
-0.0295168
-0.0
0.0
-0.0366662
-0.0
-0.115264
0.0
0.0
0.0569742
-0.0
-0.0
0.0976694
0.0
0.0
-0.0615425
0.0678217
0.0402177
0.059872
0.100968
0.0622763
0.03457
-0.0298645
0.0
0.0625598
-0.0714226
0.191508
0.0
0.0784923
-0.029727
-0.0
-0.0293421
-0.0
0.0
-0.0351731
-0.0
-0.120998
0.0483267
0.0
0.0514978
-0.0914454
-0.0
0.0834624
-0.0
-0.0
-0.1188
-0.0
0.0297518
0.0
0.0
0.0297975
0.0733324
-0.0
0.0
0.0610783
-0.0299015
0.157446
0.0
0.0855398
-0.0803395
0.0
0.0
0.0478215
0.0
-0.064499
-0.0
-0.0979832
0.0
0.0
0.0600535
-0.0507611
0.0
0.0745318
-0.0298616
-0.0550715
-0.0509082
0.0
0.0414254
0.0592701
0.0
0.0
0.0664571
-0.0580747
-0.0513214
0.0817918
-0.0
0.146587
0.0
0.0800426
-0.111001
-0.061829
0.0739917
0.0789081
0.0402988
-0.0500542
0.0
-0.0
0.0
0.0
0.0
-0.0509417
-0.0
0.0
-0.0
-0.0
-0.029833
0.0865866
-0.0
0.0
0.0391116
0.0
0.054325
-0.060496
-0.0294173
0.0
0.0
0.091332
0.0
0.0
-0.0737585
0.117997
0.0
0.149811
0.076808
-0.138442
0.0
0.0
0.0
0.0
0.0402224
-0.0
0.0879089
0.131194
-0.0517745
-0.0
-0.0
0.0644975
0.0
0.0
0.0298157
0.0
0.132324
-0.133581
-0.0
0.02977
0.0
0.0749794
0.0
0.0831776
-0.0834483
0.164119
0.0
0.154358
0.0
-0.151829
0.0
0.0
0.0
-0.0860323
0.0735967
-0.0
0.06651
0.103639
-0.0784252
0.0
0.0
0.0
0.0833892
-0.0
0.0297409
0.0
0.101875
-0.0928007
0.0
0.0
-0.0391174
0.0
-0.0
0.0656168
-0.0539624
0.158991
0.0
0.0870507
-0.0297486
-0.143351
-0.0
0.0629465
0.0
0.0
0.0977799
0.0
0.0994665
0.0976248
-0.0632653
-0.0
-0.0
-0.0562129
0.107452
0.0
0.0
-0.0820715
0.109336
-0.0863723
0.0
0.0
-0.0560769
0.0
-0.0769565
0.0797309
-0.0486881
0.0872474
0.0
0.0658092
0.0678347
-0.0588286
0.0
0.0297148
0.0
0.0297769
0.0765216
0.0822446
0.0299368
0.0758824
-0.0298442
-0.1269
0.0654335
0.0
0.0745144
0.0
0.0297371
0.0
0.0673639
-0.0
-0.0836964
0.0
0.0584872
0.0
-0.0
0.0339741
-0.0299332
0.0331328
0.0756087
0.0297766
0.0
-0.085123
0.0601171
0.0
0.0
0.0946156
0.0887677
0.0532081
0.0585483
0.0696016
-0.0
-0.159942
0.0296936
0.0
0.095734
0.0
0.0
0.0327891
0.0418457
-0.0
-0.130304
0.0299347
-0.0326389
0.0
0.0598836
0.038872
-0.11579
0.0636652
0.103666
0.0
0.0527224
-0.0592379
-0.0398331
0.0294028
0.0298776
0.0571695
0.0298341
0.0796549
0.0555685
0.0413765
-0.0
-0.069622
0.0
0.0
0.029735
0.0
0.0
0.0
-0.0
-0.0295641
-0.0724039
0.0
-0.0676716
0.0295945
0.0
0.0298285
-0.0998154
0.0568267
0.0884759
-0.0348774
0.0
-0.0471783
0.0
0.0596928
0.0
0.0
0.0600046
0.0
0.0630869
0.0298808
-0.0
-0.0732777
-0.0533355
0.0
0.0
0.0723278
0.0
0.0
0.0
-0.0
-0.0763077
0.029884
-0.0550739
0.0
0.0
0.0656195
-0.0989653
-0.029887
0.0973965
-0.0
-0.0584463
-0.0296773
-0.0
-0.0
-0.0
0.0
0.0
0.0
0.0
0.0
-0.0296107
-0.115204
-0.112589
0.0
-0.0
0.0633176
0.0
0.0
0.0
0.0
-0.0976335
0.0298381
-0.0750847
0.0
0.0
-0.0
-0.0601012
-0.0
0.0634763
-0.0619566
-0.085545
-0.0321375
-0.0
-0.0
-0.0
0.0
0.0
-0.0845652
0.0615039
-0.0
-0.0298295
-0.103418
-0.164095
0.0800038
-0.0
0.0530657
-0.0299679
0.0
-0.0349469
0.0
-0.103665
0.034681
-0.101348
0.0
0.0
0.0
-0.0728922
-0.0299586
-0.0299339
-0.117386
-0.214765
-0.0674391
-0.053675
0.0808125
-0.0
-0.0
-0.0298651
-0.201255
0.0846011
-0.0887843
-0.038713
-0.116344
-0.196709
-0.0342484
0.0
0.10207
-0.166133
-0.0366597
-0.0720534
-0.0298038
-0.123796
0.0
-0.120035
-0.0932976
0.0
0.0888655
-0.0904189
-0.0763251
0.0
-0.0728986
-0.202673
-0.0918308
-0.085254
0.0797337
0.0
-0.0574917
-0.121878
-0.129509
0.120386
-0.162704
-0.129397
-0.101048
-0.109061
-0.0848388
-0.110313
0.223532
-0.128624
-0.0475667
-0.0818703
-0.12079
-0.105215
-0.0869373
-0.115581
-0.0744379
-0.0299966
0.107647
-0.0892328
-0.0
0.0
-0.0
-0.0550671
-0.070597
-0.0555927
0.0809314
0.0447049
-0.0477141
-0.0972683
-0.044293
0.0995405
-0.0904235
-0.0993505
-0.0421295
-0.0363099
-0.0
-0.0703496
0.173512
-0.0
-0.0602254
-0.0515937
-0.0792092
-0.0385517
-0.0524158
-0.0431362
-0.0
-0.0371006
0.0932666
-0.0713209
0.0
0.0
0.0
-0.0
-0.0355523
-0.0
0.0
0.0
-0.0
-0.0369514
-0.0
0.0
-0.0
-0.0351379
-0.0
0.0
0.0
-0.0
0.0431785
-0.0
-0.0
-0.0
-0.0
-0.0
-0.0
-0.0
-0.0
-0.0
0.0
-0.0
-0.0
-0.0
-0.0
-0.0
0.0
-0.0
0.0
0.0
0.0
0.0
0.0
0.0
-0.0
0.0
-0.0
-0.0
-0.0
-0.0
0.0
0.0
-0.0
-0.0
0.0
-0.0
-0.0
0.0
-0.0
-0.0
0.0
-0.0
0.0
-0.0
0.0
0.0
-0.0
0.0
-0.0
-0.0
-0.0
0.0
-0.0
0.0
0.0
0.0
0.0
0.0
-0.0
-0.0
-0.0
0.0
0.0
-0.0
0.0
0.0
0.0
-0.0
0.0
-0.0
0.0
0.0
0.0
-0.0
0.0
0.0
0.0
0.0
0.0
-0.0
-0.0
0.0
-0.0
-0.0
0.0
0.0
-0.0
-0.0
0.0
-0.0
-0.0
0.0
0.0
0.0
-0.0
-0.0
-0.0
-0.0
-0.0
0.0
-0.0
-0.0
0.0
-0.0
0.0
0.0
-0.0
0.0
0.0
0.0
0.0
0.0
0.0
-0.0
0.0
0.0
-0.0
-0.0
0.0
0.0
-0.0
0.0
0.0
0.0
0.0
0.0
0.0375923
0.0
0.0
0.0
0.0
-0.0
-0.0
0.0
0.0
-0.0
-0.0
0.0
0.0
0.0510908
0.0359646
0.0798706
0.0
-0.0
0.0391033
-0.0
0.0
0.0
0.0470731
0.0382691
0.0
0.0
0.0406545
0.032899
-0.0
0.0
0.0623262
0.0
0.0
0.0
0.0
-0.0
-0.0
0.0812403
0.0
0.0
-0.030466
0.0
-0.0
0.100562
0.0323405
0.0989461
0.0373883
-0.0
0.0397806
0.0
0.0
0.059803
0.102231
0.0328391
0.0
0.0680855
0.0298847
0.0
0.0
-0.0
0.133252
-0.0
0.0821927
0.0
0.0
-0.0347886
-0.0705295
0.069018
-0.0
-0.0
-0.0585525
0.0
-0.0
0.0697112
0.0
0.130689
0.0
-0.0
0.0752222
-0.0494835
-0.0
0.0
0.135507
0.0575713
-0.0
0.0324348
0.0376427
0.0
-0.0
-0.0431537
0.160297
-0.0
0.0648773
0.0
0.0
-0.0586136
-0.147672
0.0527064
-0.0
-0.0475223
-0.0939078
-0.0
-0.0691622
0.0
0.0
0.100853
-0.0
-0.0885279
0.0506025
-0.0586222
-0.0457207
-0.0
0.113944
0.0711153
0.0
-0.0
0.0
0.0
-0.0346143
-0.0856649
0.0952681
-0.0362807
0.0795366
-0.0
-0.0
-0.0965768
-0.172213
0.0
-0.0299384
-0.0
-0.0502339
0.0
-0.0846092
0.0
-0.0
0.0806747
-0.0958629
-0.0852086
0.0553401
-0.05593
-0.0338457
-0.0299517
0.119706
0.073116
-0.0
0.0
0.0
0.0
-0.0
-0.0561835
0.0689432
-0.0403937
0.0927697
-0.0
-0.0
-0.0488144
-0.169298
-0.0308523
-0.0297455
-0.0315004
-0.0555009
0.0298479
-0.107303
0.0
-0.0
0.0298247
-0.151625
-0.0692272
0.0
-0.0600748
0.0
-0.121002
0.0669428
0.0443477
0.0
-0.0384666
0.0
0.0
-0.0516727
-0.0337126
0.0
-0.0801219
0.108265
-0.0
-0.0
-0.0724081
-0.138595
0.0
-0.0
0.0
-0.045
0.0
-0.130242
-0.0
0.0
0.0353619
-0.180491
-0.0440238
0.0706736
-0.0503174
-0.0
-0.181494
0.0698281
0.0694543
-0.0
-0.0618393
0.031579
0.0
-0.0359366
-0.0393144
0.0
-0.0789501
0.158423
0.0
-0.0297696
-0.0611111
-0.131486
0.0
0.0
0.0829891
-0.0696662
-0.0
-0.0845132
0.0
0.0
0.0
-0.21696
-0.0387777
0.0515653
0.0
0.0
-0.206637
0.0
0.0504278
-0.0
-0.150129
0.0296497
0.0
-0.0798834
0.0
0.0651149
-0.0599777
0.123655
0.0297198
-0.0
-0.0964055
-0.160938
-0.0294922
-0.0
0.0863167
-0.0299893
-0.0
-0.0298724
-0.0
0.0
0.0
-0.266679
-0.0378331
0.0475541
-0.0349446
0.0
-0.23763
0.0
0.0390414
-0.0298097
-0.212349
0.0
0.0515538
-0.0
0.0
0.100204
-0.0
0.108454
-0.0
-0.0
-0.117454
-0.152905
-0.0298204
-0.0
0.07375
-0.037995
-0.0
-0.0
0.0
0.0297682
0.0659417
-0.222749
-0.0
0.0635545
-0.0
0.0
-0.154199
0.0
0.0660064
-0.0296112
-0.19512
0.0
0.0803149
-0.0297562
0.0
0.142814
-0.0299235
0.0536511
0.029778
-0.0
-0.0691686
-0.13144
-0.0372724
-0.0
0.0307557
-0.0925149
0.0
0.0294209
0.112752
0.0
0.0594162
-0.122977
-0.0
0.0598239
-0.0
-0.0
-0.0298829
0.0643686
0.0887689
-0.0
-0.161615
0.0
0.0816788
-0.062143
-0.0
0.160919
0.0
-0.0810323
0.030703
0.0313121
-0.097468
-0.0
0.0
0.107549
0.0432901
-0.144693
0.0
0.0
0.16902
-0.0839574
0.0513765
0.0
0.0
0.0496296
-0.0665592
0.0
0.127874
0.0391693
0.0824229
-0.0679937
-0.0925667
0.0
0.116934
-0.117874
0.0
0.129208
0.0933124
-0.0527332
-0.0
0.0
-0.0710142
0.0371274
0.0
0.0779601
0.0648325
-0.154141
0.105777
0.0299694
0.161812
0.0
0.0540234
0.0731618
0.0
0.0727761
-0.11959
-0.0
0.132796
0.0296949
0.110309
-0.0967659
0.0
0.0
0.0933146
-0.0602301
0.0
0.0851683
0.12296
0.0
-0.0
0.0
-0.0462793
0.143335
0.0
0.0
0.0
-0.0637968
0.0298347
0.0918236
0.0736923
0.0298393
0.0701173
0.0831189
0.0333598
0.0936499
-0.0792485
-0.054786
0.116208
0.0
0.0999246
-0.0
0.0293342
0.0
0.0808913
-0.0
-0.0299011
0.0647948
0.0538849
0.0294997
-0.0
0.0298542
-0.0296884
0.13175
0.0
0.0296676
0.0529337
-0.0606089
0.0741575
0.0684374
0.0370573
0.057279
0.11979
0.0499771
0.0297705
0.131026
0.0
-0.144698
0.0738137
0.0
0.101842
0.0
0.0
0.0334186
0.0921626
-0.0
-0.105967
0.0590149
-0.0
0.0
0.0491715
-0.0
-0.0378315
0.0431418
0.0
0.029431
-0.0
-0.0529337
0.0298826
0.0613921
0.0
0.0532901
0.103062
0.0857377
0.0
0.0642745
-0.0
-0.141231
0.0374559
0.0
0.124436
-0.0
0.0380191
0.0
0.0
0.0
-0.162272
0.0
-0.065313
0.0296828
0.0540356
0.0
-0.0949471
0.0833642
0.0
-0.0
-0.0400475
-0.0299758
0.0
0.0466305
0.02973
0.0413946
0.0709163
0.0823956
0.032078
0.0298508
-0.0
-0.116453
-0.0
0.0
0.0737528
0.0296922
0.0
0.0
0.0674268
-0.0296177
-0.154557
0.0
-0.101999
0.0
0.0440539
0.0
-0.0590614
0.0484358
0.0
-0.0
-0.0581023
-0.0296229
0.0
0.0
0.0298927
0.0
0.0706202
0.0
0.0
0.0
-0.0
-0.0649691
-0.0898224
-0.0
0.0
0.062185
0.0
0.0
0.0508786
0.0
-0.0659716
0.0
-0.106891
0.0
0.0
0.0
-0.0569411
0.0
0.0662184
-0.0
-0.0534506
-0.0
-0.0
0.0399496
0.0485235
0.0
0.0
-0.0585002
-0.0
-0.0
0.0
-0.139434
-0.126021
0.0
0.0
0.0655189
0.0
0.0
-0.0
0.0
-0.128368
0.0299848
-0.0961142
0.0
0.0
-0.0
-0.0590045
0.043224
0.0
-0.0532076
-0.0775076
-0.0529841
-0.056865
0.0556772
0.0
0.0
0.0731366
-0.136957
0.0
0.0299153
-0.029829
-0.116607
-0.153105
0.0655544
0.0543278
0.0765815
-0.0297443
-0.0299943
-0.0
-0.0432797
-0.104396
0.0358168
-0.10361
0.0
0.0
-0.0
-0.0989687
0.0
0.0
-0.101446
-0.186802
-0.115816
-0.103619
0.13192
0.0
-0.0696127
0.0
-0.165954
0.0538272
-0.0
-0.0675347
-0.120409
-0.155927
-0.0
0.0
0.103504
-0.158208
-0.08682
-0.0853968
-0.12955
-0.132201
-0.0424364
-0.117111
-0.055368
-0.0620362
0.0738243
-0.149551
-0.0
0.0
-0.0433441
-0.157247
-0.149598
-0.0973989
0.153367
0.0471157
-0.105547
-0.0990612
-0.0972545
0.0815681
-0.135089
-0.146615
-0.110714
-0.0822803
-0.0563129
-0.0594545
0.17938
-0.115655
-0.111064
-0.0826852
-0.152636
-0.135277
-0.0874042
-0.0794114
-0.0675954
-0.10491
0.0928405
-0.149079
0.0
0.0
0.0
-0.0403133
-0.11125
-0.080566
0.110624
0.0584495
-0.0796748
-0.101808
-0.0359665
0.063331
-0.0856059
-0.135576
-0.0470382
-0.0
-0.0
-0.0667126
0.138175
-0.0321904
-0.0755679
-0.0330971
-0.0852993
-0.0688502
-0.0398578
-0.0323339
-0.0
-0.0795913
0.0743583
-0.0930948
0.0
0.0
0.0
-0.0
-0.0
-0.0
0.0
0.0
-0.0
-0.0
-0.0
0.0
-0.0
-0.0507051
-0.0
-0.0
0.0
-0.0
0.0
-0.0
-0.0
-0.0
-0.0
-0.0
-0.0
-0.0
0.0
-0.0
0.0
-0.0394843
-0.0
0.0
0.0
-0.0
0.0
-0.0
-0.0
0.0
0.0
-0.0
0.0
0.0
-0.0
-0.0
0.0
-0.0
0.0
-0.0
-0.0
-0.0
-0.0
-0.0
0.0
0.0
0.0
0.0
-0.0
-0.0
0.0
-0.0
0.0
0.0
0.0
0.0
-0.0
-0.0
-0.0
-0.0
-0.0
0.0
-0.0
-0.0
0.0
0.0
0.0
-0.0
-0.0
-0.0
-0.0
-0.0
0.0
-0.0
-0.0
0.0
-0.0
-0.0
0.0
0.0
0.0
-0.0
-0.0
0.0
0.0
-0.0
0.0
0.0
0.0
0.0
0.0
-0.0
0.0
0.0
0.0
0.0
0.0
0.0
-0.0
-0.0
0.0
0.0
-0.0
0.0
-0.0
-0.0
0.0
0.0
-0.0
0.0
0.0
0.0
-0.0
-0.0
-0.0
0.0
-0.0
0.0
0.0
0.0
0.0
0.0
0.0
0.0
0.0
-0.0
0.0
0.0
0.0
0.0
-0.0
0.0
0.0
0.0
-0.0
0.0
0.0514582
0.0
0.0
0.0
0.0
0.0
-0.0
0.0
0.0
-0.0
-0.0
0.0
0.0
0.0801597
0.0
0.068172
0.0
-0.0
0.0348244
-0.0
-0.0
0.0
0.0472533
0.0333932
0.0
0.0
0.0
0.0
-0.0
-0.0
0.0760167
-0.0
0.0
0.0
0.0
-0.0
-0.0600502
0.055676
0.0
-0.0333249
-0.0473396
0.0339632
0.0
0.0704542
0.0
0.0934822
0.0
-0.0
0.0
-0.0
-0.0
0.0
0.095577
0.0525318
-0.0
-0.0
0.0
0.0
0.0
-0.0
0.0916607
-0.0
0.0
0.0
0.0
-0.0408685
-0.119055
0.0521877
-0.0
-0.049762
-0.0444523
0.0
-0.0
0.0761795
0.0
0.108457
-0.0444998
-0.0452722
0.035338
-0.0545833
-0.0356054
-0.0
0.108404
0.083614
-0.0
-0.0831422
0.0
0.029935
-0.0443116
-0.0461668
0.117315
-0.0
-0.0
0.0
-0.0
-0.0390459
-0.21452
0.0
-0.0
-0.0495054
-0.0739088
-0.0
-0.0571918
0.0
-0.0
0.0491813
-0.124637
-0.0984408
0.0
-0.0862932
-0.0328201
-0.0927825
0.102221
0.0824769
-0.0434043
-0.152374
0.0
0.0392278
-0.059707
-0.0396599
0.0600289
-0.0371695
-0.0
-0.0
-0.0426973
-0.0752572
-0.259661
0.0
0.0
-0.0413694
-0.0497583
-0.0792489
-0.0464453
0.0
-0.0
0.0743813
-0.155035
-0.110067
-0.0
-0.0807438
-0.0391265
-0.120906
0.143726
0.102808
-0.0297952
-0.184713
0.0
0.0
-0.062482
-0.0328844
0.0
-0.0417614
-0.0
-0.0330109
-0.0443365
-0.0633794
-0.173411
-0.0
-0.0
-0.0299151
-0.0297903
0.0
-0.0
0.0
-0.0
0.0
-0.240307
-0.0578234
0.0
-0.0668765
0.0
-0.239525
0.162996
0.0543522
-0.0298853
-0.255544
0.0
0.0
-0.0646773
0.0
0.0
-0.0458232
-0.0
-0.0
-0.0297443
-0.0390015
-0.145439
-0.0298757
-0.0298651
0.0
-0.0296386
0.0
0.0
-0.029775
0.0479636
0.0
-0.272172
-0.0295699
0.0783688
0.0
-0.0627539
-0.271083
0.111047
0.0477716
-0.0319206
-0.365484
0.0419841
0.0
-0.0360596
-0.0297811
0.0854476
-0.0590142
-0.0745965
0.0297527
-0.0298871
-0.107524
-0.172465
0.0
-0.0
0.0818643
-0.030317
-0.0924273
-0.0
-0.0298299
0.0
0.0
-0.208283
-0.0454508
0.0
-0.0296246
-0.0
-0.174448
0.145816
0.0778441
-0.0460327
-0.399179
0.0
0.0
-0.0415464
0.0
0.092336
-0.0
-0.150844
0.0
-0.0324429
-0.0954903
-0.154832
-0.0294443
-0.0502083
0.091929
-0.0294166
-0.111397
0.0297698
-0.0299019
0.0
0.0
-0.151643
-0.0422066
-0.0
-0.0297592
-0.0356857
-0.108606
0.109376
0.103281
-0.0385965
-0.355137
0.0
0.0299745
-0.0366446
-0.0296484
0.0785694
-0.0298752
-0.282594
-0.0506053
-0.0298148
-0.0739977
-0.186502
-0.042337
-0.0996294
-0.0
-0.0402729
-0.0398605
0.0
-0.0298632
0.0493006
0.0
-0.139219
-0.0726939
-0.0
0.0
-0.100116
-0.0294648
0.0
0.0755696
-0.0414258
-0.229467
0.0362931
0.0421038
-0.0624445
-0.0497961
0.0
-0.0297643
-0.307971
0.0569134
-0.0460592
-0.12962
-0.157423
-0.0455146
-0.0486915
-0.0905337
-0.0518919
-0.0776498
0.0
0.112014
-0.0666918
0.0502881
-0.0299808
-0.0773548
0.029861
0.0
-0.0846707
0.158943
-0.0606283
0.110799
-0.0
-0.191417
0.0
0.107598
-0.122988
-0.0296797
0.183473
0.0764326
-0.326165
0.0
-0.0
-0.0488316
-0.106307
0.0
0.0294826
0.0
-0.182001
0.0555243
0.061468
0.134939
-0.15917
0.0296326
0.083466
-0.0821631
-0.0868082
-0.0921519
-0.104517
0.235991
-0.084261
0.0912781
-0.0
-0.0964467
-0.0904268
0.0992287
-0.0
-0.0298043
0.156808
0.183637
-0.169219
-0.0875484
-0.117906
-0.133911
-0.0426701
0.0298456
0.0297686
0.0322191
-0.108303
0.135405
0.127092
0.0485317
0.0
0.0
0.073467
-0.107612
-0.0
-0.188922
-0.160961
0.206814
0.0
0.0720358
-0.0
0.0
0.0296824
0.0856662
0.0411857
-0.0297197
0.135715
0.202813
-0.110589
0.0
-0.133676
-0.0712637
0.111255
0.0297339
0.0
0.0
0.0
0.073948
0.141318
0.096264
0.0468936
0.0768197
0.0597702
0.0
0.106549
-0.0
-0.0921331
0.101892
0.0
0.0
-0.0
0.0
0.0599788
0.0666777
-0.0
-0.0298153
0.133357
0.0582386
0.0
0.0690548
-0.0
-0.0296531
0.143234
0.0628959
0.0
0.0
0.0
0.0396606
0.0
0.0513227
0.0783266
0.116915
0.0630644
-0.0804085
0.23609
0.0450606
-0.0845752
0.0959336
0.0379426
0.0815185
-0.0
0.0473679
0.0430311
0.0298711
0.0
-0.0929228
0.0724953
0.0
0.0
0.0765717
-0.107895
-0.0431793
0.0635034
0.0855135
0.0
0.0
-0.0296654
0.0
0.094625
0.0298064
0.0555736
0.0851804
0.0726848
-0.0982804
0.133675
0.0524813
-0.0716714
0.052603
0.0701875
0.121952
-0.071118
0.0
0.0
0.0299871
-0.0
-0.107155
0.029955
-0.0302937
0.0
0.0507805
-0.0909359
-0.0580693
0.0891979
0.112581
0.0
-0.0320227
-0.0
0.0
0.102911
0.0305807
0.0296089
0.0955937
0.0890857
-0.0892484
0.0887255
0.0
-0.0879633
0.0
0.0343933
0.0947323
-0.0818376
0.054148
0.0299178
0.0679753
0.0
-0.135186
0.0298842
-0.0756915
0.0
0.0763151
-0.0724611
-0.0455328
0.122661
0.0994994
0.0452034
-0.0538698
-0.0298684
-0.0
0.133678
0.0678255
0.0
0.11239
0.0
-0.0
0.0566315
0.0
-0.0331987
-0.0544474
0.0
0.123801
0.0
0.0
0.0
0.0875738
-0.0
0.0
0.0411371
-0.104411
0.0
0.0
-0.0
-0.0512088
0.106817
0.0823554
0.0
-0.0496541
-0.0298724
-0.0
0.118993
0.0837877
0.0
0.0923493
-0.0864915
-0.0
0.0
0.0
-0.0588369
-0.0786884
0.0
0.103924
-0.0426928
-0.0
0.0
0.0639354
-0.0394627
-0.0604845
0.0
-0.0972731
0.0
0.0
-0.0552134
-0.0423519
0.0851736
0.0561977
-0.0
-0.0752212
-0.0302326
-0.0377971
0.0789043
0.0
0.0
0.102112
-0.129431
-0.0666416
0.0297304
0.0
-0.0620989
-0.0926169
0.097363
0.129556
-0.0756485
-0.030019
0.0
0.0309177
-0.120323
-0.0728022
0.0
-0.0993427
0.0
0.0
-0.0706276
-0.077658
0.0498078
0.0
-0.0461631
-0.164868
-0.123239
-0.132793
0.125277
0.0
-0.0913846
0.054363
-0.103123
-0.0
-0.0
-0.0467978
-0.0934086
-0.0830684
0.0
0.0742807
-0.0498515
-0.0923452
-0.0766393
-0.0786209
-0.203112
-0.0944567
-0.0
-0.101283
-0.0412659
-0.0857308
0.0
-0.163619
-0.0
0.0
-0.0
-0.120561
-0.158711
-0.134055
0.120957
0.0
-0.100589
-0.0413108
-0.0650624
0.0
-0.0801587
-0.126393
-0.0950017
-0.0443081
-0.0298989
-0.0299424
0.0
-0.0764417
-0.111301
-0.0797869
-0.16836
-0.11167
-0.060494
-0.0578479
0.0
-0.127383
0.0
-0.167281
-0.0
0.0
0.0
-0.0
-0.0995834
-0.0624707
0.0831293
0.0453783
-0.0533843
-0.0705778
-0.0
0.0
-0.0701403
-0.12384
-0.0722967
-0.0
-0.0
-0.0659068
0.0426102
-0.0
-0.0534759
-0.0
-0.0522793
-0.0932963
-0.0
-0.0
-0.0
-0.0468659
0.0
-0.0993232
0.0
0.0
0.0
-0.0
-0.0343332
-0.0
0.0
0.0
-0.0
-0.0
-0.0
0.0
-0.0
-0.0418397
-0.0
-0.0
0.0
-0.0
0.0
-0.0
-0.0
-0.0
-0.0
-0.0341481
-0.0
-0.0
0.0
-0.0
0.0
-0.0385848
-0.0
0.0
0.0
-0.0
-0.0
-0.0
-0.0
-0.0
-0.0
0.0
-0.0
0.0
-0.0
-0.0
-0.0
-0.0
0.0
-0.0
-0.0
0.0
0.0
-0.0
-0.0
-0.0
0.0
0.0
-0.0
-0.0
0.0
-0.0
-0.0
-0.0
-0.0
-0.0
0.0
0.0
0.0
0.0
0.0
0.0
0.0
0.0
-0.0
0.0
-0.0
-0.0
0.0
0.0
-0.0
0.0
0.0
-0.0
-0.0
0.0
-0.0
0.0
0.0
0.0
0.0
-0.0
-0.0
0.0
0.0
0.0
0.0
-0.0
0.0
-0.0
0.0
-0.0
0.0
0.0
0.0
0.0
-0.0
0.0
0.0
0.0
-0.0
-0.0
-0.0
0.0
-0.0
-0.0
-0.0
0.0
-0.0
-0.0
0.0
-0.0
-0.0
-0.0
-0.0
-0.0
-0.0
0.0
0.0
0.0
0.0
0.0309602
0.0
-0.0
0.0
-0.0
0.0
0.0
0.0
0.0
-0.0
0.0
0.0
0.0
-0.0
-0.0
0.0
-0.0
-0.0
0.0
0.0
0.0
-0.0
0.0
0.0
-0.0
-0.0
0.033376
0.0390219
0.0815735
0.0
0.0365029
-0.0
-0.0
0.0
-0.0
-0.0
0.0
0.0
0.0399557
0.0
0.0
0.0372466
0.0352333
-0.0
-0.0
0.0533427
-0.0
-0.0
0.0
-0.0
-0.0
-0.0719436
0.0
0.0
-0.0506702
-0.0598257
0.0
0.0
0.0755132
0.0
0.0372599
-0.0
-0.0
-0.0
-0.0570301
-0.0
-0.0
0.0
0.0
-0.0
-0.078624
0.0
0.0725684
0.0
-0.0365861
0.0
0.0
-0.0785914
0.0
-0.0
-0.0480016
-0.160825
0.0
-0.0
-0.0878132
-0.054013
-0.0
-0.0
0.0
-0.0
0.0
-0.107127
-0.088781
-0.0561135
-0.0737085
-0.0717237
-0.0563646
0.0
0.0
-0.0666922
-0.192489
0.0
0.0642421
0.0
-0.0356029
0.0
-0.0
-0.137433
-0.0
-0.0581864
-0.0317542
-0.225308
-0.0
0.0
-0.100761
-0.0710174
-0.0
-0.0
-0.0
-0.0
0.0
-0.153821
-0.115151
-0.0
-0.0871363
-0.109755
-0.115983
0.0489423
0.0491788
-0.050737
-0.249486
0.0
0.0
-0.032358
-0.0714326
0.0631097
-0.0
-0.168029
0.0
-0.0565848
-0.0627449
-0.242731
-0.0
0.0
-0.104559
-0.0668572
-0.0
0.0299853
-0.0296987
0.0
0.0563107
-0.177071
-0.114697
-0.0298698
-0.0825283
-0.102024
-0.158934
0.125749
0.0
-0.0667604
-0.314481
0.0
0.0330273
-0.0473251
-0.0655734
0.0
-0.0
-0.20099
-0.0
-0.0769786
-0.0925756
-0.171752
-0.0
-0.0
-0.0780415
-0.0
0.0298266
0.0453114
-0.0298872
0.0
0.0
-0.200784
-0.0551007
-0.0294909
-0.0424653
-0.0915662
-0.196927
0.110832
-0.0
-0.0722746
-0.379034
0.0
0.0
-0.0625355
-0.0531389
-0.0
-0.0473281
-0.276057
-0.0
-0.0393698
-0.0714256
-0.172128
-0.0296204
-0.0413361
-0.0641485
0.0
-0.0706828
0.0
-0.0399403
0.0
0.0588621
-0.156398
-0.0662163
0.0
0.0
-0.108359
-0.127724
0.110684
0.0
-0.0484081
-0.404556
0.0
0.0
-0.06507
-0.02997
0.0789654
-0.0560384
-0.390229
0.0
-0.0299298
-0.0671841
-0.177831
-0.029743
-0.0610327
-0.0995833
-0.029608
0.0
0.0433994
-0.041683
0.0855583
0.0884609
-0.0375611
-0.0383391
-0.0393915
-0.0296963
-0.152874
-0.0299477
-0.0
0.0743873
-0.0489893
-0.275546
0.0842082
0.0
-0.0371964
-0.0925662
0.0
-0.0540113
-0.448941
0.0478955
-0.0
-0.0544645
-0.136341
-0.0296797
-0.084551
-0.101767
-0.0514825
0.0
0.098154
0.0
0.0970798
0.0914922
-0.0
-0.0298004
-0.0394259
-0.0386855
-0.131416
-0.0296142
-0.0
0.0961307
-0.0
-0.0638204
0.0771312
0.051159
-0.0550053
-0.112115
0.0995224
-0.0532339
-0.366501
0.0755732
0.0389539
-0.110071
-0.132058
-0.0298623
-0.146406
-0.171067
-0.0298409
0.0
0.0823735
0.0
0.0417913
0.0327203
-0.0299229
-0.0
-0.0757713
0.060564
-0.186271
-0.0
-0.0691405
0.0614376
0.0298781
-0.0438389
0.0684602
0.0
-0.0298214
-0.126486
-0.0296108
-0.0297308
-0.248143
0.102087
0.0
-0.0499412
-0.0723019
-0.0295856
-0.0976377
-0.188377
-0.0892317
-0.108626
0.170405
0.0983188
-0.14057
-0.0
-0.0295507
-0.0
-0.146295
-0.0
-0.158305
0.181552
-0.277264
0.0824166
0.0850635
-0.126203
-0.0717176
0.0
-0.0648568
-0.103569
-0.0297822
0.0918586
-0.166123
-0.0528204
-0.0
-0.086807
-0.107186
0.0794915
0.0917831
-0.0761047
-0.147639
0.0626011
0.121363
0.0
-0.171697
-0.0827324
0.100613
-0.129414
-0.334217
-0.170737
-0.202148
0.259766
-0.146191
-0.0347214
0.0
0.0
-0.0910994
0.0460379
0.104854
-0.0582411
-0.0298907
0.186225
-0.0847091
-0.080705
-0.137501
-0.117828
-0.127891
0.0297386
0.0488229
0.0
-0.0419148
0.140656
0.0
0.0
0.0713003
-0.0922638
0.0520418
-0.161988
-0.239927
-0.228646
-0.194876
0.148987
0.0
-0.140095
0.0
0.0
0.0947778
0.0827646
0.145023
-0.0641961
0.0
0.15851
-0.0296075
0.0845011
-0.122771
-0.0665414
-0.0491543
0.0
0.0
-0.0365757
0.0944778
0.076693
-0.0295527
0.0299153
0.103243
-0.0605202
0.0
-0.119599
-0.0
0.0
-0.0623844
0.0
-0.0630141
-0.12261
-0.0726018
0.0
0.0850013
0.0294489
0.0
-0.035933
0.0
0.0657688
0.0
0.122275
-0.102887
-0.0
0.0
0.0
0.0889604
-0.0533209
-0.0299201
0.0843353
0.0
0.0723924
0.127865
0.0
0.0489392
-0.11075
0.120722
0.0296538
-0.0383441
0.0450139
0.0
0.0799925
-0.0569017
0.0494102
0.0827337
0.065115
-0.0
-0.0973314
0.0
-0.0
0.0
0.137705
-0.0782324
-0.0866456
0.0
0.106359
0.0876458
-0.0
-0.0466626
0.0296673
0.108713
0.0432976
0.0829527
0.0361816
0.070218
-0.0845362
0.0
0.0
-0.0298728
0.0298083
0.0299588
0.105132
-0.0780068
0.0506167
0.049863
0.100966
0.0
-0.0842949
0.0
-0.044532
0.0
0.0969061
-0.0862224
-0.100618
0.0711259
0.129942
0.0801924
0.0
-0.0295263
0.0295717
0.089665
0.0
0.0420487
0.0519716
0.0407617
-0.12735
0.0693051
0.0
-0.0298533
0.0
0.0446928
0.100771
-0.140168
0.0
0.0312322
0.0948869
-0.0
-0.0491673
0.0297364
-0.0842195
0.0
0.0779662
-0.0855941
-0.0
0.122554
0.137001
0.133974
-0.0
-0.0298303
0.0297949
0.0568059
0.0
0.0653224
0.107829
0.0
-0.116984
0.0657041
0.0
-0.0
0.0
0.0
0.135031
-0.176353
0.0
0.0
0.0748569
-0.0552659
-0.0
0.0443916
-0.0780334
0.0
0.0615477
-0.108136
-0.0322138
0.0598474
0.0616459
0.0
0.0
-0.0295409
0.0
0.0
-0.0298917
0.0298429
0.0746977
-0.111087
-0.119729
0.0297615
0.0
0.0
-0.0736969
0.0856919
0.0816075
-0.197083
-0.0
0.0477449
0.0619492
-0.110036
0.0
-0.0
-0.0492392
-0.0
0.0
-0.128055
-0.0299213
0.0
0.0
0.0
-0.0481845
-0.0458546
-0.070191
-0.0
-0.0641253
0.0
0.0679317
-0.114659
-0.0909237
0.0
0.0
-0.0299869
-0.0797299
0.112342
0.0777459
-0.223198
-0.0802526
0.0
0.0585027
-0.152773
-0.0339517
-0.0
-0.052221
-0.0299535
-0.0
-0.117444
-0.0676416
0.0418312
-0.0377001
-0.0
-0.0664177
-0.076643
-0.145606
0.0
-0.0618922
-0.116489
0.0646145
-0.0534904
-0.0
0.0
-0.0
-0.0407384
-0.0420296
0.0780633
0.066568
-0.162226
-0.0562743
-0.0968937
-0.0634351
-0.185228
-0.056423
-0.0434582
-0.0545019
-0.0368618
-0.0882762
-0.0
-0.0849545
-0.0
-0.0
-0.0
-0.0412887
-0.129038
-0.113844
0.0
-0.0
-0.101267
-0.0
-0.0320366
-0.0
-0.0610122
-0.0829465
-0.0926
-0.0
0.0
-0.0
-0.0713073
-0.0
-0.112184
-0.0790147
-0.136466
-0.104442
-0.0634106
-0.0
0.0
-0.112553
-0.0
-0.11473
-0.0
0.0
0.0
-0.0
-0.080185
-0.0432901
0.0
0.0
-0.0375577
-0.0348835
-0.0
-0.0
-0.049635
-0.104498
-0.0786882
-0.0
0.0
-0.0569332
0.0
-0.0
-0.0416373
-0.0
-0.0639504
-0.0813189
-0.0
-0.0
0.0
-0.0516468
-0.0
-0.0777156
-0.0
0.0
0.0
0.0
-0.0
-0.0
0.0
0.0
-0.0
-0.0
0.0
0.0
-0.0
-0.0
-0.0435484
-0.0
0.0
-0.0
0.0
-0.0
-0.0
-0.0
0.0
-0.0449726
0.0
-0.0
0.0
-0.0
-0.0
-0.0
-0.0
0.0
0.0
0.0
-0.0
0.0
-0.0
0.0
-0.0
0.0
0.0
-0.0
-0.0
-0.0
0.0
-0.0
0.0
-0.0
0.0
0.0
0.0
0.0
-0.0
-0.0
0.0
-0.0
-0.0
-0.0
0.0
-0.0
-0.0
-0.0
-0.0
0.0
-0.0
0.0
-0.0
0.0
0.0
-0.0
-0.0
0.0
0.0
0.0
0.0
0.0
-0.0
0.0
-0.0
-0.0
-0.0
0.0
0.0
-0.0
-0.0
0.0
0.0
0.0
-0.0
0.0
-0.0
0.0
-0.0
0.0
0.0
0.0
0.0
0.0
0.0
0.0
-0.0
-0.0
0.0
0.0
0.0
-0.0
-0.0
0.0
-0.0
0.0
0.0
0.0
-0.0
-0.0
0.0
0.0
0.0
0.0
0.0
-0.0
-0.0
-0.0
0.0
-0.0
-0.0
0.0
0.0
0.0
0.0
0.0
-0.0
-0.0
0.0
-0.0
-0.0
0.0
0.0
0.0
0.0
-0.0
0.0
0.0
-0.0
-0.0
0.0
0.0
-0.0
0.0
-0.0
0.0
-0.0
0.0
0.0
-0.0
-0.0372988
0.0
0.0535557
0.0509508
0.0
0.0
-0.0
-0.0
-0.0
-0.0
-0.0
0.0
-0.0
0.0
-0.0
-0.0
0.0
0.0635474
-0.0
-0.0
0.0
0.0
-0.0521863
0.0
-0.0
-0.0410756
-0.0755492
-0.0
0.0
-0.0733801
-0.0937411
0.0
0.0
0.0
0.0318255
0.0
-0.0585216
-0.0484898
-0.0541687
-0.0921669
-0.0
-0.0
-0.0657572
0.0
-0.0
-0.123595
0.0339641
0.111101
0.0
-0.0373132
-0.0
-0.0
-0.142108
0.0
-0.0384444
-0.0889776
-0.152251
-0.0318771
-0.0
-0.121187
-0.0677519
0.0
0.0
-0.0
0.0
0.0
-0.130157
-0.0829098
-0.12099
-0.0816828
-0.109201
-0.047778
-0.0916244
0.0466635
-0.0382045
-0.234057
0.0
0.091183
0.0
-0.0704263
-0.0351575
-0.0
-0.21827
0.0
-0.0402427
-0.0468187
-0.155989
-0.0439461
0.0
-0.194111
-0.0297997
0.0
0.0437998
-0.0383273
-0.0
0.0
-0.139322
-0.0499492
-0.0799842
-0.0491143
-0.187982
-0.0719105
-0.0899846
0.0802106
-0.0457602
-0.292604
0.0
0.0
-0.0
-0.128975
-0.0298254
-0.0
-0.293442
0.0
-0.0
-0.0298899
-0.15548
-0.0296717
0.0
-0.20423
-0.0
0.0299574
0.10973
-0.0298921
0.0607641
0.0
-0.121139
-0.052418
-0.0762885
-0.0306167
-0.16273
-0.0632094
-0.0483921
0.0780725
-0.0444839
-0.286236
0.0503322
0.0
0.0
-0.109297
0.0
-0.0
-0.324983
0.043644
-0.0299245
-0.0
-0.108465
-0.0296153
-0.0595287
-0.210393
0.0
0.0299604
0.0668094
-0.0
0.0437088
0.0
-0.0653634
-0.0297756
-0.0644492
0.0
-0.133839
-0.0332071
-0.058548
-0.0
0.0
-0.230095
0.0574128
0.0
0.0
-0.0776613
0.0
-0.0649486
-0.391332
0.0
-0.0
0.0
-0.0933313
-0.0298291
-0.0
-0.243363
0.0
0.0
0.0523515
-0.0
0.0
-0.0
-0.0
-0.0398177
-0.0649266
0.0
-0.16481
-0.0
-0.0953
-0.0
0.0
-0.0725904
0.0383128
0.0
-0.0
-0.112398
-0.0298197
-0.0836297
-0.382792
0.0
-0.0
0.0
-0.0587314
-0.0297355
-0.0827814
-0.281694
0.0
-0.0
0.163528
-0.0297613
0.0512408
0.0776141
0.129417
0.0694861
-0.0725008
-0.0295741
-0.194221
0.0
-0.123973
0.0736184
0.0296303
0.0
0.0551881
-0.0855631
0.0620971
-0.161558
-0.061083
-0.140824
-0.202931
0.048708
0.0934003
0.0
-0.0668306
-0.029945
-0.111689
-0.269854
0.13325
0.0
0.11059
0.0
0.0523348
0.0447595
0.118835
0.0
-0.15011
0.069469
-0.107762
-0.0298732
-0.158105
0.0
0.0415753
0.0
0.0664472
-0.0840271
-0.0292947
-0.085709
-0.0804949
-0.162632
-0.0725115
0.0656366
0.0297005
0.0483053
-0.0296485
-0.0298693
-0.120696
-0.206476
0.128908
-0.0574419
0.102382
0.0
-0.0447911
-0.0295821
-0.0297713
0.0
-0.157269
0.105678
-0.156874
0.121682
-0.192202
-0.0
0.0392527
0.0
-0.0
-0.214463
-0.0296182
-0.090219
-0.121694
-0.0295688
0.0
-0.0
-0.0
0.045133
-0.0418092
0.0
-0.0
-0.220512
0.0
0.0
0.134125
-0.0595251
-0.226845
-0.123608
-0.0
-0.0
-0.219054
-0.0363653
-0.149498
0.170317
-0.200159
-0.0404166
0.0295412
0.0
-0.131641
-0.204744
0.116125
-0.0565408
-0.187215
0.0519986
0.0671311
-0.128079
-0.0
0.0
-0.145892
0.0978072
0.178942
-0.075129
-0.0828947
0.0755678
-0.0297821
-0.0
-0.138365
-0.21454
0.104319
-0.0727733
-0.34114
-0.278104
-0.110255
0.263658
0.0
-0.15018
0.0294805
0.0528168
-0.124558
-0.0327174
0.132651
-0.0295982
-0.170061
0.185565
0.0
-0.0953771
-0.0747305
-0.0749812
-0.19061
0.0
0.0658131
-0.0387499
-0.0297774
0.118598
-0.0477835
-0.0
0.0606365
-0.110206
0.0322484
-0.111468
-0.203643
-0.20183
-0.09599
0.138427
0.0
-0.207174
0.0
0.0
0.0661887
0.0479155
0.106564
-0.0297498
-0.0297463
0.116323
0.0
0.100776
-0.0882778
-0.0295849
-0.0980222
-0.0
0.0
-0.0908175
0.0974911
0.0827412
-0.0624797
0.0
0.118678
-0.0
-0.0
-0.0817369
-0.0295939
-0.0
-0.0404365
0.0518492
-0.0
-0.0544658
0.0
0.0607369
0.0922616
0.0639125
0.0
-0.0297108
0.0
0.0852422
0.0661808
0.114864
-0.0490338
0.0536758
-0.0769555
0.0889725
0.0745641
-0.0764112
0.0
0.0296716
-0.0298649
0.0410735
0.0803592
0.0603462
0.0
-0.0892036
-0.0
0.033104
-0.0
0.0
-0.0
0.0
-0.0
0.0
0.0763204
0.0680541
-0.0
-0.0790764
0.0
-0.0
0.0
0.152958
-0.0429508
0.0
-0.0297241
0.0929298
0.0830997
-0.0379308
0.0
0.0660173
0.0
-0.0
0.063644
-0.0
-0.0
-0.086943
-0.0
0.0
0.0
-0.0657427
-0.0
0.0
-0.0
0.0
0.0822368
0.0921306
0.0
-0.0623077
-0.0
-0.102967
-0.0563436
0.106589
-0.0499979
0.0
0.0
0.126243
0.0593112
-0.0
0.0
0.0298465
-0.0507192
-0.0721839
0.0492501
-0.0335391
0.0
-0.0985077
-0.0469682
-0.0296491
0.0
-0.0684295
0.0
-0.0
-0.0820257
0.0
0.0367002
0.0458615
0.0
0.0
-0.0818334
-0.0710094
0.0
0.0
-0.0837743
0.0
0.0699519
0.0702752
0.0909487
0.0
-0.029627
0.029989
-0.0575021
-0.0638882
0.0367456
0.0339156
-0.0927603
-0.134149
0.0299108
0.0
-0.0
-0.0
0.0858943
0.0
-0.146238
0.0
0.0390563
0.0
-0.058926
-0.0678595
-0.0672615
-0.0369598
-0.0
0.0628909
-0.116258
-0.0474518
0.0
-0.0299159
-0.0
0.0
0.0
0.0298377
-0.101232
-0.118115
0.0
0.0
-0.108871
-0.119778
0.0
0.0
-0.0
-0.0675385
0.110766
0.0362915
-0.203508
-0.0349465
0.0555255
0.0513282
-0.0
-0.0340038
-0.0683556
-0.0
-0.0383442
0.0
-0.139109
0.0
0.0
-0.123669
-0.02995
-0.0540883
0.0
-0.080165
-0.0
-0.113531
-0.0342128
0.0836611
-0.12445
-0.0675233
0.0297809
0.0760171
0.0
-0.0875011
0.0
0.0955045
-0.212208
-0.0908025
0.0
0.0670101
-0.0930693
-0.0
-0.0680916
-0.036542
-0.0752894
0.0
-0.0877037
0.0
0.0
-0.0951753
-0.0422097
-0.0432491
-0.0
-0.103578
-0.0
-0.10956
-0.109216
0.0546896
-0.0477188
0.0
0.0
0.0886887
-0.0
-0.0385735
0.0
0.0635999
-0.164474
-0.0473182
-0.0862105
-0.0299133
-0.0931317
-0.0
-0.0570277
-0.0
-0.0639439
-0.0854259
-0.0
0.0
0.0
-0.0406303
-0.0
0.0
-0.0
-0.0582243
-0.0
-0.0496504
-0.102315
0.0526883
-0.0
-0.0
0.0
0.0
-0.0
-0.0
0.0
0.0441825
-0.0871614
0.0
-0.0855068
-0.0941513
-0.0524942
0.0
-0.0428248
-0.0
-0.0
-0.104286
0.0
0.0
-0.0
-0.0
0.0
0.0
-0.0480673
-0.0
-0.0
0.0
-0.0421618
-0.0
0.0
-0.0
-0.0
-0.0600189
-0.040065
0.0
0.0
-0.0
-0.0
0.0
-0.0
-0.0
-0.0
-0.0387302
0.0
0.0
0.0
-0.0366157
-0.0
-0.0
-0.0
0.0
-0.0
0.0
-0.0
-0.0
0.0
0.0
-0.0
-0.0
-0.0
-0.0
-0.0
-0.0351813
-0.0
0.0
0.0
-0.0
0.0
-0.0
0.0
-0.0
-0.0
-0.0373569
-0.0
-0.0
0.0
-0.0
0.0
-0.0
-0.0
0.0
-0.0
-0.0
-0.0
0.0
0.0
0.0
0.0
0.0
0.0
0.0
0.0
-0.0
0.0
-0.0
0.0
0.0
-0.0
-0.0
0.0
-0.0
-0.0
-0.0
-0.0
-0.0
-0.0
-0.0
-0.0
-0.0
-0.0
0.0
0.0
-0.0
-0.0
-0.0
0.0
-0.0
0.0
-0.0
-0.0
0.0
-0.0
0.0
-0.0
0.0
-0.0
0.0
-0.0
-0.0
-0.0
0.0
-0.0
0.0
-0.0
-0.0
0.0
0.0
0.0
-0.0
0.0
0.0
-0.0
0.0
-0.0
-0.0
0.0
-0.0
-0.0
0.0
0.0
0.0
-0.0
-0.0
0.0
0.0
0.0
-0.0
-0.0
-0.0
-0.0
0.0
0.0
-0.0
-0.0
0.0
0.0
-0.0
0.0
0.0
0.0
0.0
0.0
0.0
-0.0
0.0
0.0
0.0
0.0
0.0
0.0
0.0
0.0
-0.0
0.0
-0.0
-0.0
0.0
0.0
-0.0
0.0
0.0
-0.0
0.0
0.0
-0.0
0.0
-0.0
0.0
-0.0
-0.0
0.0
0.0
-0.0
-0.0400527
0.0
0.0
0.0
0.0
0.0
0.0
-0.0
-0.0517632
-0.0
-0.0
-0.0
-0.0444151
0.0
0.0
-0.0
0.0
0.0465454
-0.0
0.0
-0.0
-0.0
-0.065206
0.0
-0.0
-0.0314746
-0.0752059
-0.0360679
0.0
-0.0916301
-0.0778834
0.0416354
-0.0
-0.0299
0.0723736
-0.0458167
-0.0759002
-0.0435691
-0.117281
-0.0854178
-0.0615633
-0.0
-0.143626
-0.0439585
-0.0322454
-0.110099
0.0482271
0.11836
0.0
-0.0474665
-0.0749904
-0.0
-0.185503
0.0802696
-0.0591077
-0.0687109
-0.094405
-0.0783525
-0.0520245
-0.144331
-0.0
0.029942
0.0
-0.042828
0.038733
-0.0571076
-0.127206
-0.0299623
-0.161825
-0.0644399
-0.133694
-0.0321269
-0.185528
-0.0
-0.0318536
-0.194164
0.039482
0.0544204
0.0
-0.101951
-0.105709
-0.0
-0.252095
0.0666132
-0.0
0.0
-0.0391389
-0.0875373
0.0
-0.214881
0.0537747
0.0299523
0.0395468
-0.05773
-0.0
0.0
-0.107147
0.0
-0.147135
0.0
-0.16566
-0.0299148
-0.266757
0.0
0.0
-0.198253
0.0
-0.0
0.0
-0.12479
-0.0785059
-0.0
-0.292788
0.0
-0.0
0.056908
0.0
-0.0475265
0.0
-0.254654
0.0557941
0.0831794
0.0795078
-0.038763
0.117526
0.0
-0.0461507
0.0
-0.10987
0.0
-0.140558
-0.029922
-0.272875
0.0756274
0.0
-0.0890563
0.0718602
0.0
0.0727559
-0.114254
-0.0297764
-0.0
-0.252239
0.0730996
0.0
0.0491503
0.0
-0.0298801
-0.0
-0.271806
0.109325
0.0298887
0.0483408
-0.0
0.0549237
-0.0
-0.0298884
-0.0
-0.148724
0.0
-0.0960266
-0.0
-0.28603
-0.0
0.0
0.0
0.0297147
-0.0
0.0662075
-0.0640746
-0.0296791
-0.0452616
-0.185623
0.0
-0.0
0.0753635
0.0
-0.0297145
0.0
-0.224626
0.0835582
0.0
0.0750644
-0.0
0.0
-0.0
0.0
0.0564405
-0.101278
0.0
-0.108247
-0.0
-0.258006
0.0
0.0
0.107954
0.0
-0.0615119
0.0621522
-0.0843381
-0.109826
-0.0952443
-0.0619325
0.0
0.0
0.0609985
-0.0
-0.0768583
-0.0548355
-0.212699
0.116459
0.0478489
0.0881693
-0.0803131
0.0660783
0.0
-0.0
0.0658094
-0.160225
0.0
-0.0655058
-0.0
-0.272423
0.0946591
0.0
0.107673
0.0552332
-0.0786932
0.122049
-0.0766326
-0.128721
-0.170554
0.0
0.0295663
0.0
0.0939983
-0.0
-0.044782
-0.057845
-0.162586
0.176091
-0.0769795
0.0
-0.0683535
0.0
0.0
-0.029663
-0.0
-0.182363
0.0976334
-0.0
-0.046886
-0.169789
-0.0298704
0.0
0.0
0.0
-0.121399
-0.0297957
-0.0593505
-0.184465
-0.158329
0.105591
0.0
-0.0
0.0946235
-0.0298869
-0.0578975
-0.0402925
-0.120061
0.102529
-0.129157
0.0480268
-0.0
-0.108454
-0.115999
-0.0467576
0.0
-0.160526
0.0
-0.0645856
0.0
-0.13191
-0.0298387
0.0389674
0.0
-0.0298125
-0.170277
-0.0297463
-0.0406629
-0.206301
-0.0295908
0.0902915
-0.0302878
-0.0
0.07863
-0.0376625
0.0311236
0.0635828
-0.0430658
0.0
0.0
-0.0298249
0.0296638
-0.20109
-0.274561
0.0298192
-0.0
-0.188502
-0.174331
-0.0
0.113666
0.0
-0.146784
0.087898
0.100456
-0.152581
-0.0801083
0.158242
-0.0
-0.178162
0.0704872
0.110388
-0.13473
0.0
0.0537448
-0.115143
0.0679233
0.137404
0.0
-0.051267
0.140464
-0.0800529
-0.0
-0.0489719
-0.238342
0.0557007
-0.0
-0.178661
-0.243675
0.0
0.190329
0.0299101
-0.246838
0.0
0.0700876
-0.0573214
0.0
0.125308
0.0
-0.110693
0.170709
0.0
-0.0297191
-0.0
-0.0453224
-0.178747
0.051824
0.0807109
-0.0
0.0966035
0.150561
-0.189639
-0.0812268
0.029932
-0.142461
0.0532934
-0.0722421
-0.0961911
-0.104877
0.0
0.103999
0.0295418
-0.224803
-0.0
0.0
0.0417525
0.0
0.135118
0.0
-0.0299665
0.135114
0.0
0.0734888
-0.0860087
0.0532797
-0.0999183
0.0
0.0
-0.0597302
0.068165
0.0
-0.1583
-0.0
0.0645926
-0.0
-0.0
-0.0814243
-0.0490259
0.0
0.0
0.0
0.0647958
-0.0493595
0.0
0.0
0.085891
0.103538
-0.0294274
-0.0295222
0.0
0.0
0.0
0.130035
-0.0660575
0.0617913
-0.0653386
0.0916151
0.0
-0.0335163
0.0830952
0.0548455
-0.0817889
0.0
0.0526836
0.0
-0.0
-0.0510322
-0.0344619
0.0297978
-0.0766935
-0.0471887
0.0
-0.0
-0.0297345
0.0
0.0695238
0.04287
0.0
-0.0824943
0.0
-0.0348848
0.0
0.126164
-0.0611549
0.0
-0.0329556
0.0
0.0608906
-0.0394346
0.0534725
0.0575559
-0.0297357
-0.0
0.0429545
-0.0369518
-0.0
-0.0457239
-0.0839376
0.0
-0.0
-0.0567688
-0.0
-0.0
0.0
0.0
0.0387034
0.0576113
0.0
-0.0721671
-0.0298329
-0.124679
0.0
0.0582565
-0.0368529
0.0
-0.0298088
0.0
0.0
-0.0
0.0
0.0373608
-0.0462533
-0.0450857
0.0513385
-0.0536884
-0.108055
-0.0428358
-0.0916212
-0.0870078
-0.0
-0.0886228
-0.0
-0.0296549
-0.0298801
-0.0
0.0376861
0.0
0.0
0.0
-0.111874
-0.0676369
0.0
0.0460906
-0.0635038
-0.0
0.0
-0.0575241
0.0
-0.0693181
-0.0
0.0481639
-0.120091
-0.0398091
0.0752234
-0.0
-0.110728
-0.0724504
-0.100577
-0.122859
-0.0537663
-0.0
0.0
-0.0
-0.0894852
-0.0
0.0832321
0.0703312
0.0298174
-0.0
-0.151111
-0.0
-0.0381553
0.108437
-0.0878412
-0.0658401
0.0
-0.145325
-0.0
-0.0
0.0367428
0.0298633
-0.0
-0.0718423
0.0
0.0
-0.103362
-0.0767119
-0.0
0.0
-0.0
-0.0
0.0
0.0403765
-0.105444
-0.0299122
0.0608636
0.0807653
0.0
-0.0
-0.115031
-0.0
-0.0299199
0.0661132
-0.0688854
0.0
0.0576664
-0.193968
-0.057487
-0.0688743
0.0299502
-0.0719509
0.0
-0.103286
-0.0570717
0.0477408
-0.113989
0.0
0.0
0.102466
0.0356683
-0.0752325
-0.0298706
0.0622198
-0.168895
-0.106551
0.0
0.0674789
-0.0
0.0
-0.0561447
-0.0
-0.0942451
-0.0
-0.0
0.0308736
0.0310254
-0.130309
-0.0708305
-0.0445067
0.0655011
-0.108803
0.0
-0.0855893
-0.131676
0.0407652
-0.0604034
0.0
0.0298743
0.14128
0.0644793
-0.0313094
-0.0298064
0.0677187
-0.144747
-0.0453659
-0.12368
-0.0484172
-0.0585192
0.0809192
-0.0405454
-0.0
-0.0483094
-0.122888
0.0
0.0967546
0.0
-0.0557561
-0.042577
0.0
0.0
-0.0517991
-0.0
-0.0
-0.098929
0.0
-0.0
0.0
0.0
0.0703117
0.0605229
-0.0
-0.0
0.0472249
-0.0774392
-0.0
-0.0955091
-0.0957938
-0.046343
0.0648319
-0.0
-0.0
-0.0
-0.122217
0.0
0.0379636
-0.0
-0.0
-0.0
0.0
-0.0
-0.0
-0.0
-0.0
-0.0
-0.0
-0.0
-0.0
0.0
-0.0
0.0
-0.0
0.0
0.0
-0.0
0.0
-0.0
-0.0
-0.0
0.0
0.0
-0.0
0.0
-0.0
-0.0
-0.0
0.0
0.0
0.0
0.0
-0.0
-0.0
0.0
0.0
-0.0
0.0
0.0
-0.0
-0.0
-0.0
-0.0
0.0
0.0
0.0
-0.0
0.0
-0.0
-0.0
-0.0
0.0
0.0
0.0
0.0
-0.0
-0.0
-0.0
0.0
-0.0
0.0
-0.0
0.0
0.0
0.0
0.0
0.0
0.0
-0.0
-0.0
0.0
0.0
0.0
-0.0
0.0
-0.0
-0.0
-0.0
-0.0
0.0
0.0
0.0
0.0
-0.0
0.0
0.0
-0.0
0.0
-0.0
-0.0
-0.0
0.0
-0.0
-0.0
-0.0
0.0
-0.0
0.0
0.0
-0.0
0.0
-0.0
0.0
-0.0
-0.0
0.0
-0.0
-0.0
-0.0
-0.0
0.0
0.0
-0.0
-0.0
0.0
0.0
0.0
0.0
-0.0
0.0
-0.0
0.0
-0.0
0.0
-0.0
0.0
-0.0
0.0
-0.0
-0.0
0.0
0.0
0.0
-0.0
-0.0
0.0
0.0
-0.0
-0.0
0.0
0.0
0.0
-0.0
0.0
-0.0
0.0
-0.0
0.0
0.0
-0.0
0.0
0.0
-0.0
0.0
0.0
0.0
-0.0
0.0
-0.0
0.0
0.0
0.0
0.0
0.0
-0.0
-0.0
-0.0
0.0
0.0
0.0
0.0
-0.0
0.0
0.0
-0.0
0.0
-0.0
0.0
-0.0
-0.0
0.0
-0.0
-0.0
0.0
0.0
0.0
0.0
-0.0
-0.0
-0.0
-0.0608688
-0.0
-0.0
-0.0
-0.0551046
-0.0
0.0
-0.0
0.0
0.0345909
0.0
0.0
-0.0
0.0
-0.0544048
0.0
-0.0
0.0
-0.0
-0.0441984
-0.0
-0.0743243
0.0
0.0684844
0.0
-0.0339906
0.0756542
-0.0653515
-0.058829
-0.0319826
-0.12327
-0.0504636
-0.0615962
-0.0
-0.145075
-0.0686101
-0.0
-0.0505391
0.0723782
0.05426
0.0393086
-0.0646053
-0.0800893
-0.0
-0.134651
0.105521
-0.0354502
0.0
0.0
-0.101588
-0.0643483
-0.152848
0.0
0.0386197
-0.0
-0.0649431
0.0483917
0.0
-0.126701
0.0
-0.143537
0.0
-0.114339
-0.0470588
-0.227845
-0.0
-0.0615457
-0.0957294
0.060539
-0.0
0.0541904
-0.115359
-0.117426
-0.0
-0.187542
0.10006
-0.0
0.0536894
0.0775137
-0.120581
0.0
-0.160359
0.0677487
0.0297669
0.0
-0.0652071
0.0
0.0
-0.0765977
0.0459586
-0.14887
0.0751833
-0.0925394
-0.0516144
-0.292495
0.0
-0.0653302
-0.0538862
0.0
-0.0
0.0753497
-0.0978476
-0.125047
-0.0
-0.111171
0.0549614
0.0
0.0874984
0.100168
-0.0992395
0.0
-0.116493
0.0843744
0.0601781
0.0
-0.0372544
0.0767345
0.0537605
-0.0373453
0.0735453
-0.0799306
0.0853181
0.0
-0.0446618
-0.347074
0.0847268
-0.0298912
0.0
0.0722346
-0.0
0.0961137
-0.041086
-0.106311
-0.0
-0.0299838
0.0707884
0.0527845
0.0954982
0.0634213
-0.0869829
-0.0
-0.0713006
0.125916
0.0294478
-0.0
-0.0302344
0.0535787
-0.0
-0.0299296
0.0701746
-0.0822556
0.0797618
0.0
0.0
-0.333137
-0.0
0.0
0.0930202
0.0296548
-0.0638458
0.0883345
0.0
-0.145589
-0.0
0.0
0.0422701
0.0
0.0862345
0.0707111
-0.0747766
0.0
-0.0
0.106745
0.0298574
0.0
-0.055839
-0.0297849
-0.0
-0.029803
0.0911445
-0.131552
0.113759
0.0483407
-0.0
-0.239209
-0.0295183
0.0294896
0.0958766
0.0
-0.0408325
0.0299406
0.057419
-0.177268
-0.0788295
0.117401
0.0
0.0
0.121704
-0.0
-0.0734462
-0.0
0.0
0.0740096
0.0
-0.0296893
-0.0846556
-0.0
0.0
-0.0397358
0.0409292
-0.154187
0.108756
0.0295621
-0.101033
-0.130963
0.0
0.0295913
0.0
0.0
-0.0767267
0.0296564
0.0
-0.134721
-0.158337
0.153352
0.0
0.0
0.097281
-0.0298469
-0.0741481
-0.0296219
-0.0299502
0.181363
-0.107237
-0.0758878
-0.0987948
-0.037052
-0.0496986
-0.0757083
-0.0406512
-0.129222
0.113276
0.0850481
-0.102131
-0.0
-0.0
0.0296536
-0.0297664
0.0
-0.108063
-0.0512576
0.0617183
-0.183152
-0.119031
0.136886
0.0
-0.0
0.190899
-0.0297998
-0.0464776
-0.0295297
0.0
0.119224
-0.0857152
-0.0565505
0.0498329
-0.125646
-0.240353
-0.0739052
-0.0415674
-0.0825692
-0.0
0.0
-0.044667
-0.0
-0.0803836
0.0454673
0.0
-0.0649828
-0.0805995
-0.0
0.0
-0.13027
0.0
0.0
-0.0370197
-0.0296157
0.123212
-0.0298022
0.0699156
0.0999408
0.11423
0.0
0.0626532
-0.0824891
-0.0
-0.139911
-0.328525
0.0299617
-0.036945
-0.145807
-0.171117
0.0772543
0.0293864
0.0671856
-0.228679
-0.0
0.0634116
-0.133411
-0.0297212
0.12887
0.0
-0.11346
0.108935
0.117994
-0.0603144
-0.0
0.0
-0.0492946
0.106545
0.14279
0.0750507
0.0
0.138981
-0.107947
-0.0460324
-0.0608457
-0.163008
0.0682294
-0.0467379
-0.107775
-0.128049
0.0
0.118468
0.0296652
-0.237777
-0.0
0.0685199
-0.0659753
-0.0297936
0.118393
0.0
-0.114025
0.170983
0.0
-0.0296278
-0.0297566
-0.0294541
-0.088591
0.0905272
0.111561
0.0
0.0
0.133627
-0.112698
-0.0
0.0294937
-0.0344715
0.0413752
-0.0874515
-0.055497
-0.0860513
-0.0325333
0.0759327
-0.0
-0.0902157
-0.0
-0.029737
0.0296603
0.0554423
0.181921
-0.0399547
-0.0
0.127772
-0.029545
0.0709901
-0.0495264
0.0
-0.119998
0.0
-0.0
-0.0296979
0.112806
0.0530298
-0.173056
0.0
0.0405975
-0.0379379
-0.070024
-0.123575
-0.0821497
0.0
0.0
-0.0297275
0.0
-0.0
-0.0671987
0.0
0.060482
0.0297381
0.0
0.0
-0.0
0.0
0.0
0.129083
-0.0699039
0.0744821
-0.0298563
0.0
0.0635516
-0.0482885
0.101771
0.102602
-0.050543
0.0
0.0952005
-0.0298438
-0.0
-0.0646011
-0.0
0.0
-0.0815439
-0.0357392
-0.0
-0.0297403
-0.0313968
0.0524947
0.0934277
0.0295801
0.104007
-0.0881878
0.0690999
-0.138315
0.0
0.126571
-0.0679162
0.0340537
-0.0297324
-0.0298065
0.0298221
0.0
0.0
0.0917365
-0.0662766
0.0297501
0.101479
-0.0511724
-0.0502298
-0.0633214
-0.0903591
-0.0403352
-0.0
-0.0
-0.0
-0.0296965
-0.0
0.0341018
0.0623001
0.0297109
0.0410312
0.0
0.0779248
-0.117437
0.0600764
0.0795147
-0.0896047
0.0
-0.0298765
-0.112488
0.0
-0.0
0.0656446
0.0647281
-0.0
0.046879
0.145639
-0.0
-0.0693296
-0.051345
-0.0994244
-0.0
-0.0479688
-0.0
0.0
-0.0
-0.0
0.0
0.112907
0.0601151
0.0736502
0.0
0.0355792
-0.0553833
0.0407346
0.133493
-0.0724725
0.0296589
0.0
-0.193714
-0.0502471
-0.0937735
0.04947
0.0339786
-0.0682723
0.0
0.109812
0.0297366
-0.0993182
-0.0
-0.0824373
-0.0
-0.0
0.0
-0.0389721
0.0
0.0
-0.0
0.0865038
0.092449
0.061017
0.0
-0.0497023
-0.0
0.0
0.106986
-0.0538153
0.0
0.0593328
-0.145098
-0.0329076
-0.0528146
0.0566278
-0.0710179
0.0
0.0
0.0
0.0
-0.0662812
-0.0
0.0
0.0325902
-0.0
0.0
-0.0299345
0.0
-0.0
-0.0
0.0
0.0582046
0.0
0.0
-0.0518972
-0.0
0.0
0.0536349
0.0
0.0298484
0.0457105
-0.162514
-0.0746609
-0.103942
0.0804814
-0.0770872
0.0432668
0.0
-0.0541278
0.0413267
-0.0818557
0.0
0.0299093
0.116673
0.0592916
-0.0298743
-0.0498399
0.0621529
-0.0876814
-0.0437965
0.0
0.0
-0.0
0.0620131
-0.0
-0.0
-0.0316048
-0.0
0.0
0.0848074
0.0
-0.114971
-0.0746208
-0.0529428
0.0707116
-0.0651873
0.0299477
-0.0299602
-0.0655532
0.0587984
-0.0782516
0.0
0.0327082
0.144952
0.0937338
-0.0299512
-0.0405982
0.0992197
-0.0937133
-0.0362377
-0.103629
-0.0487418
-0.0
0.104804
-0.0
0.0
-0.0299372
-0.092856
0.0344801
0.0850066
0.0
-0.051953
-0.0412075
-0.0
0.0386475
-0.0617741
0.0
0.0
-0.0516277
0.0469029
-0.0
0.0
0.0
0.0856631
0.068195
-0.0
-0.0
0.0574964
-0.0
0.0
-0.0887941
-0.0572616
-0.0
0.0655205
0.0
0.0
0.0
-0.0886438
0.0309229
0.0488187
0.0
-0.0
-0.0
0.0
0.0
-0.0422653
-0.0
0.0
-0.0
0.0
0.0
-0.0
0.0
-0.0
0.0432932
0.0
0.0
-0.0
-0.0
0.0377459
-0.0
0.0
-0.0
0.040118
0.0
-0.0
0.0591296
-0.0
-0.0
0.0
0.0
-0.0
0.0
0.0
0.0
-0.0
0.0
0.0
-0.0
-0.0
0.0
-0.0
-0.0
-0.0
0.0
-0.0
0.0
0.0
-0.0
0.0
-0.0
0.0
-0.0
0.0
0.0
-0.0
0.0
-0.0
-0.0
0.0
-0.0
-0.0
-0.0
0.0
-0.0
-0.0
-0.0
-0.0
0.0
0.0
-0.0
-0.0
0.0
-0.0
0.0
-0.0
0.0
-0.0
0.0
-0.0
-0.0
0.0
-0.0
0.0
0.0
-0.0
0.0
-0.0
-0.0
-0.0
-0.0
-0.0
-0.0
0.0
0.0
-0.0
0.0
0.0
-0.0
0.0
0.0
-0.0
0.0
0.0
0.0
-0.0
-0.0
-0.0
0.0
0.0
0.0
0.0
-0.0
0.0
-0.0
0.0
0.0
0.0
-0.0
0.0
0.0
-0.0
-0.0
-0.0
0.0
0.0
-0.0
0.0
-0.0
-0.0
-0.0
0.0
0.0
-0.0
-0.0
0.0
-0.0
-0.0
0.0
0.0
-0.0
-0.0
0.0
0.0
0.0
0.0
0.0
-0.0
0.0
0.0
0.0
0.0
0.0
-0.0
-0.0
0.0
0.0
0.0
-0.0
-0.0
-0.0
-0.0
0.0
0.0
-0.0
0.0
-0.0
0.0
0.0
-0.0
0.0
-0.0
0.0
-0.0
-0.0
0.0
0.0
-0.0
0.0
0.0
-0.0
0.0
-0.0
-0.0
0.0
-0.0
0.0
0.0
0.0
-0.0
0.0
-0.0
-0.0600304
-0.0
0.0
-0.0
-0.0442355
-0.0
-0.0
0.0
0.0
0.0
0.0
-0.0
-0.0
0.0
-0.0
0.0
-0.0
0.0
0.0
-0.0356284
-0.0
-0.0481876
0.0
0.0
0.0
-0.0429209
0.0351667
-0.0397914
-0.0467744
0.0
-0.0968326
-0.0393371
-0.0539126
-0.0
-0.113529
-0.0362231
-0.0
-0.0
0.0
0.0
0.0299225
-0.0534321
-0.0708248
0.0
-0.0763277
0.0806728
0.0
0.0
0.0799433
-0.0915065
-0.0771983
-0.047583
0.0391358
-0.0
0.0
-0.0743338
0.0
0.0
-0.0966225
0.0
-0.0880655
0.0422919
-0.033423
-0.0471672
-0.197483
0.0
-0.0936457
-0.0
0.0
-0.0
0.0346362
-0.0578966
-0.141519
-0.0
-0.0503138
0.0554578
-0.0
0.062722
0.101167
-0.105858
-0.0558887
-0.0
0.0842199
0.0
-0.0
-0.0523919
0.0
-0.0
0.0
0.0609937
-0.114938
0.065227
0.0
-0.070173
-0.217856
0.0
-0.14418
0.0905644
0.0
-0.0
0.0622591
-0.0412742
-0.13509
-0.0493084
0.0872055
0.054641
0.0
0.0963152
0.0572075
-0.108931
-0.0
0.0
0.0857086
0.0299227
-0.0588706
-0.0299812
0.0
0.0
0.0
0.0670734
-0.0
0.072902
0.0556181
-0.0759029
-0.204741
0.0650976
-0.119048
0.0
0.0298932
-0.0
0.0636856
0.0
-0.141551
-0.0
0.0
0.0
0.0525739
0.0945416
0.0553524
-0.0694342
0.0
0.0802783
0.0520483
0.0297529
-0.137196
-0.0514163
0.0
0.0
0.0
0.0521195
-0.0
0.0639257
0.0
-0.0607519
-0.14482
-0.0
-0.0868437
0.0
0.0297965
-0.0803649
0.052685
0.0
-0.217218
-0.0
0.0
0.0
-0.0
0.0632847
0.067493
-0.0664465
0.0733931
0.0800271
0.0297463
0.0
-0.105141
-0.0
0.0
0.0
-0.0298847
0.0713076
0.0
0.121208
0.0297191
-0.0769049
-0.0680964
0.0
0.0
0.0
0.0
-0.0942718
-0.0
0.029768
-0.175622
-0.0669198
0.0
0.0
0.0
0.0840688
0.0703783
-0.0852712
0.0
0.0517348
0.029896
0.0
-0.113005
-0.0
0.0
0.0600879
-0.0747676
0.0
0.0
0.152007
0.075398
-0.129249
-0.0
0.0646944
0.0396341
-0.0298327
-0.0346476
-0.0513453
-0.0646008
0.0674744
-0.141423
-0.0834267
0.0
0.0
0.090515
0.113275
0.0
-0.0905123
-0.0
0.0
0.0973037
-0.0579273
-0.0913543
-0.0
-0.045902
-0.131098
-0.1147
-0.029782
0.0
0.0905968
0.121579
-0.123352
0.0923487
-0.0297683
0.0824162
-0.0510308
0.0
-0.06632
-0.0298108
0.114386
-0.111783
-0.0297942
0.0
0.0
0.0
0.157347
-0.0627476
0.0
-0.0
0.0
0.0297371
0.0
-0.0640588
-0.0
-0.0667125
-0.339962
-0.0
-0.0
-0.0370817
-0.0468998
0.0465695
-0.0
0.102539
-0.192433
0.140612
-0.0350214
-0.0876444
-0.0979045
0.150792
0.0603586
-0.0814952
0.0
0.0
-0.0432443
0.0
0.0944618
-0.0554259
0.159984
0.0957142
0.156662
0.0
0.0
-0.0962042
-0.0299209
-0.134189
-0.300236
0.0820051
-0.0298583
-0.0644938
-0.103716
0.10695
0.0565333
0.115444
-0.295955
0.0701456
0.104833
-0.127321
-0.0836073
0.128434
0.110205
-0.0609559
0.14828
0.0
-0.087838
-0.0
0.0
-0.0729262
0.146031
0.0753858
0.0876756
0.0665799
0.0732765
-0.104707
-0.0299689
-0.108881
-0.104565
0.0873251
-0.0790095
-0.0644946
-0.0594483
0.0725249
0.0674445
0.0
-0.180687
-0.0
0.0954868
-0.0899479
-0.0434538
0.156554
0.0538233
-0.0
0.17042
0.0946033
-0.0588302
-0.0504776
0.0
-0.0861523
0.0901326
-0.0
0.0
0.0626193
0.0295326
-0.0922093
0.0
0.0298638
-0.0
0.0
-0.109099
-0.0950119
-0.084526
0.0
0.0
0.0
-0.0593301
-0.0
0.0630061
0.0298195
0.0
0.130651
-0.0
0.0
0.0297983
0.0
0.0545673
-0.0683587
0.0
-0.103938
-0.0298843
-0.0
-0.0
0.11562
0.0864319
-0.110108
0.0
0.0653473
-0.0392508
-0.0687214
-0.0888868
-0.0626046
0.0
0.0
-0.069798
0.0
-0.0493816
-0.0
0.071105
0.0812963
0.0
0.13259
-0.0309728
0.0557158
0.0
0.0510753
0.108119
-0.0559964
0.0887548
-0.0297185
-0.060672
0.061301
-0.0387435
0.0975333
0.120311
-0.0733752
0.0332703
0.166715
-0.0410009
-0.0555943
-0.0436769
-0.0495961
0.041181
0.0
-0.0298548
-0.0
-0.0801091
-0.0295249
0.0
0.147935
0.0301482
0.0750468
0.0
0.0730023
-0.163387
0.0
0.157357
-0.0706263
0.0948894
0.0
-0.0731683
0.0373209
-0.067068
0.0
0.0867491
0.0
0.0464387
0.110081
-0.0
-0.0428199
-0.0409909
-0.0
-0.0
-0.068691
0.0916416
-0.0
-0.0396263
-0.0
0.0
0.104125
0.0295051
0.0926325
-0.0809127
0.0941393
-0.108844
0.0
0.0799196
-0.0721118
0.0
0.0
-0.0811202
0.0
-0.08523
0.0799161
0.0299653
0.0450528
0.0817046
0.11539
0.0314766
-0.0477437
0.0298292
-0.0869002
0.0
-0.0436906
0.0993761
0.0
-0.0
0.0
0.0470885
0.0865346
0.0
0.0767406
0.0
0.071579
-0.0775988
0.0
0.0933001
-0.0
0.029846
0.0
-0.120877
0.0
-0.106193
0.045222
0.0
0.0
0.138117
0.0783719
0.0318186
-0.0644859
0.0364271
-0.0
0.0298065
-0.0
0.103128
-0.0710799
0.0
0.0702876
-0.0
0.0731177
0.048056
0.0310158
0.0
0.0513577
-0.0500594
-0.0
0.0633016
0.0422947
0.0
0.0425754
-0.0861538
-0.029895
-0.0902933
0.0450734
0.0
0.0
0.128449
0.0
0.0
-0.0404117
0.0
0.0299954
0.0839034
0.0
0.095129
-0.0474803
0.0
0.0364906
0.0
0.0
0.0556658
0.0
0.0299356
0.0567148
-0.0
0.0
0.0
0.0332824
0.0453978
0.0
-0.0635877
-0.029956
-0.0915021
0.0621259
0.0
0.0
0.094766
-0.0
0.029612
-0.0525633
0.0
0.0
0.145159
0.0539901
0.0
-0.0860996
0.0
0.0
0.0
0.0
-0.0
0.0
0.0
0.0491473
-0.0
-0.0298852
0.0
0.0562826
0.0753405
0.0299989
-0.0630651
-0.0518463
-0.049622
0.0612938
-0.0510732
0.0628769
0.0554002
-0.0452071
0.0521491
-0.0487727
0.0447815
0.0
0.109629
0.0754272
-0.0
-0.0560011
0.0827222
-0.0
-0.0
-0.0672257
-0.06934
-0.0
0.0592458
0.0684974
-0.0
0.0
-0.0540291
0.0621034
0.0518131
0.0
-0.0
-0.0357977
0.0557919
0.0435772
-0.0800224
0.0
0.0
-0.0828207
0.0
0.0
0.0
0.0
0.0628046
0.0888754
-0.0
0.0
0.0452982
-0.0
0.0447839
-0.0987363
-0.0533173
-0.044469
0.0833145
0.0708241
-0.0
0.0979651
-0.084363
0.0364923
0.0433743
-0.0
-0.0
-0.0
0.0725456
0.0
-0.0577161
-0.0
0.0
-0.0531934
-0.0
0.0
-0.0
0.0
0.0
0.0600649
0.0
0.0
-0.0
-0.0
0.0565831
-0.0559941
-0.0
-0.0409391
0.0491965
0.0473854
0.0
0.10029
-0.0480058
-0.0
0.0340053
0.0
-0.0
-0.0
0.0
0.0
-0.0
0.0
-0.0
-0.0
0.0
0.0
0.0
-0.0
-0.0
0.0
-0.0
0.0
-0.0
-0.0
0.0
-0.0
-0.0
-0.0
0.0
0.0
-0.0
0.0
-0.0
-0.0
0.0
0.0
-0.0
-0.0
0.0
0.0
-0.0
-0.0
-0.0
-0.0
0.0
-0.0
-0.0
-0.0
0.0
0.0
-0.0
0.0
0.0
0.0
-0.0
-0.0
0.0
-0.0
-0.0
-0.0
-0.0
0.0
0.0
-0.0
-0.0
-0.0
-0.0
-0.0
0.0
-0.0
0.0
0.0
-0.0
0.0
0.0
0.0
-0.0
-0.0
-0.0
0.0
0.0
0.0
0.0
0.0
0.0
0.0
-0.0
0.0
0.0
0.0
0.0
0.0
-0.0
-0.0
-0.0
-0.0
-0.0
0.0
-0.0
0.0
-0.0
0.0
-0.0
-0.0
0.0
-0.0
-0.0
-0.0
-0.0
-0.0
-0.0
0.0
-0.0
-0.0
0.0
0.0
0.0
-0.0
-0.0
-0.0
-0.0
-0.0
-0.0
-0.0
0.0
-0.0
0.0
0.0
0.0
-0.0
-0.0
0.0
0.0
-0.0
-0.0
0.0
-0.0
0.0
0.0
-0.0
0.0
-0.0
0.0
0.0
0.0
0.0
-0.0
-0.0
0.0
0.0
0.0
0.0
-0.0
0.0
0.0
0.0
0.0364173
-0.0
0.0
0.0
-0.0
0.0
0.0
-0.0
-0.0
0.0
0.0
-0.0528026
-0.0
-0.0
0.0
-0.0
-0.0
0.0
0.0558853
-0.0
-0.0
-0.0
0.0
-0.0
-0.0
0.0398698
-0.0
-0.0
0.0
0.0744986
0.0
-0.0357404
0.0
-0.0
-0.0
0.0492945
-0.0440259
-0.0
0.0
-0.0
0.0
-0.0514693
-0.0
-0.0
-0.0
-0.0531833
0.0
-0.041108
0.0831209
-0.0
-0.0
0.0
-0.0357931
-0.0525902
-0.0
-0.0
0.0
0.0
0.0
0.133476
-0.0436478
-0.071395
0.0313145
0.0
-0.0
0.0
-0.119324
0.0
0.0
-0.0389181
0.0298878
0.0
0.0540623
0.0411933
-0.0499752
-0.119082
0.0299106
-0.137433
0.0840053
0.0
-0.0653921
0.0
-0.0
-0.117985
-0.0341317
0.0
0.0
0.0
0.0516872
0.0659153
-0.0600932
-0.0827092
0.0652191
0.0435748
0.0
-0.0639623
-0.140603
-0.0
-0.0
0.0
0.0
0.0
0.0675841
0.0928351
-0.0667172
-0.101324
-0.0
-0.207926
0.0975626
0.0
-0.0442224
0.0485418
0.0
-0.135321
-0.0769512
0.126806
0.0
-0.0867078
0.0607801
-0.0
-0.0763346
-0.0
0.0833601
0.0510693
0.0298732
-0.142755
-0.103022
0.0874706
-0.0
0.0
-0.079774
0.0
0.0618177
0.056949
-0.0883439
-0.0
0.0
-0.276419
0.0
0.0705566
-0.0
0.0514853
0.0299116
-0.0976676
-0.0657536
0.0
0.105509
-0.105825
0.0482401
0.046427
-0.0450252
0.0
0.0627353
0.0
0.0351385
-0.179231
-0.0654629
0.0669235
0.0369813
0.0
-0.038524
0.0297414
0.0415741
0.0
-0.0652989
-0.0
0.0
-0.286741
-0.0
0.0874857
-0.0
-0.0
0.0306155
-0.104572
-0.0425086
0.0
0.0959382
-0.0585499
0.0
0.0
0.0
0.0
0.0
0.0297675
-0.0
-0.212056
-0.037458
-0.0349275
0.0
-0.0297988
-0.0299859
0.0374536
0.0930927
0.0521978
-0.1077
0.0429028
0.0577554
-0.213899
-0.0
0.0
-0.0297271
-0.0801835
0.0652348
-0.0650598
-0.0323654
0.0
-0.0
-0.0
0.0363916
0.0
0.0
0.101762
0.0
0.0297868
-0.0619658
-0.176438
-0.0
-0.0504901
-0.0
-0.0297828
-0.0297309
0.0
0.100319
0.118784
-0.15545
0.0538733
0.0
-0.0993302
-0.0297202
-0.0
-0.0
-0.0936169
0.119328
-0.09278
-0.0
0.0
-0.0297185
0.0
0.0833108
0.0
0.0
0.0
0.0
0.062746
0.0
-0.146785
-0.0
-0.0432478
-0.267096
-0.0720203
-0.0297999
0.0
0.0894755
0.134581
-0.1944
0.093025
-0.0820576
-0.0
-0.07135
-0.0
-0.0
-0.0
0.149688
-0.0546699
0.0
0.0
-0.0
0.0
0.127827
-0.0
0.0430937
-0.0
-0.0334633
-0.0296785
0.0
-0.132409
0.0601485
-0.0
-0.388862
-0.0
-0.0
-0.0503569
-0.0799191
0.0348229
-0.196048
0.0919089
-0.326587
0.0634153
-0.0616025
-0.0459579
-0.029732
0.069733
0.0497116
-0.0
-0.0
0.0
-0.0
0.100966
0.0
-0.0577823
0.126717
0.0
0.0861878
0.0
0.0464998
-0.14094
-0.0
-0.0680952
-0.255961
0.0299541
-0.029607
-0.0542376
-0.118976
0.0955034
0.0
0.0
-0.311452
0.0922949
0.0416094
-0.0684368
-0.0956996
0.151233
0.12171
-0.0
0.110888
0.0839821
-0.0313218
0.0879779
0.0299476
-0.0720081
0.0912814
0.0
0.109831
0.103746
0.123171
-0.105692
-0.0381195
-0.0
-0.0675775
0.0338479
-0.0816559
-0.0818136
0.0
0.0554856
0.0297023
0.0667877
-0.134316
-0.0
0.0323068
-0.0
-0.0933954
0.260163
0.0929598
-0.0
0.177626
0.0
-0.0
-0.0298722
0.0924567
-0.0780069
-0.0
-0.0391664
0.0
0.157877
0.071657
-0.109887
0.0
0.0866246
-0.0306005
-0.0763502
-0.142349
-0.0694835
0.050618
0.0
-0.127046
0.0837667
-0.0697669
-0.0
-0.036443
0.0595002
0.0
0.126927
0.0
0.0857977
-0.0
-0.0
0.112649
-0.115506
0.0967551
-0.0655909
-0.0297317
-0.0
-0.0
0.0978796
0.0543845
-0.0778493
0.0
0.0732283
-0.0472418
-0.0780934
-0.0582873
-0.0
0.0450377
0.0
-0.0972892
0.0728187
-0.0531269
0.0
0.0
0.140564
0.0
0.106346
-0.0
0.0848861
-0.0687517
0.0465644
0.0997112
-0.0710622
0.115044
0.0
-0.0761838
0.0
-0.0
0.088783
0.0297911
-0.0297491
0.0298364
0.0925359
-0.0296865
-0.0299701
-0.0
-0.0
-0.0
-0.0
-0.0
0.0
-0.0609655
0.0
0.0579882
0.123236
0.0295501
0.078988
-0.0
0.0967272
-0.178707
0.029981
0.119051
-0.0298255
0.0932176
0.0928681
0.0
0.0
-0.0633698
0.0835388
0.0
0.0602898
0.0905738
0.0378344
0.0
-0.0
0.0298382
-0.0879953
0.0617299
0.0
0.0
-0.0
-0.0
0.0
0.0
0.0
0.0
0.082675
0.0
0.0827911
-0.112367
0.0
0.0637413
0.0
0.0784628
0.0
-0.0
-0.0
-0.0841664
0.0757314
0.0
0.0799602
0.0942972
0.0392798
0.0
-0.0377947
0.045791
0.0
0.104573
0.0298692
0.0913755
-0.056351
-0.0297446
0.0666327
-0.0
0.0
0.0
0.0888551
0.0336048
0.101015
-0.0688162
0.0
0.0
0.0298927
0.0816351
0.0
-0.0545291
0.0
-0.100058
0.107057
0.0
0.0561528
0.102495
0.0603309
-0.0
-0.054856
0.0501099
-0.0
0.104983
0.0
0.0945236
-0.0684758
-0.0
0.0635513
0.0
0.0803277
0.0
0.0335229
0.0
0.0680954
-0.0478222
0.0
0.114685
0.0299227
0.0929266
0.0
-0.0
0.0
-0.0
0.0937374
-0.043272
-0.0
0.150925
0.0
0.0
-0.0431293
0.0
0.0
0.133554
0.0413537
0.153692
-0.0
0.0
0.062463
-0.0
0.0510505
-0.0
0.0
0.0
0.0848594
-0.0
0.0645145
0.0940435
0.0531676
0.106158
0.0
0.0
-0.0
0.0
0.0
-0.0848057
0.0
0.14415
-0.0673001
0.0342486
-0.0
0.0
0.0298478
0.0913593
0.0
0.106425
-0.0539383
0.0
0.074206
0.0
-0.0299297
-0.0782064
-0.0383056
0.0
0.0834174
-0.0
0.0
-0.0
0.0576642
0.0348083
-0.0
-0.0
-0.0684318
0.0456039
0.0
-0.0960236
0.044299
0.0876002
-0.0928193
0.0408239
0.0
0.0
0.0
0.0447919
0.0
0.0
0.0
0.0371412
0.0
0.0447055
-0.0522591
-0.0972219
-0.0379164
0.0
0.126592
-0.0
0.0744293
-0.0465282
0.0705443
0.0
0.0
-0.0
-0.0627935
0.0947678
0.0405289
-0.0946817
0.0
0.0405001
-0.0722639
0.0
0.0466698
0.0
0.0395054
0.0
0.0999435
-0.0
0.0349682
0.034938
0.0
0.0795483
-0.0529441
-0.0662057
-0.0
0.109757
0.0963416
-0.0
0.112787
-0.0646033
0.0
0.0434703
0.0
-0.0
-0.0
0.0988766
0.0485197
-0.0580325
-0.0
-0.0
-0.0484064
-0.0
0.0
0.0
0.030932
0.0
0.0841065
-0.0
0.0482039
-0.0
-0.0
0.071815
-0.0325815
-0.0355371
-0.0390412
0.0811455
0.0780323
-0.0
0.0942454
-0.0348255
-0.0
0.0442076
0.0
0.0
-0.0
0.0
0.0
-0.0363545
-0.0
-0.0
-0.0
-0.0
0.0
0.0
0.0
-0.0
0.036686
-0.0
0.0
0.0
-0.0
0.0
-0.0
-0.0
-0.031343
0.0
0.0410952
-0.0
0.0
-0.0
-0.0
0.0
0.0
0.0
0.0
-0.0
-0.0
-0.0
0.0
-0.0
-0.0
0.0
-0.0
0.0
0.0
-0.0
0.0
-0.0
0.0
0.0
-0.0
0.0
-0.0
0.0
-0.0
-0.0
-0.0
0.0
0.0
-0.0
-0.0
0.0
0.0
0.0
0.0
-0.0
-0.0
-0.0
-0.0
0.0
-0.0
-0.0
-0.0
0.0
-0.0
-0.0
0.0
-0.0
-0.0
0.0
0.0
-0.0
-0.0
0.0
0.0
-0.0
0.0
0.0
0.0
0.0
-0.0
0.0
0.0
-0.0
0.0
-0.0
0.0
0.0
-0.0
0.0
-0.0
0.0
0.0
-0.0
0.0
-0.0
-0.0
-0.0
-0.0
0.0
0.0
0.0
0.0
0.0
0.0
0.0
0.0
0.0
0.0
-0.0
-0.0
-0.0
-0.0
0.0
-0.0
-0.0
0.0
-0.0
0.0
0.0
-0.0
-0.0
0.0
0.0
-0.0
-0.0
0.0
0.0
0.0
0.0
0.0
0.0
0.0
-0.0
0.0
0.0
0.0
0.0
0.0
0.0
-0.0
0.0
0.0
0.0429081
0.0
0.0
-0.0
-0.0
0.0
0.0306215
-0.0
-0.0
0.0
0.0
-0.0438258
-0.034041
0.0
0.0
0.0
-0.0
0.0356543
0.0738177
-0.0
-0.036673
-0.0
-0.0
0.0
-0.0
0.0724194
-0.0
0.0
0.0
0.0669864
0.0563364
0.0
0.0632101
-0.0
-0.042712
0.0
0.0
-0.0
0.0
0.0
0.0546739
0.0
-0.0397069
0.0
0.0
0.0
0.0
0.0
0.11386
-0.0
-0.0404259
-0.0
-0.0
0.0
-0.0
0.0921676
-0.0
0.0
-0.0
0.116565
-0.0
-0.101828
0.0397517
-0.0435751
-0.0665124
0.0527044
-0.125936
0.0
0.0353077
-0.0
0.0298857
0.06894
0.0
0.0538249
-0.0393921
-0.0684179
0.0402079
-0.116519
0.0553339
0.0
-0.079369
-0.0
-0.0
-0.0659412
-0.0667395
0.062683
-0.0299134
-0.0548867
-0.0
0.0686736
0.0
-0.139236
0.0
0.0
-0.0878128
0.0
-0.153218
-0.0
0.0
-0.0
0.0
0.0299256
0.0392254
0.0682623
-0.0678441
-0.0759587
0.0
-0.114381
-0.0
0.0
-0.0773111
-0.0843129
0.0
-0.0833924
-0.116198
0.0
-0.0
-0.108951
0.0
-0.0
0.0
-0.128321
0.0745858
0.0299752
-0.0767915
-0.0419269
-0.172661
0.0513541
-0.0
0.0
-0.147289
-0.0
0.0411587
0.0
-0.0758437
0.0
0.0
-0.213727
-0.0
0.0735412
-0.0
0.0
0.0
-0.0728437
-0.100395
0.0
0.0
-0.183374
0.0
-0.0
-0.0501797
-0.0830596
0.0
0.0299667
0.0
-0.0600501
-0.186573
0.0
0.0298447
0.0
-0.128965
0.0
0.036883
0.043134
-0.0932348
0.0298999
0.0347578
-0.364969
-0.0
0.0560368
0.0
-0.0
0.0652287
-0.0684018
-0.0726145
0.0
0.0
-0.174345
0.0583248
0.0
0.0
-0.0396644
-0.044775
0.0298489
-0.0645207
-0.117161
-0.229227
-0.0
0.0299871
-0.04163
-0.132529
0.0
0.0667234
0.0512217
-0.162205
0.0341082
0.0296954
-0.44736
-0.0298349
0.0
0.0
-0.0777898
0.0344804
-0.0409147
-0.0295106
0.0
-0.0297762
-0.154434
0.0538696
0.0
0.0
-0.0298982
0.0808395
0.0295822
0.0
-0.107241
-0.196833
-0.0329232
-0.0587427
0.0
-0.0802565
0.0734367
0.0694117
0.109319
-0.186686
0.0
0.0451385
-0.462849
-0.0298528
-0.0
-0.0
-0.0543906
0.103273
-0.0577678
0.0691614
-0.0296188
-0.0297832
-0.117128
0.0848664
-0.0
0.0
-0.0
-0.0
0.0
-0.0563116
-0.173343
-0.137321
-0.0570822
-0.280321
-0.0458195
-0.092315
0.0
-0.0
0.0834322
-0.262739
0.064259
-0.152218
-0.409953
-0.0681192
-0.0
-0.0298495
-0.0476688
0.103421
-0.0297834
0.0
0.0
-0.029766
-0.095617
0.0469072
-0.0
0.0426269
0.0
0.0539551
-0.0871876
-0.0
-0.187495
-0.0883106
-0.0
-0.322055
-0.0
-0.0748438
-0.0385515
-0.141923
0.0589882
-0.24035
0.0797036
-0.337177
-0.322696
-0.062486
-0.0544079
-0.0295362
0.0
0.0518848
-0.0
-0.0
0.0
0.0
-0.057385
-0.0743846
-0.0461277
0.052562
0.0326214
0.15749
0.0
0.0853091
-0.175457
-0.0976152
0.0
-0.105302
0.0297317
-0.0924365
-0.0621553
-0.0803787
0.10625
-0.112359
0.101638
-0.23303
-0.199546
0.0295941
-0.0
-0.0336679
0.0899146
0.123872
0.0
0.146808
0.0771753
0.0
-0.067464
0.0
-0.0420034
0.0
-0.0
0.152172
0.13971
0.0850994
-0.125072
-0.0973465
0.0322106
-0.0461507
0.0
-0.126162
-0.103772
0.0
0.0296832
-0.0756538
0.0295604
-0.0818579
-0.119503
0.0310081
0.0295949
-0.0387378
0.140135
0.0664572
0.0
0.127916
0.0702181
0.0737075
-0.102882
0.0791123
-0.0882426
-0.0570078
-0.0385149
0.0866559
0.119849
0.0574605
-0.0905187
-0.048613
0.0665709
-0.046988
-0.0685034
-0.160456
-0.0948934
0.0631424
0.0
-0.146246
0.0
-0.0745071
-0.0390872
0.0
0.093813
0.0
0.0
0.0
0.0
-0.0860007
0.0664422
0.142599
-0.120433
0.0908254
-0.0
-0.0298063
-0.0
-0.0443358
0.0754068
0.0
0.0
0.0
0.0434794
-0.0803678
-0.0681676
-0.0457922
-0.0780101
0.0549874
0.0298076
-0.105027
0.0
-0.0528255
0.0
0.0
0.0649273
0.0
0.0
0.0
0.0
-0.144453
0.038906
0.0858292
-0.07109
0.0759106
0.0822245
0.0
0.0
-0.0538283
0.055942
-0.0
0.0
0.0644398
0.0
-0.038154
0.0
0.0
-0.0
0.084495
-0.0
0.0
0.0
-0.0
0.0
0.0
0.0
0.0
-0.0
-0.0
0.0532587
-0.163511
0.0
