3
784
10
10
10
10
10
0.67197
-0.089703
0.425784
0.400896
0.783657
0.540272
0.104765
-0.404862
0.471616
0.370264
0.0
-0.0
-0.0
0.0
-0.0
-0.0
-0.0
0.0
0.0
-0.0
0.0
0.0
0.0
-0.0
0.0
0.0
-0.0
0.0
-0.0
-0.0
0.0
0.0
0.0
0.0
0.0
-0.0
-0.0
-0.0
0.0
-0.0
0.0
-0.0
0.0
0.0
0.0
0.0
0.0
0.0
0.0
0.0
-0.0
0.0
0.0
-0.0
0.0
-0.0
-0.0
0.0
0.0
-0.0
0.0
-0.0
0.0
0.0
-0.0
0.0
0.0
-0.0
0.0
-0.0
-0.0
0.0
0.0
-0.0
-0.0
-0.0
0.0
-0.0
0.0
-0.0
0.0
0.0
-0.0
-0.0
0.0
0.0
0.0
0.0
0.0
-0.0
-0.0
0.0
-0.0
0.0
-0.0
-0.0
0.0
-0.0
-0.0
0.0
-0.0
0.0
-0.0
0.0
-0.0
0.0
-0.0
0.0
-0.0
-0.0
-0.0
0.0
0.0
-0.0
0.0
0.0
0.0
-0.0
0.0
-0.0
-0.0
-0.0
-0.0
0.0
-0.0
-0.0
-0.0
0.0
-0.0
0.0
0.0
-0.0
-0.0
0.0
-0.0
0.0
-0.0
0.0
0.0
0.0
-0.0
-0.0
-0.0
-0.0
-0.0
-0.0
0.0
0.0
0.0
-0.0
-0.0
0.0
0.0
-0.0
0.0
-0.0
0.0
0.0
-0.0
-0.0
0.0
0.0
-0.0
0.0
-0.0
0.0
0.0
0.0
-0.0
0.0
-0.0
0.0
-0.0
-0.0
-0.0
0.0
0.0
0.0
0.0
-0.0
-0.0
-0.0
0.0
-0.0
-0.0
-0.0
-0.0
-0.0
0.0
-0.0
0.0
-0.0
-0.0
-0.0
0.0
-0.0
0.0
0.0
0.0
0.0
0.0
-0.0
-0.0
0.0
0.0
-0.0
-0.0
0.0
0.0
-0.0
-0.0
0.0
-0.0
0.0
-0.0
-0.0
0.0
0.0
-0.0
0.0
-0.0
-0.0
-0.0
-0.0
0.0
-0.0
0.0
0.0
0.0
-0.0
0.0
-0.0
0.0
-0.0
-0.0
-0.0
-0.0
-0.0
0.0
0.0
0.0
-0.0
-0.0
0.0
-0.0
0.0
0.0
0.0
0.0
-0.0
-0.0
0.0
0.0
0.0
-0.0
0.0
-0.0
0.0
-0.0
-0.0
-0.0
0.0
0.0
-0.0
0.0
0.0
0.0
0.0
-0.0
0.0
-0.0
0.0
0.0
-0.0
-0.0
-0.0
0.0
-0.0
0.0
-0.0
0.0
0.0
-0.0
-0.0
-0.0
0.0
-0.0
0.0
0.0
0.0
0.0
-0.0
-0.0
0.0
-0.0
-0.0
0.0
0.0
0.0
-0.0
0.0
0.0
-0.0
-0.0
-0.0
-0.0
0.0
0.0
0.0
0.0
0.0
-0.0
0.0
0.0
-0.0
0.0
-0.0
-0.0
-0.0
-0.0
-0.0
0.0
-0.0
0.0
-0.0
-0.0
-0.0
-0.0
0.0
0.0
0.0
-0.0
-0.0
0.0
-0.0
0.0
-0.0
-0.0
-0.0
-0.0
-0.0
-0.0
-0.0
0.0
0.0
0.0
0.0
0.0
0.0
-0.0
-0.0
0.0
-0.0
-0.0
0.0
-0.0
0.0
0.0
-0.0
-0.0
-0.0
-0.0
0.0
-0.0
-0.0
0.0
0.0
-0.0
-0.0
0.0
-0.0
-0.0
0.0
-0.0
0.0
-0.0
-0.0
0.0
-0.0
0.0
-0.0
0.0
0.0
-0.0
0.0
-0.0
-0.0
-0.0
-0.0
0.0
-0.0
0.0
0.0
-0.0
-0.0
0.0
-0.0
0.0
-0.0
0.0
-0.0
0.0
0.0
-0.0
-0.0
0.0
-0.0
0.0
-0.0
0.0
-0.0
0.0
0.0
-0.0446957
-0.0
0.0
0.0
0.0
-0.0381641
0.0
-0.0
0.0
0.0
-0.0
0.0
0.0
0.0
-0.0
-0.0
0.0
0.0
0.0
0.0
-0.0
-0.0
-0.0
0.0
0.0
0.0
0.0
0.0
0.0
0.0
-0.0
0.0
-0.0
0.0
0.0
-0.0
0.0
0.0
0.0
0.0
-0.0
0.0
0.0
0.0
0.0
-0.0
0.0
0.0
0.0
0.0
-0.0
-0.0
0.0
0.0
0.0
-0.0
0.0
-0.0
-0.0
0.0
-0.0
0.0
-0.0
0.0
-0.0
0.0
0.0
-0.0
-0.0
0.0
-0.0
0.0
0.0
-0.0
-0.0
0.0
0.0
-0.0
0.0
0.0
0.0
0.0
-0.0
0.0
-0.0
-0.0
0.0
0.0
0.0
0.0
-0.0
0.0
-0.0
-0.0
-0.0
0.0
0.0
-0.0
0.0
-0.0
0.0
-0.0
-0.0
0.0
0.0
-0.0
0.0
-0.0
-0.0
-0.0
0.0
0.0
-0.0
-0.0
-0.0
-0.0
0.0
-0.0
0.0
0.0
0.0
-0.0
0.0
-0.0
0.0
0.0
-0.0
-0.0
-0.0
-0.0
-0.0
0.0
0.0
0.0
-0.0
0.0
0.0
-0.0
-0.0
0.0
-0.0
-0.0
-0.0
0.0
0.0
-0.0
0.0
-0.0
-0.0
0.0
-0.0
0.0
-0.0
0.0
-0.0
0.0
0.0
-0.0
0.0
0.0
-0.0
0.0
-0.0
-0.0
0.0
0.0
0.0
-0.0
-0.0
-0.0
0.0
0.0
-0.0
-0.0
-0.0
-0.0
-0.0
-0.0
-0.0
-0.0
0.0
-0.0
-0.0
-0.0
0.0
-0.0
-0.0
-0.0
-0.0
-0.0
-0.0
-0.0
-0.0
-0.0
0.0
0.0
-0.0
0.0
-0.0
-0.0
-0.0
-0.0
0.0
-0.0
-0.0
0.0
0.0
0.0
0.0
-0.0
0.0
-0.0
0.0
-0.0
-0.0
0.0
-0.0
-0.0
-0.0
-0.0
0.0
-0.0
0.0
0.0
-0.0
-0.0
0.0
-0.0
0.0
0.0
-0.0
-0.0
0.0
0.0
-0.0
-0.0
0.0
-0.0
0.0
0.0
-0.0
-0.0
0.0
-0.0
0.0
-0.0412237
0.0411013
0.0
0.0
0.0453219
-0.0
-0.0
0.0
-0.0
-0.0
-0.0387991
0.0
-0.0
0.0
0.0824844
-0.0453771
-0.0
0.0
-0.0
0.0
-0.0579852
0.0887314
-0.0
0.0
0.104947
-0.0460162
-0.0
0.0364824
-0.0
0.0
-0.0661102
0.111561
0.0
0.0405976
0.128879
-0.0612961
-0.0
0.0336276
-0.0
-0.0
-0.0895598
0.153512
-0.0
0.0299369
0.136595
-0.0424332
-0.0
0.0299035
0.0
-0.0
-0.0818049
0.145267
0.0
0.0
0.128593
-0.0498474
0.0
0.0
0.0
-0.0
-0.0603586
0.135794
0.0
0.0
0.122021
-0.0474897
0.0
0.0
0.0
-0.0
-0.0508739
0.109931
-0.0
0.0404677
0.124899
-0.0532805
-0.0
0.0379769
-0.0
-0.0
-0.0638397
0.11835
-0.0
0.0401534
0.108919
-0.0
0.0
0.0
-0.0
-0.0
-0.0374184
0.0989244
-0.0
0.0343472
0.0914335
-0.0
-0.0
0.0
-0.0
-0.0
-0.0
0.0830369
-0.0
0.0
0.0837919
-0.0
-0.0
-0.0
-0.0
-0.0374066
-0.0
0.0
-0.0
0.0
0.0636797
0.0
-0.0
-0.0
-0.0
-0.0
-0.0
0.0
-0.0
0.0
0.0
-0.0
-0.0
-0.0
-0.0
-0.0
-0.0
0.0
0.0
0.0
0.0
-0.0
-0.0
-0.0
-0.0
0.0
-0.0
0.0
0.0
-0.0
0.0
0.0
-0.0
-0.0
0.0
-0.0
0.0
0.0
-0.0
0.0
0.0
-0.0
0.0
0.0
-0.0
0.0
-0.0
0.0
0.0
0.0
0.0
-0.0
-0.0
-0.0
-0.0
-0.0
-0.0
0.0
0.0
-0.0
0.0
-0.0
-0.0
-0.0
-0.0
-0.0
-0.0
-0.0
0.0
-0.0
-0.0
-0.0
-0.0
-0.0
0.0
0.0
-0.0
0.0
0.0
-0.0
-0.0
-0.0
-0.0
-0.0
0.0
0.0
-0.0
0.0
-0.0
-0.0
0.0
-0.0
0.0
-0.0
0.0
-0.0
-0.0
-0.0
-0.0
-0.0
0.0
-0.0
-0.0
0.0
0.0
-0.0
-0.0
0.0
0.0
-0.0
0.0
0.0
0.0
0.0
0.0
-0.0
0.0
0.0
-0.0
0.0
0.0
-0.0
-0.0
-0.0
0.0
-0.0
0.0
0.0
0.0
0.0
0.0
0.0
-0.0
0.0
0.0
-0.0
0.0
0.0
0.0
-0.0
0.0
-0.0
0.0
0.0
-0.0
-0.0
-0.0
0.0
-0.0
0.0
0.0367029
-0.0
-0.0
0.0
0.0
-0.0
-0.0
0.0
-0.0
-0.0
0.0539364
-0.045572
-0.0
0.0462264
-0.0
-0.0
-0.0602349
0.0506882
-0.0
0.0
0.0739605
-0.0433517
-0.0
0.0649397
-0.0
-0.0
-0.068996
0.0713068
-0.0
0.0
0.11582
-0.0854341
-0.0
0.101606
-0.0
-0.0
-0.0933424
0.0960531
-0.0703352
0.0
0.149428
-0.098928
-0.0629421
0.120593
-0.0
-0.0
-0.116901
0.109267
-0.0622334
0.029985
0.165844
-0.110618
-0.0624517
0.109985
-0.0
-0.0384879
-0.158994
0.13048
-0.0
0.0
0.212683
-0.127884
-0.0312051
0.107213
0.0
-0.038398
-0.190768
0.157973
-0.0430226
-0.0
0.211515
-0.128378
-0.0469873
0.0885284
-0.029932
-0.0460278
-0.169548
0.13561
-0.055946
0.0
0.212614
-0.138591
-0.0442228
0.0826465
0.0
-0.0753363
-0.185172
0.133198
-0.0585012
0.0299146
0.221021
-0.0815488
-0.0417714
0.0980765
-0.0338917
-0.0594278
-0.10716
0.138317
-0.0646615
0.0298092
0.226545
-0.0483193
-0.0
0.0
-0.0848677
-0.0688204
-0.0565291
0.122525
-0.103447
0.0
0.178922
-0.0
-0.0627434
0.0
-0.10851
-0.0908491
-0.0428606
0.115454
-0.0989426
0.0
0.148586
-0.0
-0.0658094
-0.0
-0.0835887
-0.0904727
-0.0
0.113314
-0.0864679
0.0
0.123401
-0.0
-0.0479016
-0.0
-0.0593163
-0.0566464
-0.0
0.110371
-0.0504731
0.0
0.0686892
0.0
-0.0408817
-0.0
-0.0
-0.0
-0.0
0.0828173
-0.0
0.0
-0.0
0.0
-0.0
-0.0948815
-0.0
-0.0
0.0
0.0
-0.0
-0.0
-0.0
0.0
-0.0
-0.0
0.0
0.0
0.0
0.0
-0.0
-0.0
0.0
0.0
0.0
0.0
0.0
-0.0
-0.0
0.0
-0.0
-0.0
0.0
0.0
0.0
0.0
0.0
-0.0
-0.0
0.0
-0.0
-0.0
0.0
-0.0
-0.0
-0.0
-0.0
-0.0
-0.0
-0.0
0.0
-0.0
0.0
0.0
0.0
0.0
0.0
-0.0
0.0
-0.0
0.0
-0.0
-0.0
-0.0
-0.0
-0.0
-0.0
-0.0
-0.0
-0.0
0.0
0.0
0.0
-0.0
-0.0
0.0
-0.0
0.0
0.0
-0.0
-0.0
-0.0
0.0
-0.0
0.0
0.0
0.0
0.0
-0.0
-0.0
0.0
-0.0
-0.0
0.0
-0.0
-0.0
0.0
-0.0
-0.0
0.0
-0.0
0.0
-0.0
-0.0
-0.0
-0.0
-0.0
0.0
0.0
0.0
-0.0
0.0
0.0
-0.0
-0.0
-0.0
-0.0
-0.0
-0.0
0.0
-0.0
-0.0
0.0
-0.0
-0.0
0.0
-0.0
-0.0
0.0
0.0
-0.0
-0.0
0.0
-0.0
-0.0
0.0
-0.0
-0.0
-0.0367766
0.0
-0.0
-0.0369659
0.0
-0.0541572
-0.032168
0.0
-0.0299925
-0.0530807
-0.0658825
0.0
-0.0525355
-0.0
0.0
-0.0850303
-0.0559251
0.0
-0.0363289
-0.0699119
-0.0748568
-0.0
-0.0603053
0.0
0.0
-0.0947246
-0.065603
0.0
-0.0
-0.0643026
-0.0795852
0.0
-0.0
0.0
0.0
-0.106046
-0.0
0.0
0.0
-0.0348677
-0.0822768
-0.0
0.0299449
0.0
0.0
-0.122927
0.0396945
0.164307
0.0592952
-0.0495881
-0.121115
0.0
0.0383841
-0.0298415
0.0
-0.159669
0.0422956
0.116156
0.099607
-0.0499496
-0.144031
0.0
0.0299228
0.0
-0.0
-0.198207
0.0
0.0
0.100009
-0.0298498
-0.182873
-0.0
0.0
0.0385173
0.0
-0.162444
0.0
0.0
0.0
-0.0
-0.169438
0.0
0.0297892
0.0299639
0.0
-0.0780721
0.0367674
-0.0
-0.0
-0.0740489
-0.0676646
-0.0
0.0297777
0.0532584
0.0
-0.0572988
0.0323419
-0.0
-0.0579677
-0.0827992
-0.0323415
-0.0
0.0299047
0.0380566
0.0298591
-0.0558898
0.0741109
-0.0
-0.0531973
-0.080899
-0.0
-0.0
0.0533576
-0.0506727
0.0
-0.0
0.119685
-0.0
0.0409356
-0.104261
0.0
-0.0
0.0654186
-0.0764286
0.0
0.0
0.0734666
-0.0
0.049897
-0.0758
0.0603405
-0.0
0.0905323
-0.0481931
0.0
0.0
0.0712846
-0.176646
0.0564448
-0.0511035
0.0530367
0.0
0.0657304
-0.0583611
-0.0299976
0.0
0.0
-0.155575
0.0
-0.0573984
0.0
-0.0627594
0.0
-0.0833366
-0.0555362
0.0
-0.0
-0.118014
-0.0
-0.0702123
0.0
-0.0718766
-0.0
-0.061418
-0.0376499
0.0
-0.0
-0.0622803
-0.0552483
-0.0456123
-0.0
-0.0508415
-0.0
-0.0
-0.0
0.0
-0.0
-0.0
-0.0
-0.0
0.0
-0.0
0.0
-0.0
0.0
0.0
-0.0
-0.0
0.0
0.0
0.0
-0.0
0.0
-0.0
0.0
-0.0
-0.0
-0.0
-0.0
0.0
-0.0
-0.0
0.0
0.0
0.0
0.0
-0.0
0.0
0.0
0.0
0.0
-0.0
0.0
-0.0
-0.0
-0.0
0.0
-0.0
0.0
0.0
0.0
0.0
-0.0
0.0
0.0
-0.0
-0.0
0.0
-0.0
0.0
0.0
0.0
-0.0
0.0
0.0
-0.0
0.0
0.0
-0.0
0.0
0.0
-0.0
0.0
-0.0
-0.0
-0.0
0.0
0.0
0.0
-0.0
0.0
-0.0
-0.0
-0.0400792
0.0
-0.0
-0.0
0.0
-0.0
-0.0
0.0
-0.0623502
-0.0
-0.0427572
-0.0443464
-0.0
-0.0
0.0
-0.0
-0.0497738
0.0
-0.0666103
-0.0
-0.0397675
0.0
0.0
-0.033469
0.0
-0.0472649
-0.0542587
0.0
-0.0454175
-0.0706564
-0.0328881
0.0
-0.0
-0.0624054
0.0
-0.0912734
-0.0731406
-0.0
-0.0
-0.112709
-0.0402251
0.0
-0.0488539
-0.10892
0.0
-0.107063
-0.111932
-0.0
-0.0
-0.178238
-0.0297186
0.0
-0.0613523
-0.151189
0.255661
-0.0333389
-0.07777
-0.0
0.0602006
-0.131408
-0.0297864
0.0
-0.0647166
-0.138598
0.186682
0.0624777
-0.0973643
-0.0297514
0.0
0.0
-0.0298931
0.0294486
-0.0787919
-0.0600144
0.112092
0.0578181
-0.0616863
-0.0293041
0.0297625
0.0
0.0796722
0.0296325
-0.126487
0.0
0.0785946
0.0465848
0.0
-0.0298055
0.0287899
0.0
0.149649
0.0
-0.116792
0.0
0.0773465
0.0296653
0.0560798
-0.0298761
0.0291326
0.0
0.155212
0.0
-0.108701
0.0
0.136185
0.066685
0.0306668
-0.0295154
0.0293191
-0.106856
0.15549
-0.0
-0.159117
-0.0712569
0.0
0.0
0.0442727
-0.073806
0.0
-0.165454
0.1294
-0.0
-0.140468
-0.0901686
-0.0
-0.127769
0.0299815
-0.0524511
-0.0
0.0
0.0817124
-0.0
-0.097595
0.0
-0.0
-0.0429784
0.0297401
-0.0299454
-0.0
0.0
0.0
0.0
-0.0
0.0472648
0.0
0.0
0.0
-0.0
0.0
0.0297792
-0.0386919
0.0
-0.0
0.0312422
0.0
0.0455537
-0.0
-0.0
-0.0
0.0660207
-0.0422048
-0.0298053
0.0
0.0299735
0.0
0.0930794
-0.0
0.0
-0.0509006
0.0474964
-0.0900224
-0.0621077
-0.0
0.0
-0.168105
0.0899117
-0.0430112
0.0852965
-0.124641
0.0
-0.11917
-0.103166
0.0
-0.0392846
-0.159919
0.0
-0.0911421
0.0734606
-0.152677
-0.0379491
-0.114671
-0.0552022
0.0299557
-0.0
-0.0906059
-0.0
-0.0843886
0.0
-0.109868
-0.0
-0.0460297
-0.0318809
0.0
-0.0
-0.0
-0.0411773
-0.0349768
0.0
-0.0430478
-0.0
-0.0
0.0
-0.0
-0.0
0.0
-0.0
-0.0
0.0
-0.0
0.0
0.0
-0.0
0.0
0.0
0.0
0.0
0.0
-0.0
-0.0
0.0
-0.0
0.0
-0.0
0.0
0.0
-0.0
-0.0
0.0
0.0
0.0
-0.0
0.0
-0.0
0.0
0.0
-0.0
0.0
-0.0
0.0
-0.0
-0.0
-0.0
-0.0
0.0
-0.0
0.0
0.0
-0.0
0.0
0.0
0.0
0.0
-0.0
0.0
0.0
-0.0
-0.0
-0.0
-0.0
0.0
0.0
0.0
-0.0
-0.0
0.0
0.0
-0.0
0.0
-0.0
0.0
-0.0362628
0.0
-0.0
-0.0
0.0
-0.0
-0.0368452
0.0
-0.0544553
-0.0
-0.0410493
0.0
0.0
-0.0
0.0
-0.0726267
-0.0476126
-0.0
-0.0563077
-0.0
-0.0342746
0.0
0.0
-0.0
0.0
-0.0917744
-0.0554405
0.0
-0.0
-0.0744341
-0.0366133
0.0
-0.0
-0.0619713
0.0
-0.138218
-0.103346
-0.0
0.0
-0.105613
-0.0844303
0.0
-0.0524897
-0.0969313
-0.0
-0.141982
-0.137665
-0.0
-0.0454314
-0.139814
-0.0672167
-0.0297107
-0.052201
-0.108473
0.0
-0.0966777
-0.0780028
-0.0297099
-0.0391193
-0.0902078
0.0
0.0
0.0
-0.0819052
0.0
0.0
-0.0298014
-0.0299535
-0.0730166
0.0
0.0725606
0.0
0.0
0.0
0.158382
-0.0451274
0.0
-0.0
-0.0
-0.0553865
0.0
0.0294773
0.0
-0.0984899
0.172335
-0.0818848
0.0
-0.0
0.0
-0.0296199
0.0
0.0
0.0
0.0
0.208989
-0.0730762
0.0
-0.0
0.0
-0.0294691
0.0770065
-0.0
0.0
0.0
0.0
-0.0898923
0.0
-0.0
0.0
0.0
0.0853218
0.0
0.0
0.0
0.0
-0.0414009
0.0294332
-0.135746
0.0
-0.0298948
0.115981
-0.0
-0.0
-0.0950001
-0.0274229
-0.107392
0.053623
-0.0
0.0285801
-0.0297536
0.0698227
0.0
0.0
-0.0639822
0.0
-0.0589803
0.0455985
-0.0
0.0291542
-0.124937
-0.0
-0.10419
-0.0835997
-0.0
-0.0
-0.0973401
0.0
-0.0410089
-0.11005
-0.145873
-0.0425915
-0.029384
-0.120259
-0.104816
0.0
-0.0
-0.0
-0.0295784
-0.0796986
0.0
0.0
-0.0299779
-0.0298814
-0.0823715
0.0
0.0
0.0
0.0
-0.0699847
-0.0949893
-0.0295927
-0.0839205
0.0
-0.0850458
-0.163509
0.0
0.0
0.0
-0.106595
-0.0816814
-0.162079
-0.155755
-0.0
-0.090367
-0.208672
-0.0
-0.0522681
0.0
-0.212982
-0.0674819
-0.166484
-0.0834328
0.0
-0.0596142
-0.110676
-0.0
-0.109491
0.0
-0.1476
-0.0
-0.082706
-0.0
-0.0
-0.0
-0.0
-0.0
-0.0702374
0.0
-0.052088
-0.0
-0.0333196
-0.0
-0.0
-0.0
0.0
0.0
-0.0366999
-0.0
0.0
0.0
-0.0
-0.0
-0.0
0.0
0.0
0.0
-0.0
-0.0
-0.0
0.0
0.0
0.0
0.0
0.0
-0.0
-0.0
0.0
0.0
0.0
0.0
-0.0
0.0
-0.0
0.0
0.0
0.0
0.0
0.0
0.0
0.0
0.0
0.0
0.0
0.0
-0.0
-0.0
0.0
0.0
0.0
0.0395874
-0.0
0.0
0.0
0.0
0.0
-0.0
-0.0
0.0
-0.0
0.0411893
-0.0
0.0
0.0
0.0
0.0
-0.0
-0.0
0.0
-0.0
0.0464241
-0.0370139
-0.0
0.0
0.0
0.0
-0.0
-0.0418469
0.0
-0.0505643
0.0525765
-0.0299301
0.0
0.0
0.0
0.0
-0.0850987
-0.040625
-0.0
0.0
0.029859
-0.0493001
-0.0
-0.0
0.0
0.0
-0.110823
-0.0868246
-0.0
-0.0
0.0
-0.0754624
-0.0298532
-0.0
0.0
-0.0
-0.16433
-0.139764
-0.0295046
-0.0296217
0.0298455
-0.0298059
0.0
0.0
0.0
-0.0
-0.170823
-0.0499274
0.0
0.0
-0.0
-0.0
-0.0600495
0.0
0.0
-0.0
-0.119212
0.0
0.0
-0.036252
0.0
0.0
-0.0702867
-0.0292889
-0.0802141
-0.0
0.0
0.0
-0.100233
-0.0638824
0.0901762
-0.0508562
0.0
0.14662
0.0296877
-0.0
0.0
-0.0
0.0
-0.15042
0.192064
-0.0364107
0.0
0.217048
0.0
0.186902
-0.0603247
-0.0
0.0
-0.0
0.0
0.0
0.0292233
0.296584
-0.110462
0.215052
-0.0784293
0.0
0.0
0.0
-0.029358
0.0579458
0.0
0.361594
-0.184458
0.0
-0.19763
0.0420686
0.0
0.0
-0.0297025
0.0543755
0.0
0.324582
0.0
-0.0277045
-0.0822392
0.0730259
0.029657
0.0
0.0
0.102106
0.0
0.223055
0.0295445
0.0
-0.0
0.158225
0.0293711
-0.0
0.100637
0.0961218
-0.0
0.0
-0.0
-0.0
-0.0798382
0.154215
0.0
-0.211943
0.067258
0.0298418
-0.0
0.0
0.0412701
-0.0
0.0
0.101681
0.0
-0.0
0.0
-0.0479885
-0.149181
0.0
0.0
-0.0289312
0.0
-0.053912
0.0
-0.174406
0.0
-0.0782211
-0.0821713
-0.120526
0.0
-0.0
-0.0
-0.0725207
0.0
-0.141674
0.0
-0.0752997
-0.0589079
0.0
-0.0469481
-0.0
-0.0
0.0
0.0
-0.111255
-0.108866
-0.157539
-0.153273
-0.0
-0.0818882
-0.214344
-0.0719923
-0.0412656
-0.0
-0.197342
-0.117549
-0.181058
-0.0910534
-0.072697
-0.093402
-0.138621
-0.119678
-0.112283
-0.0655278
-0.146902
-0.0685302
-0.0809298
-0.0
-0.0
-0.0608752
-0.0
-0.0642739
-0.0837139
-0.0503716
-0.0579745
-0.0
-0.0327046
-0.0
-0.0
-0.0
0.0
0.0
-0.0
-0.0
-0.0
-0.0
-0.0
0.0
-0.0
-0.0
0.0
0.0
0.0
0.0
0.0
-0.0
-0.0
0.0
-0.0
-0.0
0.0
-0.0
0.0
-0.0
0.0
0.0
0.0
0.0
-0.0
0.0
0.0
0.0
-0.0
0.0
-0.0
0.0
0.0
-0.0
0.0
0.0360864
0.0
0.0
-0.0
0.0
-0.0
0.065113
-0.0
-0.0
0.0339389
0.0555968
0.0
-0.0
-0.0
0.0
-0.0
0.0797616
-0.0409256
-0.0
0.0375569
0.067971
0.0
0.0
-0.0478644
0.0298805
-0.0
0.0812128
-0.0637382
-0.0298321
0.0
0.0423838
0.0
-0.0
-0.0707648
0.0
-0.0701875
0.0472074
-0.0494748
-0.0
0.0
0.0496261
0.0
-0.0682431
-0.0459499
-0.0
-0.0
0.0966837
-0.064928
-0.0
0.0
0.102613
0.0
-0.0844265
-0.0862126
-0.0
-0.0
0.0722636
-0.0298133
-0.0458908
0.0296769
0.0604632
-0.0
-0.138954
-0.0477218
0.0
0.0
0.044763
-0.0
0.0
0.0294797
0.0
0.0
-0.181162
-0.0
0.0
0.0
0.0
-0.0
0.0
0.0559806
0.0436582
0.0
-0.138036
-0.0298382
0.0
0.0
0.0
-0.0459248
-0.0590407
0.0868307
-0.0
0.0
-0.0434974
-0.0530508
0.0297585
0.0
0.165816
-0.0
-0.0780536
0.0916836
0.0296048
0.0
-0.0299696
-0.0
-0.0
-0.0772479
0.18204
-0.0587502
0.0
0.0
0.0
0.0
0.0
-0.0
0.0
-0.0
0.22019
-0.0
0.0294821
0.198587
0.0540394
0.142094
0.0
0.0730641
0.0
0.0293272
0.205029
0.0443408
0.0298818
0.163932
0.0653771
0.1609
-0.0678456
0.141869
-0.0
0.0295011
0.0
0.137852
0.0
0.118707
0.0299657
0.0
-0.0908835
0.182125
-0.140643
0.0294109
0.160926
0.111034
0.0
0.0
0.0833405
0.212118
0.0
0.14957
-0.0
0.0286002
0.118511
0.0806804
-0.0
0.0544847
0.0601614
0.0
-0.047045
0.132013
0.0421991
-0.204643
0.0
0.0
-0.0
0.0
0.0
-0.0
-0.076034
0.133287
0.0
-0.168737
0.0
0.0296797
-0.0
0.0
0.0
0.0
-0.0872618
0.0705984
0.0
0.0
0.0
-0.067458
-0.126307
0.0
-0.0299172
-0.0292315
-0.111922
-0.0646486
0.0
-0.164771
-0.0443818
-0.0733153
-0.0622532
-0.125422
-0.0299271
-0.0528987
-0.113756
-0.0
-0.0297526
-0.116115
-0.109695
-0.138913
-0.134196
-0.0873659
-0.0509608
-0.214576
-0.187181
0.0
-0.0526964
-0.196398
-0.177473
-0.191831
-0.163578
-0.110044
-0.126096
-0.180614
-0.191737
-0.108443
-0.103843
-0.196885
-0.0912078
-0.0959232
-0.0551652
-0.0767827
-0.0900142
-0.052692
-0.0836895
-0.058882
-0.0802416
-0.0865424
-0.0
-0.0
-0.0
-0.0
-0.0
0.0
-0.0
-0.0
-0.0
-0.0
-0.0
0.0
-0.0
-0.0
-0.0
0.0
0.0
-0.0
-0.0
0.0
-0.0
0.0
-0.0
0.0
0.0
-0.0
-0.0
0.0
0.0
0.0
0.0
-0.0
0.0
0.0
0.0
-0.0
-0.0
0.0
0.0
0.0
0.0455415
-0.0
0.0
0.0
0.0
0.0
-0.0
-0.0
0.0
0.0
0.0767068
-0.0
-0.0
0.0384612
0.0549451
0.0
0.0
-0.0319773
0.0
0.0
0.10502
-0.0425402
-0.0
0.0458626
0.0949393
0.0
-0.0
-0.0600096
0.0298805
-0.0
0.0865794
-0.0697359
-0.0
0.0298625
0.063042
-0.0
-0.0411893
-0.0653697
0.0298268
-0.029897
0.0842321
-0.0888081
-0.0299784
0.0297125
0.0817227
-0.0
-0.0506315
-0.0666893
0.0
-0.0413553
0.0729441
-0.046503
-0.0
0.0
0.0799844
0.0
-0.0692135
-0.0354677
-0.0
-0.0
0.0386723
-0.036224
-0.0570058
0.0296663
0.0
-0.0
-0.139097
-0.0453947
0.0
-0.0299066
0.129741
-0.0540457
-0.0762013
0.0293787
0.0747399
-0.0
-0.14176
-0.0
0.0
-0.0397331
0.0
-0.0296893
-0.045594
0.0929236
0.0
0.0
-0.112367
-0.0
0.0
0.0
0.0
-0.0864171
-0.0682546
0.053004
-0.0294874
0.0
-0.0643707
-0.0831343
0.0
-0.0
0.184137
-0.0657042
-0.0508077
0.0787769
0.044112
-0.241788
-0.0661042
-0.0464149
0.0297311
-0.037132
0.179341
-0.0595516
0.0
0.0806716
0.125385
-0.16144
-0.0299382
0.0
0.0
0.0
0.18995
-0.0475144
0.0665196
0.104681
0.197543
0.0
0.0830158
-0.0
0.0
0.0417297
0.180278
0.0
0.0292478
0.121394
0.172413
0.112628
0.0941689
-0.0
0.0
0.0295298
0.0825687
0.0
0.0
0.068103
0.120787
0.0
0.0
-0.0297232
0.0
0.0295832
0.111174
0.108975
-0.176733
0.0479423
0.133823
0.291785
-0.0
-0.0
0.070535
-0.119808
0.0291266
0.12287
-0.0
0.0298211
0.0291331
0.0
-0.108371
0.0
0.0344253
-0.141609
0.0
0.101703
-0.17104
0.0297033
0.0
-0.0
-0.13396
0.154453
0.0296466
-0.160031
-0.0295852
0.0
-0.0
0.0295341
-0.0298113
-0.028239
-0.158364
0.128277
0.0
-0.0
0.0
0.0299805
-0.123901
0.0
0.0
-0.0295457
-0.149749
0.0431263
0.0
0.0
-0.0298839
0.0
-0.0897927
-0.0879694
0.0
-0.0385874
-0.174747
0.0494271
-0.0713836
-0.148147
-0.140545
-0.063215
-0.125078
-0.143673
-0.111708
-0.159964
-0.179226
0.0947555
-0.124403
-0.209362
-0.137308
-0.156685
-0.133074
-0.144927
-0.125301
-0.133462
-0.134404
-0.06062
-0.16357
-0.183094
-0.069481
-0.0818067
-0.0519978
-0.0798233
-0.0808506
-0.0
-0.0495326
-0.0540516
-0.116886
-0.0956249
-0.0
-0.0
0.0
-0.0
-0.0
-0.0
0.0
-0.0
-0.0393279
-0.0
0.0
0.0
-0.0
0.0
-0.0
-0.0
0.0
0.0
-0.0
-0.0
0.0
-0.0
0.0
-0.0
0.0
-0.0
0.0
0.0
-0.0
-0.0
-0.0
-0.0
0.0
0.0
0.0
-0.0
-0.0
-0.0
0.0
0.0
0.0365163
-0.0
-0.0
0.0
0.0435251
0.0
0.0
-0.0
0.0
0.0
0.049213
-0.0
-0.0
0.0
0.0
0.0
-0.0
-0.0
0.0
0.0
0.102339
-0.0544805
-0.0511272
0.0299187
0.103782
0.0
-0.0
-0.0603877
0.0
-0.0398283
0.082683
-0.0707361
-0.0617037
0.0298959
0.0711101
-0.0401073
-0.0
-0.0608707
0.0
-0.0669221
0.0932171
-0.107136
-0.102873
0.0
0.0
-0.0931799
-0.0500163
-0.064255
0.0
-0.0825442
0.0768277
-0.109693
-0.14981
0.0296608
0.0
-0.139253
-0.0605888
-0.0412504
-0.0
-0.0954922
0.0
-0.0614598
-0.150439
0.0
-0.0
-0.161778
-0.110879
-0.0
-0.0
-0.0705133
0.0
-0.0627326
-0.116286
0.0586752
0.105948
-0.252085
-0.104098
-0.0
0.0298422
-0.0489774
0.0
-0.0987133
-0.109264
0.0656092
0.105091
-0.338269
-0.0714401
-0.0806499
0.0295878
-0.0438143
-0.0295638
-0.0893408
-0.0822716
0.0
-0.0295722
-0.352545
-0.0675023
-0.0344203
0.0
-0.0
-0.0299048
-0.0754712
-0.0605886
0.0323881
-0.0294698
-0.335138
-0.0707742
-0.0
0.0296328
-0.103388
0.0
-0.0618606
-0.0553883
0.0297849
0.118828
-0.253014
0.0
-0.0
-0.0295254
-0.123402
0.187444
-0.0727499
0.0
-0.0
0.245388
0.0
0.164506
-0.0297204
-0.17349
0.0
0.240914
-0.153077
0.0
0.0661158
0.240959
0.133221
0.229888
-0.0519418
0.0
0.0
0.103031
-0.0985165
0.0
0.0942061
0.15343
0.0
0.0649813
-0.0690999
0.0969125
-0.0
0.145381
0.0
0.0
0.064469
0.123755
0.0
0.0
-0.0297479
0.122747
0.0
0.0679507
0.217009
0.0
0.0407624
0.0509438
0.0
-0.0661019
0.0
0.0644316
-0.0
0.144889
0.0
-0.136938
0.0373447
0.0773127
-0.0279451
-0.112149
0.0565293
0.0391997
-0.113046
0.0
0.113994
0.0294785
0.0544708
-0.0
-0.0
-0.153862
0.168002
0.0297646
0.0294127
0.0979864
0.0739312
0.0
0.0
0.0
-0.0295937
-0.15874
0.101762
0.0
0.0
0.0
0.0637202
-0.0
-0.0
0.0
-0.0608868
-0.148298
0.122364
-0.0759608
-0.0
-0.104583
0.0297986
-0.0
-0.111102
-0.121114
-0.0945887
-0.132003
0.160278
-0.158546
-0.0
-0.100886
-0.0943138
-0.0678638
-0.143127
-0.125931
-0.0721251
-0.0814291
-0.0
-0.173556
-0.133432
-0.0495749
-0.103347
-0.05811
-0.0612057
-0.0574525
-0.0399
-0.0
-0.0574035
-0.0784126
-0.123268
-0.0
-0.0436149
-0.0
-0.0349701
-0.0
-0.0
0.0
-0.0
-0.0
-0.0
-0.0
-0.0
0.0
-0.0
-0.0
-0.0
-0.0
-0.0
-0.0
-0.0
-0.0
0.0
-0.0
-0.0
0.0
0.0
-0.0
-0.0
-0.0
0.0
0.0
-0.0
0.0
0.0
0.0
-0.0
-0.0
-0.0
0.0
-0.0
0.0432538
-0.0
-0.0
0.0
0.0
0.0
0.0
-0.0
0.0
0.0
0.0668511
-0.0
-0.0
0.0
0.0534942
0.0
0.0
-0.0
0.0
-0.0
0.097451
-0.0776765
-0.0698053
0.0298593
0.100785
-0.0629322
-0.0
-0.0793009
0.0
-0.0784457
0.0632584
-0.125027
-0.129664
0.0296603
0.0571997
-0.145217
-0.0
-0.0731566
0.0
-0.148431
0.0
-0.110055
-0.17665
0.0
-0.0
-0.244015
-0.0
-0.0377188
-0.0
-0.141872
0.0
-0.0978061
-0.200518
0.0603463
-0.0
-0.302218
-0.044026
0.0
0.0
-0.136947
-0.0297778
-0.0589566
-0.154144
0.0743892
-0.0
-0.328195
-0.0934386
-0.0
0.0296076
-0.110734
-0.0293306
-0.124753
-0.147746
0.0
-0.0
-0.374646
-0.134846
-0.0752889
0.0293675
-0.103924
0.0
-0.130127
-0.0950385
0.0398864
0.0
-0.364166
-0.132525
-0.0443407
0.0299923
-0.160556
-0.0297101
-0.144398
-0.0625155
0.040175
-0.0296641
-0.260731
-0.122351
-0.0
0.0537055
-0.171646
-0.0679944
-0.0753112
-0.0897898
0.0
-0.0522906
-0.230646
-0.107082
-0.0353588
0.0313914
-0.240597
-0.0700216
-0.0799266
-0.119919
-0.116221
-0.0298755
-0.190512
-0.0298114
-0.0661121
-0.142638
-0.243108
0.0773454
-0.226716
-0.136441
-0.073576
0.159736
-0.0
0.252626
-0.153722
-0.11982
-0.251068
0.0772551
-0.367146
-0.17298
0.119645
0.0949806
0.0
0.273989
-0.240999
0.109011
-0.227257
0.0
-0.32767
-0.107801
0.0970414
0.0
-0.0
0.0854725
-0.295074
0.143988
-0.0635615
0.116218
-0.087584
-0.0508423
0.104276
0.0644951
-0.0279005
0.0
-0.14885
0.166262
-0.0294487
0.151141
0.0
-0.0508479
0.120415
0.0921084
-0.0
-0.064408
-0.0
0.134106
-0.0298097
0.177529
0.118497
-0.0
0.120106
0.134422
0.0
-0.112989
0.0984095
0.0414548
0.0
0.164364
0.109893
0.0
0.14402
0.129058
0.0
-0.124525
0.153803
0.0396021
0.0297596
0.131535
0.0430562
0.0
0.128241
0.112256
-0.0298075
-0.0930509
0.0
0.0297506
0.0297395
0.0
0.035158
0.0
0.0487123
0.0
-0.0633873
-0.0664545
0.0812797
0.0
-0.0
-0.0547956
0.0318582
0.0299027
-0.103213
-0.0322369
-0.0
-0.0516913
0.10333
-0.149909
0.029667
-0.0618355
-0.0853563
-0.0
-0.126275
-0.0761966
-0.0
-0.0463098
-0.0
-0.134643
-0.11067
-0.0
-0.092559
-0.0521545
-0.0482965
-0.0369683
-0.0
-0.0
-0.068289
-0.053014
-0.10568
-0.0
-0.0465457
-0.0
-0.0
-0.0
0.0
-0.0
-0.0
-0.0
-0.0
0.0
0.0
0.0
-0.0
-0.0
0.0
0.0
0.0
-0.0
0.0
0.0
0.0
0.0
0.0
0.0
0.0
0.0
0.0
0.0
-0.0
0.0
0.0
0.0
0.0
0.0
-0.0
-0.0
0.0
0.0
-0.0
0.0421517
-0.0
0.0
0.0
0.0
-0.0
-0.0
0.0
0.0
-0.0
0.0597949
-0.0
-0.0
0.0423915
0.0435502
-0.0
-0.0
-0.0
0.0
-0.0
0.0809537
-0.0982694
-0.103863
0.0689378
0.0817138
-0.112959
-0.0
-0.0707022
0.0298631
-0.111581
0.0
-0.164107
-0.170439
0.0520614
0.0
-0.233848
-0.0
-0.10058
0.0
-0.188472
-0.0298753
-0.0
-0.128234
0.0
-0.0297172
-0.295969
-0.0
0.0
0.0
-0.137036
0.0
-0.0
-0.109678
0.0847872
0.0
-0.333646
-0.0
0.0
0.0299351
-0.139209
0.0
-0.0
0.0
0.0469177
0.0
-0.277631
-0.0920655
-0.0
0.0336998
-0.110656
0.0
-0.0
-0.0298138
-0.0
-0.0298
-0.254629
-0.148502
-0.0
0.0650966
-0.156942
-0.0294323
-0.0
-0.02996
-0.0
0.0
-0.145964
-0.216097
0.0
0.0726114
-0.224634
-0.120131
-0.112293
-0.0
0.0297301
-0.0713072
-0.0906779
-0.240527
-0.0
0.103814
-0.15246
-0.219229
-0.0
-0.0294645
-0.14388
-0.225633
-0.0560905
-0.0299547
-0.0
-0.0
-0.161178
-0.243158
-0.0619654
-0.0822151
-0.271542
-0.212072
-0.075825
0.0
-0.0676775
-0.208145
-0.207009
0.0
-0.3334
-0.0949339
-0.113569
0.0
0.0685008
0.30705
-0.236008
-0.122447
-0.203128
0.0
-0.42058
-0.112867
0.166277
-0.0897111
0.0
0.249824
-0.309547
0.106316
-0.123729
-0.0289648
-0.290379
-0.0295305
0.183737
0.0
-0.0288252
0.105907
-0.306559
0.139934
-0.0289459
0.0
-0.108906
-0.0296744
0.0948109
0.0
-0.0284555
0.0
-0.193294
0.132764
-0.029027
0.164576
-0.0299777
-0.0588691
0.130655
0.0745809
-0.0279982
-0.15156
-0.0
0.106725
-0.0298948
0.0
-0.0298077
-0.0473119
0.128374
0.0
0.0
-0.115491
0.0642309
0.0569052
-0.0
0.0
-0.0
0.0
0.107926
0.0628282
-0.0
-0.064643
0.0
0.0297972
0.0
0.0
-0.0
0.029939
0.113498
-0.0
-0.0
-0.0
-0.0
0.0457971
0.0
-0.0359424
0.0647691
0.0295854
0.0573015
-0.0
-0.0
-0.0
0.128104
0.0
0.0297453
-0.0765738
0.0685132
0.0439493
-0.0653632
-0.0
0.0
-0.0
0.131187
-0.083124
0.0497319
-0.0673634
0.0
0.0298571
-0.120073
-0.0646824
-0.0
-0.0
0.0
-0.0979786
0.0
-0.0
-0.0739334
-0.0
-0.0
-0.0
-0.0
-0.0
-0.0536805
-0.0
-0.0601726
-0.0
-0.0367223
-0.0
0.0
0.0
-0.0
-0.0
-0.0
0.0
-0.0
0.0
0.0
0.0
-0.0
-0.0
-0.0
0.0
0.0
0.0
0.0
-0.0
0.0
0.0
-0.0
0.0
-0.0
0.0
0.0
0.0
-0.0
0.0
0.0
0.0
0.0
0.0
0.0
-0.0
-0.0
-0.0
-0.0
0.0
0.0
0.0
0.0
0.0
-0.0
-0.0
-0.0
0.0
0.0
0.0396429
-0.0
-0.0
0.0
0.0
-0.0
0.0
-0.0
0.0
-0.0
0.0704503
-0.106606
-0.125849
0.112488
0.0663359
-0.132029
-0.0
-0.0602724
0.0770284
-0.118729
0.0
-0.125063
-0.12169
0.0773132
0.0
-0.22763
0.0
-0.0818794
0.0481093
-0.181186
0.0
0.0
-0.0
0.0
0.0
-0.247976
-0.0
0.110244
0.0
-0.099039
0.0
0.0299832
0.0
0.0474753
-0.0
-0.193422
-0.0
0.086577
0.0997125
-0.0
0.0
0.0
0.0
-0.0
-0.0
-0.135498
-0.0622056
0.0472719
0.0818029
-0.134422
-0.0294288
0.0
-0.0298612
-0.0
-0.0
-0.103806
-0.146364
0.0792175
0.0
-0.130428
-0.0799834
0.0296982
0.0
0.0296793
-0.0295236
0.0
-0.252742
0.114594
0.0
-0.0978251
-0.322415
0.0
0.0
0.0
-0.303289
-0.0
-0.249207
0.0526176
0.101831
0.0
-0.298427
-0.0
-0.0293324
-0.161574
-0.40416
-0.068001
-0.0295696
-0.0357039
-0.0815211
-0.0589266
-0.117742
-0.196966
-0.0509689
-0.203121
-0.182555
0.0
0.136621
-0.198615
-0.198001
-0.0688533
0.0
-0.323312
0.0
-0.0296394
0.0
0.0430239
0.337284
-0.328847
-0.0
-0.0297744
-0.0701895
-0.281014
-0.0511525
0.161819
-0.189688
-0.0
0.27493
-0.345939
0.103608
-0.0296205
-0.0285961
-0.178089
-0.0292528
0.153907
-0.0787641
-0.028994
0.0
-0.333867
0.108102
-0.0293885
0.0
-0.120784
-0.0295055
0.0887848
0.0
0.0
-0.0637328
-0.213923
0.116048
-0.0289565
0.0
-0.0390622
-0.0294103
0.083456
-0.0297295
0.0
-0.181632
-0.0342799
0.089209
-0.0292005
0.0
-0.0794371
-0.0353625
0.057848
-0.0
0.0
-0.103139
-0.0297862
0.0535658
-0.0549104
-0.0
-0.140219
-0.0786218
0.10052
0.0
-0.0487384
-0.0694107
-0.0352795
0.118809
-0.0923259
-0.0
-0.0
0.0296567
0.0444075
-0.0480533
-0.0844819
-0.0
0.0575662
0.0691682
0.0
-0.0653068
0.0414286
0.0437421
-0.0
-0.0447645
-0.0
-0.0
0.0953646
-0.0297571
0.0748277
-0.0847521
0.114695
0.135851
-0.101923
-0.0546603
0.0299366
-0.0
0.126479
-0.126365
0.179882
-0.0683039
0.0299515
0.069878
-0.112256
-0.062651
0.0
-0.0
0.0
-0.10118
0.0859287
-0.0
-0.04681
-0.0
-0.0
-0.0
0.0
-0.0
-0.0
-0.0
-0.0
-0.0
0.0
0.0
-0.0
0.0
0.0
-0.0
0.0
-0.0
0.0
-0.0
-0.0
0.0
0.0
-0.0
0.0
-0.0
0.0
0.0
0.0
-0.0
0.0
0.0
0.0
0.0
-0.0
-0.0
-0.0
0.0
-0.0
0.0
-0.0
0.0
0.0
0.0
0.0
-0.0
0.0
0.0
-0.0
0.0
-0.0
-0.0
0.0
0.0
-0.0
-0.0
-0.0
0.0
-0.0
0.0
-0.0
-0.0
0.0
0.0
-0.0
0.0
-0.0
0.0
-0.0
0.0336424
-0.0870707
-0.101991
0.0904477
0.0
-0.113908
-0.0
-0.069644
0.0758475
-0.131947
0.0
0.0
-0.0785913
0.0411348
0.0710839
-0.145074
-0.0
0.0
0.0714684
-0.0981833
-0.0
0.0713444
0.0
0.0
0.0
-0.118476
-0.0
0.110173
0.0879884
-0.0
-0.0297754
0.0772892
0.0295723
0.0
0.0
-0.0370914
-0.0
0.133832
0.152724
0.0
-0.0568623
0.0297966
0.0
-0.0
-0.0296938
0.0
-0.0586795
0.074325
0.168156
-0.0
-0.152583
0.0299582
0.0
0.0
-0.0298169
0.0
-0.151316
0.115939
0.0
0.0
-0.252967
0.0
0.108266
0.0
-0.185429
0.029543
-0.238512
0.0826194
0.0
0.0890589
-0.291275
0.0
0.0
-0.0569107
-0.46584
-0.0
-0.187074
-0.0
-0.0
0.116694
-0.14271
-0.0811538
-0.0493447
-0.161478
-0.270593
-0.122321
-0.0
-0.145365
-0.0299746
-0.0299281
0.0
-0.235994
0.0
-0.0903488
0.0
0.029379
0.235494
-0.274092
-0.0724999
0.0
0.0
-0.24394
0.0
-0.0297945
0.0
0.0294508
0.347905
-0.304046
-0.029311
-0.0
0.0
-0.169162
0.0
0.0
0.0
0.0
0.24362
-0.306665
0.13623
0.0
-0.029756
-0.0700243
-0.0294473
0.121754
-0.0765111
-0.0292598
0.0
-0.283608
0.165947
-0.0297992
0.0
-0.0
-0.0289464
0.124784
0.0
0.0
-0.200091
-0.181097
0.178485
-0.0478574
0.156183
-0.0
0.0
0.0799976
0.0977859
0.136581
-0.167811
-0.0831807
0.160244
-0.0290062
0.0982317
-0.0903195
-0.0297019
0.10325
0.138789
0.0
-0.101975
-0.0382855
0.192639
-0.0583779
0.0297772
-0.121588
0.0
0.047083
0.0623407
0.0
-0.0515353
-0.0293891
0.142194
-0.0
-0.0
0.0296088
0.0294893
-0.0788637
-0.0
0.0
-0.0
0.0672706
-0.0
0.0622747
-0.0401723
0.0592359
0.0465413
-0.0597824
-0.0
-0.0
-0.0
0.0500044
-0.0298429
0.0949658
-0.0
0.0986305
0.104378
-0.113035
-0.0
0.0
-0.0
0.114454
-0.0764667
0.133708
-0.0
0.0649362
0.086957
-0.0829413
-0.0
0.0
-0.0
0.0601633
-0.0608016
0.0789879
-0.0
-0.0
-0.0
-0.0
0.0
-0.0
-0.0
-0.0
-0.0348367
-0.0
0.0
0.0
0.0
-0.0
0.0
0.0
-0.0
-0.0
-0.0
-0.0
0.0
-0.0
0.0
-0.0
0.0
0.0
0.0
-0.0
-0.0
-0.0
0.0
-0.0
0.0
0.0
-0.0
0.0
0.0
0.0
-0.0
0.0
-0.0
0.0
-0.0
-0.0
-0.0
-0.0
-0.0
-0.0
-0.0
-0.0
0.0
0.0
0.0
0.0
0.0
-0.0
0.0
-0.0
-0.0
-0.0
0.0
-0.0
-0.0
0.0
0.0
-0.0
0.0
-0.0
0.0
-0.0
-0.0
-0.042807
-0.0656412
0.0392785
-0.0
-0.0307649
-0.0
-0.0447402
0.0
-0.0757026
-0.0714542
0.09001
0.0
-0.0530935
-0.0
-0.0
-0.0
0.144641
0.0
0.0
-0.0298014
0.0298853
0.0
-0.0
0.0
0.0
-0.0686991
0.0960688
0.0773414
0.0
-0.048758
0.0431683
0.0623394
-0.0
-0.0
0.0
-0.0635113
0.125714
0.12058
0.0487188
-0.141531
0.0294886
0.0
-0.0291231
-0.0500966
0.0
-0.059881
0.0872712
0.0
0.0692415
-0.209458
0.100388
0.0658541
-0.0
-0.179192
0.0
-0.116887
0.170433
0.0
0.126517
-0.238013
0.120597
0.0636032
0.0
-0.394533
-0.0
-0.162731
0.134161
0.0
0.149823
-0.0862804
0.0
-0.029439
-0.0394433
-0.345628
-0.134267
-0.0553941
-0.03017
0.0
0.0
-0.0296699
-0.108585
-0.0293927
-0.105821
-0.124016
-0.0
0.0822851
-0.22896
-0.0294598
-0.0288276
0.0
-0.220134
0.0
-0.162351
-0.0
0.0345217
0.286063
-0.311223
-0.0293296
0.141712
0.0
-0.152681
0.0
-0.130009
0.0
0.0292154
0.302352
-0.31746
-0.0291071
0.0
0.0
-0.123319
-0.0291805
0.0296438
0.0
-0.0285457
0.0738523
-0.309229
0.0
-0.0
-0.0289089
-0.0298876
-0.0292706
0.0808764
-0.0295657
-0.028226
0.0
-0.205759
0.189975
-0.0290383
0.147069
-0.0
-0.0294379
0.119641
0.0
0.0
-0.23507
-0.0891573
0.21409
-0.0627088
0.0893928
-0.0300168
-0.0286611
0.0294494
0.0983704
0.0
-0.149099
-0.0555701
0.169732
-0.0451798
0.0495319
-0.0711838
-0.0296388
0.0298565
0.10138
-0.0
-0.106766
-0.0298024
0.155532
-0.0293298
0.0400894
-0.067963
0.0
0.0296508
0.0613193
0.0
-0.0678013
-0.0296412
0.0991342
0.0
0.0293291
0.0315425
0.0296962
-0.0298797
0.0
-0.0
-0.0373907
0.0296881
-0.0298633
0.0762731
0.0
0.0373457
-0.0
-0.078773
-0.0
-0.0530937
-0.0
0.0435953
-0.0
0.0
-0.0
0.0870192
0.0408478
-0.0874859
-0.0468822
-0.0
-0.0
0.129219
-0.0361131
0.0875718
0.0
0.0789827
0.0824308
-0.104924
-0.0444316
0.0
-0.0
0.0652429
-0.0842735
0.115124
-0.0
-0.0
0.0415605
-0.0547326
-0.0
0.0
-0.0
-0.0
-0.0594274
0.0
-0.0
0.0
0.0
-0.0
0.0
0.0
0.0
0.0
-0.0
0.0
-0.0
0.0
0.0
0.0
-0.0
0.0
-0.0
0.0
-0.0
0.0
0.0
-0.0
-0.0
0.0
-0.0
-0.0
-0.0
-0.0
0.0
-0.0
0.0
-0.0
0.0
0.0
0.0
0.0
0.0
0.0
-0.0
0.0
-0.0
-0.0
0.0
0.0
0.0
0.0
-0.0
0.0
-0.0
-0.0
0.0
-0.0342418
-0.0
-0.0
0.0
0.0
0.0
-0.0461838
-0.0349632
-0.0
-0.0
0.0
0.0
-0.0
-0.0
0.0
-0.0
0.0
-0.0
-0.0
-0.0952611
0.128946
0.083129
-0.0656135
-0.0690572
0.0827622
-0.0444841
0.189881
0.0
0.0454038
-0.0892266
0.0677288
0.0462156
-0.0
-0.0419057
0.0
-0.12464
0.146136
0.0
0.0540958
-0.0643327
0.0
0.0604485
0.0292461
-0.0298826
0.0
-0.114283
0.0819725
0.118732
0.0808462
-0.119981
0.0443202
-0.0
0.047667
-0.123788
0.0
-0.0926634
0.133617
0.235138
0.0
-0.108091
0.171035
0.102616
0.0
-0.260029
0.0298583
-0.0
0.176836
0.0
0.157981
-0.069606
0.225238
0.0854774
-0.0296453
-0.317887
-0.0
0.0
0.107402
0.0
0.173104
-0.0296997
0.108301
0.0
-0.0299579
-0.120989
0.0
0.0
-0.0755714
-0.0
0.183208
-0.131951
-0.0977919
-0.029658
-0.089734
-0.157999
-0.128573
-0.0296185
-0.2926
-0.0294801
-0.0296274
0.0
-0.163133
0.0
-0.183841
-0.115881
0.0291926
0.247481
-0.303554
-0.0297303
0.197326
0.0287387
-0.0865843
0.0
-0.1493
0.0296174
0.0291168
0.282903
-0.264023
-0.0
0.210838
0.0
-0.060225
-0.0293949
0.029564
-0.043183
-0.0
0.0
-0.211046
0.26366
-0.0291001
0.0
-0.0426665
-0.0319335
0.0801789
-0.029189
-0.0296492
-0.109623
-0.154824
0.200991
-0.0298625
0.119017
-0.0293097
-0.0294151
0.0476878
0.0
0.0
-0.246035
-0.0741029
0.1987
-0.0292104
0.0
-0.0294387
0.0406601
0.0
0.0
0.0
-0.176423
0.0
0.103592
-0.0
0.070605
-0.0595829
0.0
0.0
0.0543673
0.0
-0.106922
-0.0
-0.0
0.0406909
0.0477994
0.0
0.0294562
0.0295963
0.0298547
0.0
-0.0626443
0.0441029
0.0
0.0
0.0424781
0.0296305
0.0
0.0
0.0
-0.0
-0.036036
0.0383706
0.100864
0.0703426
-0.0
0.0684213
-0.0
-0.0787738
-0.0747871
-0.0
-0.0
0.0900323
-0.0
0.0
-0.0302094
0.0375563
0.0524289
-0.10633
-0.0883244
0.0
-0.0
0.0836897
-0.0538247
0.0962944
-0.0
0.0374537
0.0867491
-0.0794529
-0.0674853
0.0623689
-0.0
0.0
-0.0767161
0.135158
-0.0
-0.0
0.0874953
-0.043623
-0.0
0.0963189
-0.0
-0.0
-0.0539838
0.101821
-0.0
-0.0
0.0
-0.0
-0.0
0.0
-0.0
-0.0
-0.0330539
0.0
0.0
-0.0
0.0
0.0
-0.0
-0.0
0.0
0.0
-0.0
-0.0
-0.0
-0.0
-0.0
0.0
0.0
0.0
0.0
-0.0
-0.0
-0.0
0.0
0.0
0.0
-0.0
0.0
0.0
-0.0
-0.0
-0.0
-0.0
-0.0
-0.0
0.0
-0.0
-0.0
-0.0
0.0
-0.0
-0.0
0.0
-0.0
-0.0371159
0.0
-0.0
0.0
0.0
-0.0
-0.0459148
-0.0
-0.0
-0.0
0.0
0.0298525
-0.0
-0.0
0.106113
-0.0
0.0
-0.0
0.0
-0.114722
0.111798
0.0504445
0.0
-0.096755
0.107877
-0.0852221
0.132787
-0.0
0.0746194
-0.152254
0.0662308
0.0298603
-0.0
-0.144068
0.0588452
-0.14351
0.150296
-0.0
0.0297269
-0.10345
0.0
0.0
0.0
-0.129259
0.0
-0.144753
0.14155
0.0682958
-0.0
-0.112726
0.0700175
0.0
0.0486907
-0.199401
0.0
-0.0952913
0.130044
0.11882
0.0
-0.029667
0.161869
-0.0
0.0
-0.24225
-0.0289363
-0.0
0.155056
0.0
0.101533
0.0
0.193339
0.107107
-0.0294648
-0.140367
0.0
0.0605182
0.0916186
-0.0294767
0.164294
-0.0514419
-0.0
0.0
-0.0445414
-0.115831
-0.184394
0.0
-0.183005
-0.0
0.207319
-0.0813369
-0.156504
-0.0291816
-0.071385
-0.161078
0.0
0.0768653
-0.318869
0.0
-0.0293701
0.0288581
-0.146316
0.0
-0.103701
0.0360967
0.029455
0.263241
-0.285402
0.0
0.0
0.0292244
-0.0737217
-0.0296323
0.0
0.0293295
0.030316
0.216349
-0.2333
0.2041
-0.0
-0.0353937
-0.0297202
-0.0289793
0.0299465
0.0
0.0
-0.114149
-0.160729
0.214088
-0.0295734
-0.0295605
-0.0296589
-0.0298383
0.0292599
0.0
-0.0276178
-0.208633
-0.101838
0.111199
-0.0299294
-0.0
0.0
0.0
0.0299116
0.0
0.0
-0.225799
-0.0
0.0
0.0
0.0
0.0
0.0
0.029748
-0.0
0.0
-0.168859
0.0
-0.0
0.049196
-0.0
0.0299057
0.0479607
0.0
-0.0377666
0.0971201
-0.0891532
-0.0
-0.102639
0.095817
-0.0
-0.0
0.0413711
0.0
-0.0297912
0.0730903
-0.0577603
-0.0
-0.0
0.0
-0.0356574
0.0
0.0295028
0.0
-0.0854085
0.0
-0.0299546
0.0
-0.0
0.0
-0.0539068
0.0810217
0.0296223
-0.107094
-0.121213
0.0
-0.0
0.107432
-0.0681983
0.0688598
-0.0797428
0.0
0.0
-0.105227
-0.117481
0.0426023
-0.0326705
0.0
-0.084174
0.0
-0.0662111
0.0
0.0524047
-0.104473
-0.0863964
0.0921108
-0.0299856
-0.0
-0.0914075
0.0851069
-0.0
0.0
0.105237
-0.0440817
-0.0
0.121038
-0.0
-0.0
-0.0415838
0.106357
-0.0
0.0
-0.0
-0.0
-0.0
0.0
0.0
-0.0
-0.0
0.0
-0.0
0.0
-0.0
0.0
0.0
0.0
-0.0
-0.0
0.0
-0.0
-0.0
0.0
0.0
-0.0
0.0
-0.0
0.0
0.0
0.0
-0.0
-0.0
-0.0
0.0
0.0
-0.0
0.0
0.0
0.0
-0.0
0.0
-0.0
-0.0
-0.0
0.0
-0.0
-0.0
-0.0
-0.0
-0.0
-0.0
-0.0
-0.067517
0.0
-0.0
-0.0
0.0
-0.0
-0.068585
-0.0
-0.0
-0.0545559
0.0
0.0299352
-0.0
-0.0562415
0.117186
-0.0
0.0
-0.0458357
0.0
-0.11504
0.0676765
0.0298751
-0.0446135
-0.108341
0.165229
-0.0857761
0.061565
-0.0448658
0.0484663
-0.165598
0.0295863
0.0
-0.0
-0.183617
0.0
-0.190448
0.112583
-0.0756397
0.0
-0.144564
0.0459649
0.0389476
-0.0
-0.195359
0.0
-0.174994
0.119644
-0.029605
0.0296498
-0.141157
0.106836
0.0534116
-0.0501804
-0.225363
0.0
-0.0927483
0.131931
-0.0
0.0
-0.0
0.139233
0.0
-0.0505426
-0.129788
-0.0284325
-0.0
0.235804
-0.0373242
0.0899231
-0.091977
0.128057
0.0575131
-0.0562073
-0.132204
-0.028263
-0.0370115
0.069525
-0.029963
0.131316
-0.0912005
-0.0511807
0.0
-0.039229
-0.108632
-0.0294874
-0.0296438
-0.192415
-0.0297363
0.194338
0.0
-0.216096
0.0
-0.121017
0.0
0.0
0.0765408
-0.301204
-0.0294766
0.0
0.0294508
-0.128892
0.0
0.0
0.105201
0.0298458
0.184366
-0.250759
0.0
0.0
0.0291516
-0.069246
-0.02969
0.0
0.0871005
0.0362795
0.11337
-0.188612
0.0
-0.0
-0.0779196
-0.0294372
0.0
0.0
0.0
-0.0
-0.174354
-0.0985166
0.0
-0.0296166
-0.0407206
-0.0297937
0.0655551
-0.041616
-0.0353038
0.163535
-0.23369
-0.0576755
0.0
0.0
-0.0294579
0.0
0.0707442
0.0
-0.0466358
0.192695
-0.162156
0.0
-0.0507556
0.0803865
-0.0615779
0.0
0.0861895
-0.0340784
-0.10128
0.0
-0.131123
-0.0
-0.0715749
0.0808628
-0.0431828
0.0294069
0.031206
-0.0429636
-0.0843199
0.126418
-0.0772507
-0.083426
-0.100207
0.0
-0.0626668
-0.0846933
0.0
-0.0297518
-0.0402086
0.0
-0.061192
-0.0426027
-0.0
-0.0
-0.122121
0.0
0.0340558
-0.115276
-0.134348
0.0
-0.0427287
0.0
-0.0874262
0.0
-0.126598
0.0
0.0419915
-0.1781
-0.164653
0.105262
-0.0435955
0.0701266
-0.174687
0.0
-0.119745
-0.0
0.0491505
-0.139482
-0.141138
0.0989207
-0.0478871
-0.0
-0.156355
0.066528
-0.0930096
-0.0
0.112485
-0.108344
-0.0978019
0.150605
-0.0360597
-0.0478014
-0.101828
0.126034
-0.0
0.0
0.0948636
-0.0
-0.0
0.120688
-0.0
0.0
-0.037131
0.0926362
0.0
-0.0
0.0
-0.0
-0.0
0.0
0.0
0.0
-0.0
0.0
0.0
0.0
-0.0
-0.0
-0.0
0.0
0.0
0.0
0.0
-0.0
0.0
-0.0
-0.0
0.0
0.0
-0.0
0.0
0.0
-0.0
-0.0
0.0
0.0
0.0
-0.0
0.0
-0.0
0.0
-0.0
-0.0
0.0
0.0
-0.0
-0.0
-0.0
-0.0
-0.0
-0.0
-0.0
-0.0
-0.0
-0.0
-0.0557069
0.0
-0.0
-0.0
0.0
-0.0
-0.0510583
-0.0
0.0
-0.0450173
0.0
0.029881
-0.0473208
-0.0536413
0.1197
-0.0
0.0
-0.0
0.0
-0.132529
0.0
0.0
-0.0819217
-0.119137
0.0
-0.0963499
0.059358
-0.0485459
0.0295087
-0.166669
0.0295558
0.0
-0.114467
-0.187715
0.0
-0.167807
0.106618
-0.0674534
0.0
-0.149368
0.0298444
0.0
-0.136113
-0.233417
0.0
-0.127634
0.0679744
-0.084203
0.0
-0.0811619
0.0299627
0.0
-0.180839
-0.195308
0.0
-0.0700625
0.0808477
-0.13021
0.0500862
-0.079116
0.107171
0.029418
-0.232278
-0.14078
0.0292321
-0.0451973
0.230117
-0.188289
0.0907402
0.0
0.18056
0.0917508
-0.189151
-0.119411
0.0
-0.043175
0.14168
-0.157236
0.165471
0.0
0.0993152
0.192762
-0.161383
0.0
0.0286917
-0.0295415
-0.054859
-0.143692
0.309834
0.0299379
-0.0813596
0.176165
-0.114056
0.0293777
0.0284027
-0.0
-0.142474
-0.115249
0.251217
0.0796338
-0.130945
0.167316
-0.0867084
0.121815
0.0289477
0.0900392
-0.149513
-0.0534632
0.171556
0.029614
-0.0642242
0.107471
0.0
0.05619
0.0297376
0.0
-0.136113
0.0
0.0663505
-0.0722671
-0.0
0.0891021
-0.0435008
0.0
0.0
-0.0761301
-0.0926964
-0.054019
0.0292942
-0.0577961
-0.0
0.0790399
-0.102947
-0.0880834
0.0
-0.0833882
-0.0491173
-0.114222
0.0411632
-0.0829575
0.0632796
0.0814667
-0.0481902
-0.111151
0.182563
-0.0845198
0.0714143
-0.0998491
0.110435
-0.111325
0.0
0.0673879
-0.0729453
-0.0925412
0.131195
-0.0696672
-0.0609095
-0.0949987
0.0
-0.0674137
0.0
0.0713459
-0.046076
-0.0410886
0.110143
-0.0
-0.0767825
-0.078651
0.0490259
-0.126658
0.0367631
0.0746628
-0.123947
-0.0791384
0.135612
-0.0534613
-0.0
-0.113661
0.040364
-0.180438
0.0
0.0679139
-0.193362
-0.159489
0.147107
-0.0599653
0.0
-0.129542
0.0463603
-0.173133
0.0
0.0973953
-0.165377
-0.163227
0.1007
-0.0574384
0.0592087
-0.174047
0.0790987
-0.118437
-0.0
0.0923345
-0.0965785
-0.107593
0.141766
-0.0330018
-0.0
-0.122596
0.113096
-0.0698179
0.0
0.11446
-0.0454444
-0.0534798
0.160958
-0.0
-0.0
-0.0678148
0.157935
-0.0
0.0
0.0655591
-0.0
-0.0
0.102624
-0.0
-0.0
-0.0
0.0745075
0.0
0.0
0.0
0.0
-0.0
0.0
0.0
-0.0
-0.0
0.0
0.0
-0.0
-0.0
0.0
0.0
0.0
0.0
0.0
-0.0
0.0
-0.0
-0.0
-0.0
0.0
0.0
-0.0
0.0
-0.0
-0.0
-0.0
-0.0
0.0
0.0
0.0
0.0
0.0
0.0
0.0
0.0
0.0
-0.0
-0.0
0.0
-0.0
-0.0
0.0
-0.0
0.0
-0.0
-0.0
-0.0
-0.0
0.0
-0.0
-0.0
0.0897792
-0.0
-0.0
-0.0
0.0470644
-0.0665209
0.0420114
0.0702983
-0.0530228
-0.0682413
0.174839
-0.0
0.0
-0.043124
0.0868902
-0.175484
0.0383346
0.0298154
-0.0891364
-0.156891
0.158742
-0.0857317
0.0701145
-0.0864153
0.038249
-0.198556
0.0
0.0295007
-0.168488
-0.225713
0.135469
-0.0755956
0.0671631
-0.137621
0.0299016
-0.124013
-0.0
0.0295857
-0.209844
-0.237926
0.117694
0.0
0.0615449
-0.174381
0.0293056
-0.0297194
-0.0
0.0294953
-0.21513
-0.131872
0.0587585
-0.0
0.0575828
-0.148087
0.0294161
-0.0759946
0.106224
0.029704
-0.200894
-0.123429
0.0386368
-0.0299191
0.177833
-0.145849
0.0349252
0.0
0.271271
0.0478352
-0.193267
0.0
-0.0
0.0
0.217491
-0.182805
0.0497596
0.0
0.245292
0.121611
-0.122047
0.0298532
0.0
0.0
0.154795
-0.147903
0.176751
0.0297366
0.0989231
0.0971646
-0.0
0.0975591
-0.183808
-0.0479366
0.0
-0.117562
0.1481
0.0296459
-0.0514153
0.106665
-0.0528904
0.0490122
-0.0
-0.090152
-0.0554633
-0.117699
0.077274
0.0297223
-0.0
0.103166
-0.0764481
0.0457314
-0.0
-0.0450362
-0.0876113
-0.119504
0.0716204
-0.0296195
-0.0
0.101948
-0.0732848
0.0
-0.0
0.0
-0.0642084
-0.108523
0.06932
-0.0870417
-0.0779049
0.0741619
-0.0920257
-0.0657823
0.0
0.0
-0.100651
-0.0773675
0.0821135
-0.0725026
-0.0713168
0.041756
-0.104765
-0.051315
0.0
0.0
-0.0
-0.0922734
0.0
-0.155945
-0.10257
0.0848339
-0.168953
-0.124729
0.132885
-0.0
-0.0995921
-0.144135
0.092321
-0.132221
-0.0
0.0714235
-0.0962727
-0.102728
0.100381
-0.035066
-0.0648343
-0.104728
0.0525621
-0.15987
0.0
0.06505
-0.12578
-0.124806
0.10665
-0.045466
-0.061878
-0.109135
0.0573958
-0.159512
0.0564529
0.107588
-0.145953
-0.146964
0.118681
-0.0411686
-0.0296849
-0.110945
0.098935
-0.144667
0.0
0.0731342
-0.114803
-0.136535
0.0743623
0.0
-0.0
-0.118393
0.0766191
-0.0855591
-0.0
0.110294
-0.0752324
-0.0860389
0.128919
-0.0
-0.0378064
-0.0858297
0.110322
-0.0523143
0.0
0.103351
-0.0
-0.0389737
0.151727
-0.0
-0.0
-0.0
0.132747
-0.0
0.0
0.0466383
0.0
-0.0
0.0656726
-0.0
-0.0
-0.0
0.0511687
0.0
-0.0
0.0
0.0
0.0
0.0
0.0
0.0
-0.0
0.0
-0.0
0.0
0.0
0.0
-0.0
-0.0
0.0
0.0
-0.0
0.0
0.0
0.0
-0.0
-0.0
-0.0
-0.0
-0.0
-0.0
-0.0
-0.0
0.0
-0.0
0.0
-0.0
-0.0
0.0
0.0
-0.0
-0.0
-0.0
0.0
-0.0
0.0
-0.0
0.0
0.0
0.0
-0.0
-0.0
0.0
-0.0
0.0
0.054376
-0.0511395
-0.0
0.0891889
-0.0
-0.0
-0.0398871
0.0584187
-0.0641219
0.0569666
0.0670315
-0.0634425
-0.0773898
0.169572
0.0
0.0
-0.0661665
0.0921496
-0.158474
0.0777771
0.029736
-0.119486
-0.169738
0.154704
0.0
0.0576472
-0.101553
0.0410362
-0.132851
0.0311991
0.0
-0.162187
-0.198895
0.0
0.0454038
0.0
-0.147058
-0.0
-0.132166
0.0301901
0.0
-0.232941
-0.182985
0.0
-0.0
0.0
-0.145066
0.0
-0.116698
0.0296432
0.0
-0.178245
-0.12479
0.0651919
-0.0
0.03083
-0.0797651
-0.0
-0.103032
0.0689423
0.0
-0.109724
-0.0897879
0.0
-0.029674
0.0850866
-0.0
0.0
0.0
0.176826
0.0293019
-0.076492
0.0
0.0
0.0581661
0.187195
-0.093558
0.0294179
-0.123801
0.237504
0.0
-0.08306
0.0
-0.0
-0.123432
0.16929
-0.120887
0.0292056
-0.0967713
0.177982
0.0
-0.0649704
-0.059636
-0.029276
-0.167962
0.0771799
-0.105207
0.0
-0.0856055
0.105593
0.0296019
-0.0897408
-0.0296377
-0.0282763
-0.164583
-0.0468256
-0.166458
0.0499635
0.0
0.0753429
0.0489165
-0.0750537
0.0
-0.0279522
-0.0462029
-0.0
-0.138977
0.0770967
0.0296096
-0.0
0.045702
-0.114538
0.0
0.0
0.0
-0.0627358
-0.0841891
0.0378971
-0.0863843
-0.0297748
0.0450598
-0.118658
-0.0495921
0.0
0.0821289
-0.048475
0.0
0.0385429
-0.0573088
-0.0297536
0.0
-0.144343
-0.0656637
0.0
0.0
-0.0516425
-0.0770533
0.0296202
-0.122237
-0.029605
0.0297159
-0.183098
-0.116865
0.0929824
0.0
-0.0853445
-0.0952954
0.0781743
-0.111966
-0.0
0.0573198
-0.0862523
-0.10474
0.0790577
-0.0400904
-0.107938
-0.0863922
0.0568663
-0.107029
0.0
0.0
-0.0904436
-0.116954
0.0
-0.0697915
-0.0819422
-0.0882028
0.0
-0.119634
0.0
0.0748151
-0.096245
-0.132606
0.0595066
-0.0668719
-0.07547
-0.0612419
0.0661009
-0.116293
0.0
0.107028
-0.0834289
-0.121072
0.073893
-0.067627
-0.0422063
-0.0654
0.0994315
-0.0714587
0.0
0.125104
-0.0653967
-0.0716375
0.106328
-0.0402187
-0.0
-0.0546679
0.128956
-0.0
0.0
0.0684334
-0.0
-0.0
0.0934937
-0.0
-0.0
0.0
0.0893925
-0.0
0.0
0.0
0.0
-0.0
0.048907
0.0
-0.0
0.0
0.0
-0.0
0.0
0.0
0.0
-0.0
0.0
0.0
-0.0
0.0
0.0
-0.0
0.0
0.0
-0.0
0.0
0.0
0.0
0.0
-0.0
-0.0
0.0
-0.0
-0.0
0.0
0.0
-0.0
-0.0
0.0
0.0
-0.0
0.0
-0.0
-0.0
-0.0
0.0
0.0
0.0
0.0
0.0
-0.0
0.0
-0.0
0.0
-0.0
0.0
0.0
-0.0
0.0
-0.0
0.0
-0.0
0.0
0.0443763
-0.0538972
-0.0
0.061278
-0.0
-0.0
-0.0398098
0.0
-0.0480297
-0.0
0.0677802
-0.0682844
-0.0509566
0.130471
0.0
-0.0359047
-0.0701231
0.0457582
-0.0
0.0627409
0.0525119
-0.135399
-0.0886093
0.173654
0.126975
0.0572989
-0.10046
0.0702071
-0.0655875
0.0736622
0.0297577
-0.170488
-0.166596
0.136692
0.0865985
0.0912329
-0.114387
0.0
0.0
0.125662
0.0292136
-0.18035
0.0
0.115168
0.0631896
0.0861318
-0.0902206
0.0
0.0
0.129019
0.0296301
-0.111746
0.0
0.0853976
0.0
0.090466
0.0
0.0299439
-0.0924499
0.107728
0.0297931
-0.0545271
0.0
0.099677
-0.0
0.0564661
-0.0
0.0292245
-0.0297388
0.114367
0.0293225
0.0
0.0
-0.0
-0.0630138
0.105266
0.0
-0.0
-0.13167
0.119691
0.0
-0.069023
-0.121698
-0.0284871
-0.190436
0.0964109
-0.0
-0.25511
-0.103965
0.0850001
0.0
-0.0499695
-0.0846769
-0.03804
-0.195387
0.0551552
-0.131338
-0.0
-0.143401
0.0665255
0.0
-0.0634566
-0.0601267
-0.0693671
-0.185144
0.09318
-0.139415
0.0
0.0293162
-0.0
0.0
-0.0492685
0.0
-0.0
-0.0561727
0.0406134
-0.0
0.0
0.0296445
0.0
0.0
-0.142541
0.0623803
0.0624625
0.0
0.0
-0.0668715
0.0
0.0
0.0
0.0
-0.125913
0.0
0.0
0.108521
-0.0297641
-0.0570836
-0.0
0.0
-0.0
0.0
-0.106553
0.0
0.0
0.106266
0.0
-0.0467893
-0.0963804
-0.081961
-0.029491
0.0
-0.118867
-0.0688222
0.029558
0.0
-0.0505725
-0.0729488
0.0
-0.0684706
-0.0
0.0
-0.0438562
-0.0748104
0.0593244
-0.0458479
-0.0791682
-0.0758918
0.0805744
-0.128386
-0.0
0.0870264
-0.0414904
-0.122298
0.0619031
-0.0932087
-0.097998
-0.0697531
0.0
-0.109377
-0.0
0.088869
-0.0674584
-0.10617
0.0442341
-0.08284
-0.0820425
-0.0
0.0
-0.0714396
0.0
0.0847697
-0.0
-0.0639991
0.0788532
-0.0513674
-0.0
0.0
0.0649932
-0.0344509
0.0
0.0853492
-0.0440092
-0.0335345
0.0816013
-0.0304623
-0.0
-0.0437984
0.0726918
-0.0
0.0
0.0
-0.0
-0.0
0.034718
-0.0
-0.0
-0.0
0.0
0.0
-0.0
0.0
-0.0
0.0
0.0
0.0
-0.0
0.0
-0.0
0.0
0.0
-0.0
0.0
0.0
0.0
0.0
0.0
-0.0
0.0
0.0
0.0
-0.0
0.0
-0.0
0.0
-0.0
-0.0
0.0
-0.0
-0.0
0.0
0.0
0.0
-0.0
-0.0
0.0
-0.0
-0.0
-0.0
-0.0
-0.0
0.0
0.0
0.0
0.0
-0.0
-0.0
-0.0
0.0
-0.0
-0.0
0.0
-0.0
-0.0
0.0
-0.0
-0.0
-0.0
-0.0
-0.0
0.0
0.0
-0.0
-0.0
0.0
-0.0
-0.0
-0.0
0.0
-0.0
-0.0
0.0299605
-0.0740519
-0.0446774
0.0
-0.0
-0.0
-0.0538875
-0.0
0.0589338
0.0
0.0473608
-0.0901519
-0.0429696
0.141203
0.120944
0.0
-0.0685759
-0.0
0.0866614
0.0
0.0298666
-0.110818
0.0
0.131398
0.132302
0.0534559
-0.0541958
-0.0621504
0.0702522
0.0299127
0.0299197
-0.0850143
0.0386574
0.131718
0.0600152
0.0944295
-0.039798
0.0
0.0
0.0940583
0.029988
-0.0730361
0.0
0.102702
0.0
0.10851
-0.0511267
0.0295637
0.0
0.104204
0.0298531
-0.0730103
0.0
0.12949
-0.0
0.115538
-0.106943
0.0298458
0.0
0.127965
0.0297167
0.0
-0.0
0.0
-0.0751655
0.117396
-0.0
0.0291633
0.0
0.0900183
0.0291529
-0.0991917
-0.0360337
0.0
-0.0725042
0.111557
-0.103554
-0.0
-0.0703142
0.0693479
0.0
-0.104112
-0.0380614
-0.0292988
0.0
0.0886937
-0.143606
0.0
-0.0858066
0.0297131
0.0
-0.0753458
-0.0461132
-0.0293476
-0.0988423
0.11517
-0.110974
-0.0
0.0
0.0522211
0.0
-0.127212
-0.0295577
-0.0293682
-0.139143
0.121097
-0.0830291
0.0
0.0528243
-0.0
0.0295216
-0.121741
0.0524758
0.0
0.0
0.0880584
-0.0775731
-0.0
0.0674137
-0.0398982
0.0
-0.0894974
0.0
0.0
0.0621165
-0.0
-0.0479215
-0.196267
0.116521
-0.0298284
-0.0
-0.0532392
0.0893719
-0.0
0.154998
-0.0297009
-0.0
-0.130675
-0.038714
-0.08569
-0.0
-0.0491879
-0.0695578
-0.0
0.0
-0.120477
-0.0637052
-0.0
-0.0539268
-0.082772
-0.0298649
-0.0571218
-0.0861657
0.0
-0.0306694
-0.103907
-0.0503928
-0.0297296
-0.085657
-0.0998641
-0.0
-0.029884
-0.0875432
-0.0
-0.058534
-0.109203
-0.0297882
-0.0414851
-0.0756708
-0.0299824
0.0
0.0
-0.0855595
0.0404989
-0.0567778
-0.0636064
0.0
-0.0
-0.0421013
-0.0
0.0600757
0.0
-0.0485069
0.0565387
-0.0404925
-0.0
0.0
0.0
-0.0
0.0
0.0
-0.0471969
-0.0331675
0.0392451
-0.0337932
-0.0
-0.0
0.0
0.0
-0.0
-0.0
-0.0354553
-0.0
0.0
-0.0
0.0
-0.0
-0.0
-0.0
0.0
0.0
-0.0
0.0
0.0
0.0
-0.0
-0.0
0.0
0.0
-0.0
0.0
-0.0
0.0
0.0
0.0
0.0
0.0
0.0
0.0
0.0
0.0
0.0
0.0
-0.0
-0.0
0.0
0.0
-0.0
0.0
-0.0
-0.0
-0.0
-0.0
0.0
-0.0
-0.0
-0.0
-0.0
0.0
-0.0
0.0
0.0
-0.0
0.0
0.0
0.0
-0.0
0.0
0.0
-0.0
-0.0
-0.0
-0.0
0.0
-0.0
-0.0
-0.0
-0.0
-0.0
-0.0
0.0
-0.0
-0.0
-0.0
-0.0
-0.0
-0.0
-0.0
-0.0
-0.0
0.0
-0.0
-0.0
-0.0
-0.0
-0.0
-0.0
-0.0
0.0821973
-0.0541812
0.0
-0.0
0.0
-0.0
0.0
0.0
0.0
-0.0722012
0.0804802
-0.0792645
-0.0
-0.0
0.0
-0.0
0.0472048
0.0
-0.0
-0.124039
0.0
-0.0766752
0.0
-0.0496431
-0.0529037
-0.0
-0.0
0.0
-0.0
-0.153848
-0.0446866
-0.0604429
0.0
0.0
-0.0487236
-0.0
-0.0838748
0.0
0.0
-0.122627
-0.0934049
-0.0475717
0.0299376
-0.0794485
-0.0993158
-0.0
-0.0906089
-0.0297848
-0.131831
-0.13392
-0.0528034
-0.103701
0.0
-0.104446
-0.0814088
-0.0296324
-0.145662
-0.0464788
-0.143024
-0.191107
-0.0295062
-0.100258
0.0297683
-0.127616
-0.0293904
-0.0
-0.14726
-0.0
-0.151527
-0.152256
-0.0556765
-0.0584667
0.0297605
-0.084785
-0.0
-0.0297329
-0.136031
-0.0
-0.162532
-0.0
-0.0839684
-0.0
0.0297574
-0.0828777
-0.101899
-0.029688
-0.174505
-0.0297052
-0.188357
-0.164642
-0.0855236
-0.0540564
0.0298058
-0.168625
-0.0630108
-0.0
-0.196451
-0.0467026
-0.19302
-0.140711
-0.0440962
-0.107479
0.0
-0.10786
-0.0923772
-0.0
-0.138475
-0.107493
-0.170692
-0.114963
-0.0295951
-0.133557
0.0
-0.0902984
-0.0841264
0.0
-0.105002
-0.133175
-0.156652
-0.108742
0.0
-0.132283
0.0
-0.0297157
-0.0
0.0
0.0
-0.155691
-0.108882
-0.0862644
0.0
-0.153445
-0.0558896
0.0
-0.0
-0.0298393
0.0
-0.133768
-0.0752021
-0.0782284
-0.0
-0.124814
-0.0907664
0.0
0.0
-0.0694084
-0.0
-0.0764482
-0.0
-0.136738
-0.029881
-0.103079
-0.101304
0.0
-0.0
-0.0815499
-0.0
-0.0
0.0
-0.124456
-0.0299407
-0.0422849
-0.063415
0.0
-0.0401116
-0.0359824
-0.0
-0.0
0.0
-0.0754692
-0.0
-0.0396154
-0.0
0.0
-0.0
-0.0
-0.0
-0.0
0.0
-0.0418167
-0.0
-0.0
-0.0
-0.0493841
-0.0
-0.0
-0.0
0.0
-0.0
-0.0
-0.0
0.0
-0.0
-0.0341475
-0.0
0.0
0.0
0.0
-0.0
-0.0
-0.0
-0.0
0.0
-0.0
0.0
-0.0
-0.0
-0.0
-0.0
-0.0
0.0
0.0
0.0
-0.0
0.0
-0.0
-0.0
-0.0
-0.0
0.0
-0.0
-0.0
0.0
-0.0
-0.0
-0.0
0.0
-0.0
0.0
-0.0
0.0
-0.0
0.0
0.0
-0.0
-0.0
0.0
-0.0
0.0
-0.0
0.0
0.0
0.0
0.0
-0.0
-0.0
-0.0
-0.0
-0.0
0.0
0.0
0.0
-0.0
-0.0
0.0
-0.0
-0.0
0.0
0.0
-0.0
-0.0
-0.0
-0.0
0.0
0.0
-0.0
-0.0
-0.0
-0.0
0.0
0.0
-0.0
-0.0
-0.0
0.0
-0.0319301
0.0
0.0
0.0
-0.0
-0.0
-0.0
-0.0
-0.0
-0.0
-0.0421248
-0.0
-0.0
0.0
-0.0373586
-0.0
-0.0
-0.0452904
-0.0
-0.0
-0.061261
-0.0
-0.0
0.0
-0.0591644
0.0567731
-0.0612075
-0.0875149
0.0
0.0520956
-0.0832002
-0.0
-0.0689899
0.0299168
-0.0796383
0.142895
-0.108464
-0.13074
0.0
0.111063
-0.0544804
-0.0
-0.0877382
0.0
-0.136238
0.122783
-0.1531
-0.136595
0.0
0.117995
-0.0466087
-0.0606162
-0.120898
0.0
-0.166994
0.0985913
-0.16619
-0.0957786
0.0
0.0
-0.0298581
-0.115493
-0.159767
-0.0
-0.148746
0.133853
-0.143358
-0.100549
0.029622
0.078544
-0.0298682
-0.110455
-0.15638
0.0
-0.137651
0.145198
-0.152332
-0.124302
0.0772688
0.108787
-0.0296306
-0.097639
-0.168239
0.0
-0.154412
0.103566
-0.116428
-0.123422
0.0
0.0450423
-0.0297216
-0.120279
-0.153189
0.0
-0.158393
0.116911
-0.124593
-0.110696
0.0
0.0761086
-0.0297982
-0.124682
-0.162763
-0.0
-0.140294
0.0
-0.15866
-0.107069
0.0
0.0555121
-0.0298498
-0.102198
-0.171921
-0.114211
-0.126188
0.0
-0.106164
-0.050951
0.0
0.0
-0.0299539
-0.0678671
-0.105342
0.0
-0.0933533
0.0
-0.120457
-0.0356835
0.0
0.0
0.0
-0.0
-0.117849
0.0
-0.0762096
0.0876091
-0.0906484
-0.0510713
0.0978449
0.0630189
-0.0
-0.0
-0.089967
0.0298533
-0.0631868
0.0
-0.0614558
-0.0619579
0.0973589
0.0
-0.0299579
-0.0
-0.041517
0.029983
-0.0734349
0.0
-0.0515232
-0.0607983
0.0
0.0
-0.0521568
-0.0
-0.0
0.0298587
-0.0692691
-0.0
-0.0355967
-0.0438686
0.0508911
-0.0
-0.0381744
-0.0
-0.0
0.0
-0.0363294
-0.0
-0.0
-0.0
0.0
-0.0
-0.0
0.0
0.0
0.0
-0.0
-0.0
-0.0
-0.0
-0.0
-0.0
-0.0
0.0
-0.0
-0.0
-0.0
-0.0
0.0
0.0
-0.0
-0.0
0.0
0.0
0.0
-0.0
0.0
-0.0
-0.0
-0.0
0.0
-0.0
-0.0
-0.0
0.0
0.0
-0.0
0.0
0.0
-0.0
-0.0
-0.0
-0.0
0.0
0.0
-0.0
0.0
0.0
-0.0
0.0
-0.0
-0.0
-0.0
-0.0
-0.0
0.0
0.0
0.0
-0.0
0.0
-0.0
-0.0
-0.0
-0.0
-0.0
-0.0
0.0
0.0
0.0
0.0
0.0
0.0
0.0
0.0
0.0
-0.0
0.0
-0.0
0.0
-0.0
0.0
0.0
0.0
0.0
-0.0
-0.0
-0.0
0.0
-0.0
-0.0
0.0
0.0
-0.0
-0.0
0.0
0.0
0.0
-0.0
0.0
-0.0
0.0
-0.0
-0.0
-0.0
-0.0
0.0
-0.0
-0.0
0.0
-0.0
0.0
-0.0
-0.0
-0.0
-0.0
0.0
0.0
-0.0
-0.0
-0.0
0.0
0.0
-0.0
0.0
-0.0
0.0342019
-0.0
0.0
-0.0320268
-0.0
0.0483595
0.0391806
-0.0
0.0
-0.0417567
0.048629
-0.0
0.0773785
-0.0464611
-0.0312208
0.0996346
0.0868577
-0.0374388
0.0
-0.0407854
0.0602062
-0.0324424
0.072245
-0.0604764
-0.0442441
0.143507
0.0632772
-0.0499119
0.0
-0.0692547
0.082334
-0.0560198
0.0834986
-0.0459763
-0.0362112
0.148363
0.0710687
-0.0353296
0.0
-0.0590979
0.0870358
-0.0310835
0.0721299
-0.0412217
-0.0482741
0.125356
0.0675917
-0.0299955
-0.0
-0.0336305
0.0973227
-0.0372101
0.0684116
-0.0
-0.0429648
0.108414
0.0545713
-0.0299766
-0.0
-0.0
0.0988286
-0.0
0.094819
-0.0
-0.049503
0.151709
0.0961056
-0.0463503
-0.0
-0.0527336
0.102623
-0.0
0.113702
-0.0510848
-0.0460949
0.185111
0.135926
-0.0521862
-0.0
-0.0735802
0.126793
-0.0323199
0.0667574
-0.0454738
-0.0339771
0.156263
0.103496
-0.0406519
-0.0
-0.0648005
0.100143
-0.0
0.0773531
-0.0341517
-0.0
0.0990819
0.0579112
0.0
-0.0
-0.0415439
0.0708528
-0.0
0.0595147
-0.0
-0.0
0.0747828
0.0424503
-0.0
0.0
-0.0354076
0.0
-0.0
0.0546907
-0.0
-0.0
0.0425202
0.061055
-0.0
-0.0
-0.0
0.0
-0.0
0.0
-0.0
0.0
0.0
0.0
0.0
0.0
-0.0
0.0
-0.0
0.0
-0.0
-0.0
0.0
-0.0
0.0
-0.0
-0.0
0.0
-0.0
0.0
0.0
0.0
-0.0
0.0
-0.0
-0.0
-0.0
0.0
0.0
0.0
0.0
0.0
0.0
0.0
-0.0
0.0
-0.0
-0.0
0.0
-0.0
0.0
0.0
0.0
0.0
-0.0
-0.0
-0.0
0.0
-0.0
0.0
-0.0
-0.0
0.0
-0.0
0.0
0.0
0.0
0.0
-0.0
0.0
0.0
0.0
0.0
0.0
-0.0
0.0
0.0
-0.0
0.0
-0.0
-0.0
0.0
-0.0
0.0
0.0
0.0
-0.0
0.0
-0.0
-0.0
-0.0
-0.0
-0.0
0.0
-0.0
-0.0
0.0
-0.0
-0.0
0.0
-0.0
0.0
0.0
-0.0
0.0
0.0
-0.0
-0.0
0.0
0.0
0.0
-0.0
0.0
0.0
0.0
0.0
0.0
-0.0
0.0
-0.0
-0.0
-0.0
0.0
0.0
-0.0
0.0
-0.0
-0.0
-0.0
0.0
-0.0
0.0
0.0
0.0
0.0
-0.0
-0.0
-0.0
0.0
-0.0
0.0
-0.0
-0.0
-0.0
-0.0
-0.0
-0.0
0.0
0.0
0.0
0.0
-0.0
0.0
-0.0
0.0
-0.0
0.0
-0.0
-0.0
-0.0
-0.0
-0.0
-0.0
0.0
0.0
-0.0
-0.0
0.0
0.0
0.0
-0.0
0.0
0.0
0.0
-0.0
-0.0
0.0
0.0
0.0
0.0
0.0
0.0
0.0
-0.0
-0.0
0.0
0.0
0.0
0.0
0.0
-0.0
-0.0
0.0
0.0
-0.0
0.0
-0.0
0.0
0.0
-0.0
0.0
0.0
0.0
-0.0
0.0
0.0
0.0
-0.0
-0.0
0.0
0.0
-0.0
0.0
0.0
-0.0
-0.0
0.0
0.0
-0.0
0.0
-0.0
-0.0
0.0
0.0
0.0
0.0
-0.0
0.0
-0.0
0.0387609
0.0
-0.0
0.0396882
0.0
0.0
0.0
-0.0
0.0
-0.0
0.0
-0.0
-0.0
0.0396492
0.0
-0.0
0.0
-0.0
0.0
-0.0
0.0
-0.0
-0.0
0.0
0.0413521
0.0
0.0
-0.0
0.0
-0.0
0.0
0.0
0.0
0.0381722
0.0
-0.0
0.0
0.0
0.0
-0.0
0.0
-0.0
0.0
0.0
0.0
0.0
-0.0
-0.0
0.0
0.0
0.0
-0.0
0.0
0.0
0.0
-0.0
-0.0
-0.0
-0.0
0.0
0.0
-0.0
-0.0
0.0
0.0
-0.0
-0.0
0.0
0.0
-0.0
-0.0
0.0
-0.0
0.0
0.0
0.0
0.0
-0.0
-0.0
0.0
0.0
-0.0
-0.0
-0.0
-0.0
0.0
0.0
0.0
0.0
0.0
0.0
-0.0
-0.0
0.0
-0.0
0.0
0.0
-0.0
-0.0
0.0
-0.0
-0.0
-0.0
-0.0
0.0
-0.0
0.0
-0.0
0.0
-0.0
0.0
0.0
0.0
-0.0
-0.0
0.0
0.0
-0.0
0.0
0.0
0.0
-0.0
-0.0
0.0
0.0
0.0
0.0
-0.0
0.0
0.0
0.0
0.0
0.0
-0.0
-0.0
0.0
0.0
0.0
-0.0
0.0
0.0
0.0
0.0
0.0
0.0
-0.0
-0.0
-0.0
-0.0
0.0
0.0132773
-0.000293051
-0.199894
-0.107878
-0.0863488
-1.96958e-05
-0.0648598
-0.0346079
-0.317943
-9.44117e-05
0.745358
0.0359262
0.829123
-0.0
-0.0
0.285516
-0.0
-0.0
0.836716
0.1433
-0.0
-0.114088
0.0
0.642466
0.632658
-0.130045
0.557968
0.582031
0.0
0.858252
-0.0266326
-0.25645
-0.0
0.349431
0.385283
-0.0294785
0.520375
0.464709
-0.0
-0.0511517
-0.0288664
0.741272
0.857992
-0.0853705
-0.156037
0.319562
-0.150668
-0.258897
0.769815
0.666605
0.88155
0.0299837
0.927532
-0.0
-0.0
0.568986
-0.0
-0.0
0.950804
0.0549131
1.21062
-0.139961
0.933356
0.400956
0.254026
0.0
0.0927393
0.140358
0.531846
-0.0290466
0.683317
-0.110828
0.752888
0.114236
0.2107
1.31262
0.274378
0.243552
0.914152
-0.100354
-0.0739025
-0.0980627
-0.140066
0.87917
0.820577
-0.112482
0.664227
0.715653
-0.0930469
1.30838
-0.0
1.00558
-0.125798
-0.0451739
-0.0729863
0.730749
-0.0546425
-0.118266
-0.0292529
0.829603
-0.105753
-0.219649
-0.0
0.528961
0.669327
-0.0293362
0.8687
0.803927
0.0
-0.117934
-1.33154
-1.3235
-0.96542
0.65246
0.347593
2.53327
0.0275391
-1.27916
2.5059
-0.167138
-0.581037
0.424527
0.377365
0.984105
-0.553301
-0.175334
-0.909568
0.64854
0.321394
-0.0
-0.231109
-0.536301
0.0
-0.170107
0.923854
-0.346157
-0.219675
0.154277
-0.437627
0.716548
-0.781305
0.513907
0.483179
0.699627
-0.978708
-0.253841
-0.813724
0.688386
-0.0291115
0.270231
0.692681
0.0298581
0.596838
0.106043
-0.581212
-0.0294641
0.627907
-0.550718
-0.317045
-0.697661
0.634427
0.102023
0.595429
0.0295572
-0.535206
-0.0294566
0.735427
-0.629327
-0.242177
-0.72721
-0.479371
1.01141
-0.19962
-0.831795
0.803128
-0.422736
-0.402182
0.28866
-0.122043
0.363268
0.463668
0.173478
0.594031
0.0283398
-0.511205
-0.0289917
0.963555
-0.617578
-0.215427
-0.697119
0.523738
0.134193
0.578592
0.0293142
-0.544846
-0.0
0.88205
-0.659518
-0.153276
-0.706227
-0.646535
0.743568
0.420999
0.285835
-0.940525
-0.266095
-0.80463
0.733565
-0.0
0.260504
1.13926
-0.881997
-0.0691156
-0.364764
0.793458
-0.251055
-0.640567
0.189089
-0.496231
0.58616
